{"learner":{"attributes":{"scikit_learn":"{\"_estimator_type\": \"classifier\"}"},"feature_names":[],"feature_types":[],"gradient_booster":{"model":{"cats":{"enc":[],"feature_segments":[],"sorted_idx":[]},"gbtree_model_param":{"num_parallel_tree":"1","num_trees":"300"},"iteration_indptr":[0,1,2,3,4,5,6,7,8,9,10,11,12,13,14,15,16,17,18,19,20,21,22,23,24,25,26,27,28,29,30,31,32,33,34,35,36,37,38,39,40,41,42,43,44,45,46,47,48,49,50,51,52,53,54,55,56,57,58,59,60,61,62,63,64,65,66,67,68,69,70,71,72,73,74,75,76,77,78,79,80,81,82,83,84,85,86,87,88,89,90,91,92,93,94,95,96,97,98,99,100,101,102,103,104,105,106,107,108,109,110,111,112,113,114,115,116,117,118,119,120,121,122,123,124,125,126,127,128,129,130,131,132,133,134,135,136,137,138,139,140,141,142,143,144,145,146,147,148,149,150,151,152,153,154,155,156,157,158,159,160,161,162,163,164,165,166,167,168,169,170,171,172,173,174,175,176,177,178,179,180,181,182,183,184,185,186,187,188,189,190,191,192,193,194,195,196,197,198,199,200,201,202,203,204,205,206,207,208,209,210,211,212,213,214,215,216,217,218,219,220,221,222,223,224,225,226,227,228,229,230,231,232,233,234,235,236,237,238,239,240,241,242,243,244,245,246,247,248,249,250,251,252,253,254,255,256,257,258,259,260,261,262,263,264,265,266,267,268,269,270,271,272,273,274,275,276,277,278,279,280,281,282,283,284,285,286,287,288,289,290,291,292,293,294,295,296,297,298,299,300],"tree_info":[0,0,0,0,0,0,0,0,0,0,0,0,0,0,0,0,0,0,0,0,0,0,0,0,0,0,0,0,0,0,0,0,0,0,0,0,0,0,0,0,0,0,0,0,0,0,0,0,0,0,0,0,0,0,0,0,0,0,0,0,0,0,0,0,0,0,0,0,0,0,0,0,0,0,0,0,0,0,0,0,0,0,0,0,0,0,0,0,0,0,0,0,0,0,0,0,0,0,0,0,0,0,0,0,0,0,0,0,0,0,0,0,0,0,0,0,0,0,0,0,0,0,0,0,0,0,0,0,0,0,0,0,0,0,0,0,0,0,0,0,0,0,0,0,0,0,0,0,0,0,0,0,0,0,0,0,0,0,0,0,0,0,0,0,0,0,0,0,0,0,0,0,0,0,0,0,0,0,0,0,0,0,0,0,0,0,0,0,0,0,0,0,0,0,0,0,0,0,0,0,0,0,0,0,0,0,0,0,0,0,0,0,0,0,0,0,0,0,0,0,0,0,0,0,0,0,0,0,0,0,0,0,0,0,0,0,0,0,0,0,0,0,0,0,0,0,0,0,0,0,0,0,0,0,0,0,0,0,0,0,0,0,0,0,0,0,0,0,0,0,0,0,0,0,0,0,0,0,0,0,0,0,0,0,0,0,0,0,0,0,0,0,0,0,0,0,0,0,0,0],"trees":[{"base_weights":[-3.6328319E-3,-1.0926599E-1,5.090792E-1,-3.2891086E-1,6.882656E-3,4.2433676E-1,1.3615428E0,-2.6506534E-1,-8.1170934E-1,-4.7108788E-2,5.4098225E-1,4.9755773E-1,-7.9073817E-1,7.554494E-1,8.532713E-2,2.9444647E-1,-3.0660105E-1,-9.310722E-1,1.7966835E-2,1.4952911E-1,-1.3952479E-1,3.3226562E-1,1.1674628E0,7.28654E-1,2.5819916E-1,-2.492604E-3,-1.1879218E0,-3.2940384E-3,6.424047E-2,-4.6511674E-1,6.440778E-1,6.681394E-2,-3.6596188E-1,-1.1737363E0,-2.776E-1,4.2828244E-1,-3.7803456E-2,-2.391341E-1,8.218335E-2,6.990856E-1,-1.9029059E-2,1.4254307E0,2.1946019E-2,5.629821E-1,1.4556006E0,-5.300744E-1,3.851929E-1,-7.815691E-2,-3.0114824E-2,-4.5559596E-2,7.2377565E-4,1.182913E0,8.7116525E-2,-9.871517E-1,2.591675E-1,-4.2291322E-1,1.543959E-1,-6.7095697E-1,-1.4262729E0,-8.5418624E-1,4.680866E-2,1.0884227E0,2.3463666E-1,1.0277267E0,-1.433796E-1,2.1056469E-1,-3.1892565E-1,-4.9367167E-2,1.3193193E-1,8.5558534E-1,-1.598645E-2,-4.4956893E-1,4.0666378E-1,3.640589E-2,8.482064E-2,9.28117E-1,3.7801164E-1,9.0839945E-2,2.2962335E-2,-8.6833024E-1,2.569503E-2,8.694534E-1,8.234314E-2,7.981982E-2,2.9278068E-2,-5.328953E-2,4.7733933E-2,-2.4340363E-2,-6.6198364E-2,1.878854E-2,-3.78347E-2,-1.6991857E-2,-3.5881467E-2,-1.6014477E-2,4.840109E-2,8.409357E-3,-5.353613E-2,-8.488933E-2,-3.8850892E-2,-7.815691E-2,-2.7228747E-3,3.7339415E-2,8.1914335E-2,5.151378E-2,4.943756E-3,1.1832202E-2,6.860503E-2,-4.392001E-2,-5.924137E-4,3.3109512E-2,-7.414856E-3,-9.409081E-3,-3.133608E-2,-8.659486E-5,1.8019103E-2,5.2919563E-2,-2.7228747E-3,-4.0980976E-2,7.6383253E-4,7.8785897E-4,5.547738E-2,3.773458E-3,5.487005E-2,2.7583474E-2,-2.304936E-2,-6.0278058E-2,-6.985297E-3,-2.5980026E-2,5.4043807E-2,2.5246779E-2,-1.995237E-2],"categories":[],"categories_nodes":[],"categories_segments":[],"categories_sizes":[],"default_left":[0,0,0,0,0,0,0,0,0,0,0,0,0,0,0,0,0,0,0,0,0,0,0,0,0,0,0,0,0,0,0,0,0,0,0,0,0,0,0,0,0,0,0,0,0,0,0,0,0,0,0,0,0,0,0,0,0,0,0,0,0,0,0,0,0,0,0,0,0,0,0,0,0,0,0,0,0,0,0,0,0,0,0,0,0,0,0,0,0,0,0,0,0,0,0,0,0,0,0,0,0,0,0,0,0,0,0,0,0,0,0,0,0,0,0,0,0,0,0,0,0,0,0,0,0,0,0,0,0,0,0],"id":0,"left_children":[1,3,5,7,9,11,13,15,17,19,21,23,25,27,-1,29,31,33,-1,35,37,39,41,43,45,-1,47,-1,-1,49,51,53,55,57,59,61,63,65,67,69,71,73,-1,75,77,79,81,-1,-1,-1,-1,83,85,87,89,91,93,95,97,99,-1,101,103,105,107,109,111,-1,113,115,-1,117,119,-1,-1,121,123,-1,-1,125,-1,127,129,-1,-1,-1,-1,-1,-1,-1,-1,-1,-1,-1,-1,-1,-1,-1,-1,-1,-1,-1,-1,-1,-1,-1,-1,-1,-1,-1,-1,-1,-1,-1,-1,-1,-1,-1,-1,-1,-1,-1,-1,-1,-1,-1,-1,-1,-1,-1,-1],"loss_changes":[1.1544795E2,4.5092567E1,2.5728584E1,1.8630043E1,3.339207E1,2.9991493E1,5.501175E0,1.2673428E1,1.0247776E1,1.9134205E1,1.3512808E1,1.720198E1,5.618432E0,5.9863067E0,0E0,1.0371817E1,1.1207817E1,9.924206E0,0E0,1.7601372E1,1.5832357E1,1.0469221E1,4.292576E0,1.8378288E1,1.5818715E1,0E0,1.8089085E0,0E0,0E0,2.6950288E0,7.8173065E0,1.445685E1,1.2970642E1,4.988472E0,1.3966018E1,1.7057333E1,2.2907555E1,1.7803957E1,1.1980202E1,6.6066265E0,7.9576244E0,2.3325539E0,0E0,8.527107E0,9.58601E0,8.237423E0,1.9715101E1,0E0,0E0,0E0,0E0,2.3587742E0,1.5077528E1,1.212429E0,7.3949013E0,9.372963E0,1.7184628E1,6.0654736E0,4.018818E0,7.442711E0,0E0,4.495201E0,1.1346831E1,4.6776237E0,1.7871265E1,1.2268433E1,1.6792553E1,0E0,6.525923E0,6.4624577E0,0E0,3.722107E0,5.9875937E0,0E0,0E0,6.1976814E0,1.3212318E1,0E0,0E0,4.0175037E0,0E0,1.5775974E1,1.731232E1,0E0,0E0,0E0,0E0,0E0,0E0,0E0,0E0,0E0,0E0,0E0,0E0,0E0,0E0,0E0,0E0,0E0,0E0,0E0,0E0,0E0,0E0,0E0,0E0,0E0,0E0,0E0,0E0,0E0,0E0,0E0,0E0,0E0,0E0,0E0,0E0,0E0,0E0,0E0,0E0,0E0,0E0,0E0,0E0,0E0,0E0,0E0,0E0],"parents":[2147483647,0,0,1,1,2,2,3,3,4,4,5,5,6,6,7,7,8,8,9,9,10,10,11,11,12,12,13,13,15,15,16,16,17,17,19,19,20,20,21,21,22,22,23,23,24,24,26,26,29,29,30,30,31,31,32,32,33,33,34,34,35,35,36,36,37,37,38,38,39,39,40,40,41,41,43,43,44,44,45,45,46,46,51,51,52,52,53,53,54,54,55,55,56,56,57,57,58,58,59,59,61,61,62,62,63,63,64,64,65,65,66,66,68,68,69,69,71,71,72,72,75,75,76,76,79,79,81,81,82,82],"right_children":[2,4,6,8,10,12,14,16,18,20,22,24,26,28,-1,30,32,34,-1,36,38,40,42,44,46,-1,48,-1,-1,50,52,54,56,58,60,62,64,66,68,70,72,74,-1,76,78,80,82,-1,-1,-1,-1,84,86,88,90,92,94,96,98,100,-1,102,104,106,108,110,112,-1,114,116,-1,118,120,-1,-1,122,124,-1,-1,126,-1,128,130,-1,-1,-1,-1,-1,-1,-1,-1,-1,-1,-1,-1,-1,-1,-1,-1,-1,-1,-1,-1,-1,-1,-1,-1,-1,-1,-1,-1,-1,-1,-1,-1,-1,-1,-1,-1,-1,-1,-1,-1,-1,-1,-1,-1,-1,-1,-1,-1],"split_conditions":[6.451613E-1,4.4859812E-1,1.4925662E0,1.3874456E0,3.7323017E-2,1.393462E0,1.3330371E-2,6.115195E-3,8.6E1,1.0985984E-2,1.78E2,1E0,7.5510204E-1,1.4E1,8.532713E-2,5.8843255E-1,-9.564278E-2,8E0,1.7966835E-2,8.3353263E-1,1.04E2,-2.5465103E-2,1.4233625E-2,9E1,2.6E1,-2.492604E-3,2.6796719E-2,-3.2940384E-3,6.424047E-2,9E0,1.3330371E-2,-5.162129E-1,1E0,2E0,4.6424385E-2,3.4E1,5.6388653E-3,-7.492578E-2,1.14004165E-2,1.4154612E0,1.1346364E0,5.1037148E-2,2.1946019E-2,1.1181327E-2,2.1865541E-2,7.3333335E-1,6.7E1,-7.815691E-2,-3.0114824E-2,-4.5559596E-2,7.2377565E-4,5.5E1,6E0,4.7237504E-2,1E0,1.17E2,1.161385E0,1.5411842E-2,1E0,1E0,4.680866E-2,2.6E1,4.7368422E-1,3.4486842E-3,2E1,-4.9130693E-3,6.5E1,-4.9367167E-2,2.9E1,1.6446093E-1,-1.598645E-2,3.7685737E-2,5.36E-1,3.640589E-2,8.482064E-2,5.7863323E-3,8.75E-1,9.0839945E-2,2.2962335E-2,9.8E1,2.569503E-2,6.5635633E-1,8.875517E-1,7.981982E-2,2.9278068E-2,-5.328953E-2,4.7733933E-2,-2.4340363E-2,-6.6198364E-2,1.878854E-2,-3.78347E-2,-1.6991857E-2,-3.5881467E-2,-1.6014477E-2,4.840109E-2,8.409357E-3,-5.353613E-2,-8.488933E-2,-3.8850892E-2,-7.815691E-2,-2.7228747E-3,3.7339415E-2,8.1914335E-2,5.151378E-2,4.943756E-3,1.1832202E-2,6.860503E-2,-4.392001E-2,-5.924137E-4,3.3109512E-2,-7.414856E-3,-9.409081E-3,-3.133608E-2,-8.659486E-5,1.8019103E-2,5.2919563E-2,-2.7228747E-3,-4.0980976E-2,7.6383253E-4,7.8785897E-4,5.547738E-2,3.773458E-3,5.487005E-2,2.7583474E-2,-2.304936E-2,-6.0278058E-2,-6.985297E-3,-2.5980026E-2,5.4043807E-2,2.5246779E-2,-1.995237E-2],"split_indices":[4,4,9,9,8,9,6,8,3,8,3,25,4,3,0,9,5,13,0,9,14,1,1,3,14,0,6,0,0,13,6,5,15,11,6,14,8,5,8,9,9,8,0,8,8,4,14,0,0,0,0,14,13,6,20,14,9,8,12,11,0,14,4,6,14,1,14,0,16,6,0,1,4,0,0,8,4,0,0,3,0,9,9,0,0,0,0,0,0,0,0,0,0,0,0,0,0,0,0,0,0,0,0,0,0,0,0,0,0,0,0,0,0,0,0,0,0,0,0,0,0,0,0,0,0,0,0,0,0,0,0],"split_type":[0,0,0,0,0,0,0,0,0,0,0,0,0,0,0,0,0,0,0,0,0,0,0,0,0,0,0,0,0,0,0,0,0,0,0,0,0,0,0,0,0,0,0,0,0,0,0,0,0,0,0,0,0,0,0,0,0,0,0,0,0,0,0,0,0,0,0,0,0,0,0,0,0,0,0,0,0,0,0,0,0,0,0,0,0,0,0,0,0,0,0,0,0,0,0,0,0,0,0,0,0,0,0,0,0,0,0,0,0,0,0,0,0,0,0,0,0,0,0,0,0,0,0,0,0,0,0,0,0,0,0],"sum_hessian":[2.1296062E3,1.7664537E3,3.6315244E2,6.103705E2,1.1560833E3,3.316784E2,3.1474014E1,5.4045013E2,6.9920364E1,1.0507737E3,1.0530956E2,3.1338425E2,1.8294165E1,1.2573928E1,1.8900087E1,3.6927307E1,5.035228E2,6.3638695E1,6.2816677E0,3.357546E2,7.1501904E2,8.014052E1,2.5169043E1,1.5840396E2,1.5498029E2,6.7774215E0,1.1516744E1,5.2710924E0,7.302836E0,1.1535811E1,2.5391497E1,6.90475E1,4.344753E2,4.5825455E1,1.7813242E1,1.3443193E2,2.0132268E2,4.933069E2,2.2171214E2,3.871965E1,4.142087E1,1.7881037E1,7.288006E0,1.3044894E2,2.795501E1,2.1063185E1,1.339171E2,6.002012E0,5.5147324E0,5.510495E0,6.025316E0,1.2334526E1,1.3056971E1,1.0018889E1,5.902861E1,3.9178326E2,4.2692036E1,1.6544197E1,2.9281258E1,1.2277324E1,5.535918E0,2.9442272E1,1.04989655E2,1.7361979E1,1.8396071E2,7.4091896E1,4.19215E2,9.0167885E0,2.1269536E2,3.370279E1,5.0168595E0,2.0565311E1,2.085556E1,6.035909E0,1.1845128E1,4.2511955E1,8.793699E1,1.991278E1,8.04223E0,1.603573E1,5.027453E0,5.0806297E1,8.311081E1,6.300735E0,6.0337906E0,5.5083766E0,7.548594E0,5.014741E0,5.004148E0,5.3515995E1,5.512614E0,3.073102E2,8.447307E1,2.734485E1,1.5347184E1,5.5253253E0,1.1018871E1,1.9508127E1,9.77313E0,6.002012E0,6.275312E0,1.9614058E1,9.828215E0,1.4342964E1,9.064669E1,5.777439E0,1.1584539E1,2.7060959E1,1.5689975E2,3.2431625E1,4.1660275E1,2.9536337E2,1.2385161E2,1.3481116E2,7.78842E1,2.7427477E1,6.275312E0,1.1025228E1,9.540084E0,1.4059072E1,6.796489E0,7.2816496E0,3.5230305E1,7.314065E1,1.4796347E1,1.0514643E1,5.521088E0,6.5189514E0,4.4287346E1,4.423226E1,3.8878544E1],"tree_param":{"num_deleted":"0","num_feature":"27","num_nodes":"131","size_leaf_vector":"1"}},{"base_weights":[1.6625924E-2,-6.36079E-2,4.75818E-1,6.942646E-1,-1.1688189E-1,3.6981708E-1,1.0948724E0,-3.262578E-2,1.0748032E0,-9.815611E-2,-1.0267184E0,2.9838198E-1,1.0296385E0,1.2598981E0,2.639971E-4,-3.0785885E-1,5.3861942E-2,3.2249665E-1,1.2680368E0,-3.681566E-1,-5.082789E-2,-8.0879904E-2,-3.9630142E-1,3.7392494E-1,-8.5064363E-1,1.0841066E-2,1.46469E0,1.6633809E-2,1.3844438E0,3.1992218E-1,-9.6569556E-1,-3.3373397E-2,8.73588E-1,8.42046E-2,1.0229298E0,1.345043E-3,-5.787561E-1,-1.4221974E-1,1.2378372E-1,5.3529497E-2,-5.930664E-2,-3.077229E-2,4.143809E-1,-1.3173993E-3,-6.6781126E-2,4.8162103E-2,8.277344E-2,9.2712414E-1,8.44419E-2,7.3881304E-1,-1.3928177E-2,-7.395763E-2,-8.211745E-3,2.505689E-2,5.4164987E-2,4.8508266E-1,1.4279547E0,3.5368136E-1,-3.0134246E-1,-6.406255E-1,3.9290633E-2,-3.807175E-2,-4.0213278E-1,2.7009767E-1,-6.952548E-2,-3.2532964E-2,3.1365123E-2,7.054413E-1,3.1628072E-1,1.4871982E-2,7.070983E-2,1.7184047E-2,5.0546546E-2,6.275571E-2,-4.3001943E-3,8.5575655E-2,5.3926803E-2,3.1699542E-2,-7.33403E-3,-2.4334071E-2,4.4187028E-2,-3.6463168E-2,8.265282E-3,-3.619289E-2,9.0933806E-4,1.6813979E-2,-2.7759736E-2,7.079226E-3,3.774201E-2,-6.2519917E-3,3.1021578E-2,4.3332882E-2,-5.6114616E-3,1.7408526E-2,-1.8361216E-2],"categories":[],"categories_nodes":[],"categories_segments":[],"categories_sizes":[],"default_left":[0,0,0,0,0,0,0,0,0,0,0,0,0,0,0,0,0,0,0,0,0,0,0,0,0,0,0,0,0,0,0,0,0,0,0,0,0,0,0,0,0,0,0,0,0,0,0,0,0,0,0,0,0,0,0,0,0,0,0,0,0,0,0,0,0,0,0,0,0,0,0,0,0,0,0,0,0,0,0,0,0,0,0,0,0,0,0,0,0,0,0,0,0,0,0],"id":1,"left_children":[1,3,5,7,9,11,13,15,17,19,21,23,25,27,-1,29,-1,31,33,35,37,-1,39,41,43,-1,45,-1,47,49,51,-1,53,-1,55,57,59,61,63,65,-1,-1,67,-1,-1,-1,-1,69,-1,71,-1,-1,-1,-1,-1,73,75,77,79,81,-1,83,85,87,89,-1,-1,91,93,-1,-1,-1,-1,-1,-1,-1,-1,-1,-1,-1,-1,-1,-1,-1,-1,-1,-1,-1,-1,-1,-1,-1,-1,-1,-1],"loss_changes":[7.840075E1,7.322639E1,2.0364624E1,3.2987236E1,2.8752443E1,1.2501434E1,8.222E0,1.3132707E1,1.0962364E1,2.1199924E1,1.2041317E1,2.1723942E1,8.925444E0,4.128578E0,0E0,1.4497421E1,0E0,1.003598E1,4.5893097E0,1.9259895E1,2.2582067E1,0E0,6.386489E0,9.544682E0,6.1685886E0,0E0,1.7532349E-2,0E0,3.2670593E0,4.8013983E0,6.76334E0,0E0,3.603363E-1,0E0,8.347061E0,9.795241E0,1.381263E1,2.5122465E1,1.3774409E1,5.3761697E0,0E0,0E0,6.1605186E0,0E0,0E0,0E0,0E0,4.514427E0,0E0,8.4146833E-1,0E0,0E0,0E0,0E0,0E0,8.612831E0,4.4845963E-1,6.045567E0,1.1281858E1,1.0933018E1,0E0,2.563449E1,3.0200417E1,1.71506E1,8.133279E0,0E0,0E0,7.419348E0,3.8120728E0,0E0,0E0,0E0,0E0,0E0,0E0,0E0,0E0,0E0,0E0,0E0,0E0,0E0,0E0,0E0,0E0,0E0,0E0,0E0,0E0,0E0,0E0,0E0,0E0,0E0,0E0],"parents":[2147483647,0,0,1,1,2,2,3,3,4,4,5,5,6,6,7,7,8,8,9,9,10,10,11,11,12,12,13,13,15,15,17,17,18,18,19,19,20,20,22,22,23,23,24,24,26,26,28,28,29,29,30,30,32,32,34,34,35,35,36,36,37,37,38,38,39,39,42,42,47,47,49,49,55,55,56,56,57,57,58,58,59,59,61,61,62,62,63,63,64,64,67,67,68,68],"right_children":[2,4,6,8,10,12,14,16,18,20,22,24,26,28,-1,30,-1,32,34,36,38,-1,40,42,44,-1,46,-1,48,50,52,-1,54,-1,56,58,60,62,64,66,-1,-1,68,-1,-1,-1,-1,70,-1,72,-1,-1,-1,-1,-1,74,76,78,80,82,-1,84,86,88,90,-1,-1,92,94,-1,-1,-1,-1,-1,-1,-1,-1,-1,-1,-1,-1,-1,-1,-1,-1,-1,-1,-1,-1,-1,-1,-1,-1,-1,-1],"split_conditions":[6.666667E-1,-3.2214838E-1,5.0001E4,4.473684E-1,1.7504792E0,1.4925662E0,8.5714287E-1,5.2E1,1.2E1,3.8421053E-1,5E0,1.393462E0,6E0,-1.4179897E-1,2.639971E-4,3E0,5.3861942E-2,1.0276089E0,3E0,9.154798E-1,1.02E2,-8.0879904E-2,6.7E1,7E0,8E0,1.0841066E-2,1.7825696E-3,1.6633809E-2,5.6E1,8E1,1E0,-3.3373397E-2,6E1,8.42046E-2,7E0,2E0,1.53E2,6.5E1,7.706478E-3,6.174694E-2,-5.930664E-2,-3.077229E-2,1.1E1,-1.3173993E-3,-6.6781126E-2,4.8162103E-2,8.277344E-2,1.2538603E-1,8.44419E-2,-1.200289E-2,-1.3928177E-2,-7.395763E-2,-8.211745E-3,2.505689E-2,5.4164987E-2,1.3E1,-4.4991598E-1,1.14E2,1E0,1E0,3.9290633E-2,2E0,-7.600005E-2,-1.3159809E-3,1.9102308E-1,-3.2532964E-2,3.1365123E-2,1E0,1.0633163E-1,1.4871982E-2,7.070983E-2,1.7184047E-2,5.0546546E-2,6.275571E-2,-4.3001943E-3,8.5575655E-2,5.3926803E-2,3.1699542E-2,-7.33403E-3,-2.4334071E-2,4.4187028E-2,-3.6463168E-2,8.265282E-3,-3.619289E-2,9.0933806E-4,1.6813979E-2,-2.7759736E-2,7.079226E-3,3.774201E-2,-6.2519917E-3,3.1021578E-2,4.3332882E-2,-5.6114616E-3,1.7408526E-2,-1.8361216E-2],"split_indices":[4,7,0,4,9,9,4,16,16,4,13,9,3,7,0,16,0,9,13,9,14,0,2,14,16,0,6,0,3,14,26,0,14,0,13,3,3,14,1,7,0,0,2,0,0,0,0,7,0,1,0,0,0,0,0,14,7,14,12,15,0,13,5,1,1,0,0,12,5,0,0,0,0,0,0,0,0,0,0,0,0,0,0,0,0,0,0,0,0,0,0,0,0,0,0],"split_type":[0,0,0,0,0,0,0,0,0,0,0,0,0,0,0,0,0,0,0,0,0,0,0,0,0,0,0,0,0,0,0,0,0,0,0,0,0,0,0,0,0,0,0,0,0,0,0,0,0,0,0,0,0,0,0,0,0,0,0,0,0,0,0,0,0,0,0,0,0,0,0,0,0,0,0,0,0,0,0,0,0,0,0,0,0,0,0,0,0,0,0,0,0,0,0],"sum_hessian":[2.126162E3,1.8106516E3,3.1551047E2,1.18128654E2,1.692523E3,2.7074762E2,4.476285E1,4.0905945E1,7.722271E1,1.6594763E3,3.3046593E1,2.4560915E2,2.513848E1,3.8739243E1,6.0236096E0,3.335654E1,7.5494056E0,1.6326918E1,6.0895794E1,2.4649277E2,1.4129835E3,1.6249903E1,1.6796688E1,2.3109062E2,1.4518534E1,9.286558E0,1.585192E1,5.022046E0,3.3717197E1,1.7331024E1,1.6025517E1,5.7630916E0,1.0563826E1,2.0398941E1,4.0496853E1,8.9847275E1,1.566455E2,9.2764105E2,4.8534253E2,1.12957E1,5.5009885E0,8.519886E0,2.2257072E2,5.768468E0,8.750067E0,6.0359263E0,9.815993E0,1.5090758E1,1.8626438E1,1.00572815E1,7.273742E0,9.252388E0,6.773128E0,5.02645E0,5.5373755E0,1.8340073E1,2.215678E1,4.1440712E1,4.8406563E1,1.5035878E2,6.286718E0,6.630866E2,2.6455444E2,2.7602472E2,2.093178E2,5.011325E0,6.284375E0,5.4545322E1,1.680254E2,7.2843103E0,7.8064475E0,5.0244513E0,5.0328307E0,7.299686E0,1.1040386E1,1.0079192E1,1.2077587E1,2.6389755E1,1.5050959E1,4.2369576E1,6.036987E0,1.3554626E2,1.4812507E1,4.93726E1,6.13714E2,4.5217243E1,2.1933722E2,2.192026E2,5.682211E1,1.9448796E2,1.48298435E1,4.551202E1,9.033304E0,1.6100417E2,7.02124E0],"tree_param":{"num_deleted":"0","num_feature":"27","num_nodes":"95","size_leaf_vector":"1"}},{"base_weights":[1.869076E-2,-7.22998E-2,4.535569E-1,6.363857E-1,-1.2398631E-1,3.9668685E-1,1.0609171E0,-1.4839825E-2,9.535699E-1,3.7849003E-1,-1.7848109E-1,4.5250997E-1,-5.2331734E-1,1.303081E0,1.3638158E-2,-8.811865E-1,3.1229228E-1,1.5354992E0,7.9860973E-1,4.3931356E-1,-4.5938157E-2,-2.2201794E-1,1.4477189E-1,6.664182E-1,2.4529934E-1,2.5021408E-2,-9.0600145E-1,7.642611E-2,3.2776292E-2,-1.4904116E-2,-6.507441E-2,5.6349665E-1,-3.9027285E-2,4.8231628E-2,8.645999E-2,5.0395155E-1,1.2034172E0,-1.802988E-1,5.6133306E-1,-2.0084615E-1,-1.2353959E0,3.6628142E-1,-1.9796719E-1,3.2323375E-1,9.778262E-1,3.205787E-1,-6.6744363E-1,-7.2801284E-2,-4.604843E-3,5.836078E-2,2.3284863E-1,-2.3115736E-1,8.8334244E-1,6.710889E-2,2.6677717E-2,-5.473268E-2,1.9609079E-1,-2.945715E-1,6.380046E-1,2.2831311E-2,-2.5743636E-1,-7.6461665E-2,-3.420527E-2,4.0151376E-2,6.606966E-1,-6.8286145E-1,2.2083543E-2,-7.2603005E-1,5.8394843E-1,5.530662E-1,1.2073221E0,6.47365E-1,1.0815818E-1,-1.2330527E-2,-4.6487976E-2,-1.6694466E-2,2.7225727E-2,3.6039874E-2,-4.3432172E-2,1.4784544E-2,5.3572383E-2,-1.9233653E-2,3.449044E-2,8.182887E-3,-3.4417216E-2,4.9625944E-2,1.9563489E-2,9.205359E-3,-2.667895E-2,-1.07784E-2,-3.4184054E-2,4.8318367E-2,-1.0984303E-2,8.982123E-4,5.53571E-2,1.0371009E-2,-5.718243E-2,-8.535173E-3,3.591184E-2,-5.35563E-2,-7.7507743E-3,6.523297E-2,1.0679651E-2,3.8311064E-2,-1.1515439E-2,1.4872079E-2,6.627737E-2,1.0529421E-2,4.4072922E-2,2.0571202E-2,-5.6231036E-3],"categories":[],"categories_nodes":[],"categories_segments":[],"categories_sizes":[],"default_left":[0,0,0,0,0,0,0,0,0,0,0,0,0,0,0,0,0,0,0,0,0,0,0,0,0,0,0,0,0,0,0,0,0,0,0,0,0,0,0,0,0,0,0,0,0,0,0,0,0,0,0,0,0,0,0,0,0,0,0,0,0,0,0,0,0,0,0,0,0,0,0,0,0,0,0,0,0,0,0,0,0,0,0,0,0,0,0,0,0,0,0,0,0,0,0,0,0,0,0,0,0,0,0,0,0,0,0,0,0,0,0],"id":2,"left_children":[1,3,5,7,9,11,13,15,17,19,21,23,25,27,-1,29,31,33,35,37,-1,39,41,43,45,-1,47,-1,-1,-1,-1,49,-1,-1,-1,51,53,55,57,59,61,63,65,67,69,71,73,-1,-1,-1,75,77,79,-1,-1,-1,81,83,85,87,89,-1,-1,91,93,95,97,99,101,103,105,107,109,-1,-1,-1,-1,-1,-1,-1,-1,-1,-1,-1,-1,-1,-1,-1,-1,-1,-1,-1,-1,-1,-1,-1,-1,-1,-1,-1,-1,-1,-1,-1,-1,-1,-1,-1,-1,-1,-1],"loss_changes":[8.3982704E1,6.437739E1,1.226413E1,2.4694836E1,4.488942E1,1.7564964E1,5.5318756E0,1.1645531E1,6.020752E0,1.3065741E1,2.0824406E1,1.3959824E1,8.196803E0,2.4040337E0,0E0,2.371275E0,8.637529E0,8.087158E-2,7.2122345E0,1.1741718E1,0E0,2.7695862E1,1.3432148E1,1.6377342E1,1.1443703E1,0E0,6.4658356E0,0E0,0E0,0E0,0E0,4.690912E0,0E0,0E0,0E0,1.1264077E1,1.7835846E0,9.193119E0,8.645275E0,1.6169884E1,3.2401047E0,1.0270357E1,7.455413E0,2.1160688E1,7.2670746E0,1.0457502E1,1.1811695E0,0E0,0E0,0E0,3.2397628E0,9.29941E0,2.5974846E0,0E0,0E0,0E0,5.807634E0,2.147941E0,9.985462E0,2.3318268E1,1.8041862E1,0E0,0E0,1.2713445E1,1.6133802E1,9.179376E0,6.6898074E0,2.8946867E0,1.607581E1,5.2523184E0,5.1994934E0,5.9026566E0,6.276144E0,0E0,0E0,0E0,0E0,0E0,0E0,0E0,0E0,0E0,0E0,0E0,0E0,0E0,0E0,0E0,0E0,0E0,0E0,0E0,0E0,0E0,0E0,0E0,0E0,0E0,0E0,0E0,0E0,0E0,0E0,0E0,0E0,0E0,0E0,0E0,0E0,0E0,0E0],"parents":[2147483647,0,0,1,1,2,2,3,3,4,4,5,5,6,6,7,7,8,8,9,9,10,10,11,11,12,12,13,13,15,15,16,16,17,17,18,18,19,19,21,21,22,22,23,23,24,24,26,26,31,31,35,35,36,36,37,37,38,38,39,39,40,40,41,41,42,42,43,43,44,44,45,45,46,46,50,50,51,51,52,52,56,56,57,57,58,58,59,59,60,60,63,63,64,64,65,65,66,66,67,67,68,68,69,69,70,70,71,71,72,72],"right_children":[2,4,6,8,10,12,14,16,18,20,22,24,26,28,-1,30,32,34,36,38,-1,40,42,44,46,-1,48,-1,-1,-1,-1,50,-1,-1,-1,52,54,56,58,60,62,64,66,68,70,72,74,-1,-1,-1,76,78,80,-1,-1,-1,82,84,86,88,90,-1,-1,92,94,96,98,100,102,104,106,108,110,-1,-1,-1,-1,-1,-1,-1,-1,-1,-1,-1,-1,-1,-1,-1,-1,-1,-1,-1,-1,-1,-1,-1,-1,-1,-1,-1,-1,-1,-1,-1,-1,-1,-1,-1,-1,-1,-1],"split_conditions":[6.4E-1,-3.0019546E-1,1.4925662E0,4.4E-1,7.1327956E-3,1.393462E0,2.8E1,2.7276987E-2,2E0,1E0,1E0,1E0,7E-1,1.6296823E0,1.3638158E-2,1.1860932E0,1.3610506E0,9.643401E-1,7E0,4.727245E-1,-4.5938157E-2,1.7504792E0,1.4233625E-2,9.805832E-1,1E0,2.5021408E-2,1.5748354E-2,7.642611E-2,3.2776292E-2,-1.4904116E-2,-6.507441E-2,2E1,-3.9027285E-2,4.8231628E-2,8.645999E-2,3.5700034E-2,1.4452777E0,-1.976994E-2,2E0,7.757577E-1,7E0,4.973545E-1,-1.0940999E-2,3E0,7.3333335E-1,9.649006E-3,9.258184E-1,-7.2801284E-2,-4.604843E-3,5.836078E-2,8.3989E-1,-3.0293072E-2,9.7332484E-1,6.710889E-2,2.6677717E-2,-5.473268E-2,4.457143E-1,1.6E1,5.6388653E-3,1.9710062E-2,2.6321856E-2,-7.6461665E-2,-3.420527E-2,8.3675057E-1,1.0239428E0,-3.4056503E-2,4.9E1,1.9278772E-2,5E0,2.9E1,1E0,6.8878233E-1,3E0,-1.2330527E-2,-4.6487976E-2,-1.6694466E-2,2.7225727E-2,3.6039874E-2,-4.3432172E-2,1.4784544E-2,5.3572383E-2,-1.9233653E-2,3.449044E-2,8.182887E-3,-3.4417216E-2,4.9625944E-2,1.9563489E-2,9.205359E-3,-2.667895E-2,-1.07784E-2,-3.4184054E-2,4.8318367E-2,-1.0984303E-2,8.982123E-4,5.53571E-2,1.0371009E-2,-5.718243E-2,-8.535173E-3,3.591184E-2,-5.35563E-2,-7.7507743E-3,6.523297E-2,1.0679651E-2,3.8311064E-2,-1.1515439E-2,1.4872079E-2,6.627737E-2,1.0529421E-2,4.4072922E-2,2.0571202E-2,-5.6231036E-3],"split_indices":[4,7,9,4,8,9,2,8,13,23,21,25,4,9,0,9,9,9,13,9,0,9,1,9,12,0,6,0,0,0,0,2,0,0,0,8,9,5,13,9,13,4,7,13,4,8,9,0,0,0,9,5,9,0,0,0,4,16,8,8,5,0,0,9,9,5,16,8,13,16,16,9,16,0,0,0,0,0,0,0,0,0,0,0,0,0,0,0,0,0,0,0,0,0,0,0,0,0,0,0,0,0,0,0,0,0,0,0,0,0,0],"split_type":[0,0,0,0,0,0,0,0,0,0,0,0,0,0,0,0,0,0,0,0,0,0,0,0,0,0,0,0,0,0,0,0,0,0,0,0,0,0,0,0,0,0,0,0,0,0,0,0,0,0,0,0,0,0,0,0,0,0,0,0,0,0,0,0,0,0,0,0,0,0,0,0,0,0,0,0,0,0,0,0,0,0,0,0,0,0,0,0,0,0,0,0,0,0,0,0,0,0,0,0,0,0,0,0,0,0,0,0,0,0,0],"sum_hessian":[2.1206238E3,1.7543752E3,3.6624838E2,1.1848522E2,1.63589E3,3.3640256E2,2.9845837E1,3.9119793E1,7.936543E1,1.5947589E2,1.4764142E3,3.176374E2,1.8765146E1,2.2331156E1,7.514681E0,1.0258486E1,2.8861305E1,1.4816248E1,6.454919E1,1.5296524E2,6.510638E0,1.3014442E3,1.7496997E2,1.5520236E2,1.6243504E2,5.0222063E0,1.3742941E1,1.5555264E1,6.775892E0,5.012969E0,5.245517E0,2.3860909E1,5.0003967E0,5.2686653E0,9.547583E0,3.8656292E1,2.5892893E1,2.5088547E1,1.278767E2,1.2759841E3,2.546005E1,1.06239525E2,6.8730446E1,7.4803635E1,8.039872E1,1.5065814E2,1.1776899E1,7.7301116E0,6.0128293E0,7.54842E0,1.6312489E1,1.3292133E1,2.5364159E1,2.0618216E1,5.2746787E0,6.7595134E0,1.8329035E1,1.02796955E1,1.1759701E2,2.5776068E2,1.01822345E3,1.5450844E1,1.0009207E1,5.094407E1,5.5295456E1,2.0797897E1,4.793255E1,1.4532368E1,6.0271267E1,2.939789E1,5.100083E1,5.854513E1,9.211301E1,5.2670712E0,6.509828E0,5.762524E0,1.0549965E1,5.2787356E0,8.013397E0,6.773936E0,1.8590223E1,8.523568E0,9.805466E0,5.021091E0,5.258605E0,4.701793E1,7.057908E1,2.0035638E2,5.7404305E1,9.2852386E2,8.969962E1,1.0564994E1,4.0379074E1,2.3091553E1,3.2203903E1,7.280733E0,1.3517164E1,3.8128376E1,9.804172E0,8.512164E0,6.0202045E0,1.9602367E1,4.06689E1,2.3126974E1,6.270916E0,6.2690554E0,4.4731777E1,2.1091585E1,3.745355E1,3.8426655E1,5.368635E1],"tree_param":{"num_deleted":"0","num_feature":"27","num_nodes":"111","size_leaf_vector":"1"}},{"base_weights":[1.37502365E-2,-6.881465E-2,4.0866125E-1,6.2455106E-1,-1.1481939E-1,3.103941E-1,9.9314135E-1,-7.4508585E-2,1.0443922E0,6.1066724E-2,-1.9481862E-1,2.4112825E-1,1.0511863E0,9.640029E-3,1.097548E0,6.8485105E-1,-4.6951085E-1,5.707667E-1,1.2605222E0,1.1264527E-1,-5.0157803E-1,8.7833945E-3,-2.7362192E-1,2.975204E-1,-5.954335E-2,1.2183355E0,1.5409243E-2,1.4453694E0,6.9156826E-1,5.50124E-3,6.315232E-2,7.5275707E-3,-7.7995074E-1,9.795381E-1,1.7341367E-4,1.3965125E0,1.0694148E-2,-3.8825378E-1,1.7138888E-1,-7.2236395E-1,1.0270877E-1,-3.5312977E-1,8.268749E-2,-7.482631E-1,-2.3423304E-1,7.44298E-1,2.0966582E-1,8.053475E-2,3.3782184E-2,2.2158554E-2,8.430965E-2,3.7258526E-3,1.0588043E0,-1.1050845E0,-1.3949154E-3,2.7465304E-2,6.6435724E-2,8.018753E-2,8.987529E-1,1.14405066E-1,-1.2168658E0,6.7523545E-1,8.675384E-2,-6.626903E-2,-3.2048568E-1,3.175993E-2,-2.664174E-2,-6.8328065E-1,2.7941888E-2,4.6446317E-1,-7.383512E-4,-9.8136157E-1,1.8567403E-1,-2.0368426E-1,-8.421034E-1,1.16961196E-1,9.91453E-1,2.532695E-1,-5.113877E-2,2.0948654E-2,7.027189E-2,-3.369293E-2,-6.521542E-2,2.4077957E-2,6.451582E-2,-9.084966E-3,5.1148623E-2,-7.209202E-2,-2.6416594E-2,4.2883143E-2,-4.5902696E-2,1.3637974E-2,-5.7931035E-3,-5.069082E-2,6.7067132E-3,-4.3264117E-2,3.957463E-3,1.5696023E-2,-3.9761223E-2,4.7273785E-2,-4.811519E-3,-1.3770396E-2,1.0664729E-2,-1.4695409E-2,-5.7858657E-2,-1.2503807E-2,3.377893E-2,-1.8632185E-3,-1.7676359E-2,-6.4521335E-2,-1.1078003E-2,3.722061E-2,-1.8878598E-2,6.281139E-2,2.0811794E-2,6.235145E-3,2.2161644E-2],"categories":[],"categories_nodes":[],"categories_segments":[],"categories_sizes":[],"default_left":[0,0,0,0,0,0,0,0,0,0,0,0,0,0,0,0,0,0,0,0,0,0,0,0,0,0,0,0,0,0,0,0,0,0,0,0,0,0,0,0,0,0,0,0,0,0,0,0,0,0,0,0,0,0,0,0,0,0,0,0,0,0,0,0,0,0,0,0,0,0,0,0,0,0,0,0,0,0,0,0,0,0,0,0,0,0,0,0,0,0,0,0,0,0,0,0,0,0,0,0,0,0,0,0,0,0,0,0,0,0,0,0,0,0,0,0,0],"id":3,"left_children":[1,3,5,7,9,11,13,15,17,19,21,23,25,-1,27,29,31,33,35,37,39,41,43,45,-1,47,-1,49,51,-1,-1,-1,53,55,-1,57,-1,59,61,63,65,67,69,71,73,75,77,-1,-1,-1,-1,-1,79,81,-1,-1,-1,-1,83,85,87,89,91,-1,93,-1,-1,95,97,99,101,103,105,107,109,111,113,115,-1,-1,-1,-1,-1,-1,-1,-1,-1,-1,-1,-1,-1,-1,-1,-1,-1,-1,-1,-1,-1,-1,-1,-1,-1,-1,-1,-1,-1,-1,-1,-1,-1,-1,-1,-1,-1,-1,-1],"loss_changes":[6.939445E1,5.6225353E1,2.0828865E1,3.22713E1,2.325279E1,1.598683E1,4.176487E0,1.2947038E1,6.302582E0,1.5064369E1,1.8222023E1,2.3832346E1,2.948618E0,0E0,5.529995E0,4.7832875E0,5.56153E0,5.404931E0,6.287903E0,1.4029665E1,5.8925867E0,8.5304575E0,1.5131302E1,1.085486E1,0E0,3.4922066E0,0E0,5.0419884E0,5.1905212E0,0E0,0E0,0E0,4.6170454E0,1.3059311E0,0E0,2.7646332E0,0E0,2.101333E1,1.8082722E1,7.3458023E0,4.584088E0,6.8239603E0,8.432727E0,1.3740814E1,1.389399E1,6.9706154E0,1.2931607E1,0E0,0E0,0E0,0E0,0E0,2.6275635E0,2.5896835E-1,0E0,0E0,0E0,0E0,1.7082081E0,8.823877E0,2.182766E0,1.8528223E1,1.380214E1,0E0,6.6166544E0,0E0,0E0,4.095335E0,6.386355E0,1.2896509E1,1.2890638E1,5.703087E0,3.004055E0,1.8004177E1,9.70862E0,4.6411195E0,4.4504128E0,5.526848E0,0E0,0E0,0E0,0E0,0E0,0E0,0E0,0E0,0E0,0E0,0E0,0E0,0E0,0E0,0E0,0E0,0E0,0E0,0E0,0E0,0E0,0E0,0E0,0E0,0E0,0E0,0E0,0E0,0E0,0E0,0E0,0E0,0E0,0E0,0E0,0E0,0E0,0E0,0E0],"parents":[2147483647,0,0,1,1,2,2,3,3,4,4,5,5,6,6,7,7,8,8,9,9,10,10,11,11,12,12,14,14,15,15,16,16,17,17,18,18,19,19,20,20,21,21,22,22,23,23,25,25,27,27,28,28,32,32,33,33,35,35,37,37,38,38,39,39,40,40,41,41,42,42,43,43,44,44,45,45,46,46,52,52,53,53,58,58,59,59,60,60,61,61,62,62,64,64,67,67,68,68,69,69,70,70,71,71,72,72,73,73,74,74,75,75,76,76,77,77],"right_children":[2,4,6,8,10,12,14,16,18,20,22,24,26,-1,28,30,32,34,36,38,40,42,44,46,-1,48,-1,50,52,-1,-1,-1,54,56,-1,58,-1,60,62,64,66,68,70,72,74,76,78,-1,-1,-1,-1,-1,80,82,-1,-1,-1,-1,84,86,88,90,92,-1,94,-1,-1,96,98,100,102,104,106,108,110,112,114,116,-1,-1,-1,-1,-1,-1,-1,-1,-1,-1,-1,-1,-1,-1,-1,-1,-1,-1,-1,-1,-1,-1,-1,-1,-1,-1,-1,-1,-1,-1,-1,-1,-1,-1,-1,-1,-1,-1,-1],"split_conditions":[6.4E-1,-3.2214838E-1,5.0001E4,4.516129E-1,1.0927668E-2,1.4925662E0,4E0,-6.9156855E-2,2.6E1,1.6786924E-1,8E0,1.431151E0,8.333333E-1,9.640029E-3,6E0,5.3387716E-2,5.9E1,3E0,1.3797568E0,1.4E1,8E0,3.8421053E-1,2.962963E-1,7.369198E-3,-5.954335E-2,2E0,1.5409243E-2,-5.3563762E-2,1.00001E5,5.50124E-3,6.315232E-2,7.5275707E-3,2.9E1,1.161385E0,1.7341367E-4,6E0,1.0694148E-2,1.1E1,3.4E1,4.642857E-1,1.8173499E-2,6E0,-8.3100654E-2,4.7E1,1.6296823E0,5.2295864E-1,1.196148E-1,8.053475E-2,3.3782184E-2,2.2158554E-2,8.430965E-2,3.7258526E-3,1E1,-1.5824373E-1,-1.3949154E-3,2.7465304E-2,6.6435724E-2,8.018753E-2,9E0,4E0,6.239938E-2,1.230836E0,1.3109305E-3,-6.626903E-2,9E0,3.175993E-2,-2.664174E-2,7.479785E-2,5.853854E-2,1E0,1E0,1.3764637E-2,-1.3614651E-2,1.1900565E-2,5E0,1E0,9.347442E-1,6.4846195E-2,-5.113877E-2,2.0948654E-2,7.027189E-2,-3.369293E-2,-6.521542E-2,2.4077957E-2,6.451582E-2,-9.084966E-3,5.1148623E-2,-7.209202E-2,-2.6416594E-2,4.2883143E-2,-4.5902696E-2,1.3637974E-2,-5.7931035E-3,-5.069082E-2,6.7067132E-3,-4.3264117E-2,3.957463E-3,1.5696023E-2,-3.9761223E-2,4.7273785E-2,-4.811519E-3,-1.3770396E-2,1.0664729E-2,-1.4695409E-2,-5.7858657E-2,-1.2503807E-2,3.377893E-2,-1.8632185E-3,-1.7676359E-2,-6.4521335E-2,-1.1078003E-2,3.722061E-2,-1.8878598E-2,6.281139E-2,2.0811794E-2,6.235145E-3,2.2161644E-2],"split_indices":[4,7,0,4,8,9,13,5,16,7,16,9,4,0,13,8,14,10,9,14,13,4,4,8,0,16,0,7,0,0,0,0,16,9,0,13,0,14,14,4,1,13,5,16,9,9,5,0,0,0,0,0,13,6,0,0,0,0,13,10,7,9,1,0,16,0,0,6,6,16,16,8,1,6,13,16,9,7,0,0,0,0,0,0,0,0,0,0,0,0,0,0,0,0,0,0,0,0,0,0,0,0,0,0,0,0,0,0,0,0,0,0,0,0,0,0,0],"split_type":[0,0,0,0,0,0,0,0,0,0,0,0,0,0,0,0,0,0,0,0,0,0,0,0,0,0,0,0,0,0,0,0,0,0,0,0,0,0,0,0,0,0,0,0,0,0,0,0,0,0,0,0,0,0,0,0,0,0,0,0,0,0,0,0,0,0,0,0,0,0,0,0,0,0,0,0,0,0,0,0,0,0,0,0,0,0,0,0,0,0,0,0,0,0,0,0,0,0,0,0,0,0,0,0,0,0,0,0,0,0,0,0,0,0,0,0,0],"sum_hessian":[2.126424E3,1.7594067E3,3.6701718E2,1.08690445E2,1.6507163E3,3.1550348E2,5.1513725E1,4.1092163E1,6.759828E1,5.16149E2,1.1345674E3,2.897378E2,2.5765678E1,6.2731137E0,4.5240612E1,1.3809924E1,2.7282242E1,2.232228E1,4.5276E1,4.7353876E2,4.261026E1,3.168413E2,8.17726E2,2.795224E2,1.0215397E1,2.051155E1,5.2541275E0,2.298668E1,2.2253933E1,7.522022E0,6.287902E0,9.2739E0,1.800834E1,1.2551516E1,9.770765E0,3.9773884E1,5.5021167E0,4.911682E1,4.2442194E2,3.1064827E1,1.1545435E1,5.3087948E1,2.6375336E2,6.1281322E1,7.564447E2,4.4705284E1,2.3481711E2,1.0762455E1,9.749096E0,5.0037174E0,1.7982962E1,8.751713E0,1.350222E1,1.2245036E1,5.7633047E0,6.7758765E0,5.775639E0,2.6513336E1,1.3260548E1,3.1107864E1,1.8008955E1,6.0036488E1,3.6438544E2,1.1504461E1,1.9560366E1,6.2823305E0,5.2631044E0,2.8019505E1,2.5068443E1,4.648052E1,2.1727284E2,4.9000626E1,1.2280695E1,7.2151953E2,3.4925175E1,1.3051293E1,3.165399E1,2.2756053E2,7.2565784E0,5.520651E0,7.981569E0,5.254321E0,6.9907155E0,7.4997396E0,5.760808E0,2.4065027E1,7.0428367E0,1.2749166E1,5.2597904E0,5.4282936E1,5.753549E0,1.8979941E2,1.7458603E2,7.259316E0,1.2301049E1,2.2510954E1,5.5085497E0,1.9064007E1,6.004438E0,2.464855E1,2.1831968E1,9.503158E1,1.22241264E2,1.052353E1,3.8477097E1,6.7586718E0,5.522023E0,3.4244208E2,3.7907745E2,1.964951E1,1.5275665E1,5.5298624E0,7.521431E0,2.0865564E1,1.07884245E1,1.3669933E2,9.086121E1],"tree_param":{"num_deleted":"0","num_feature":"27","num_nodes":"117","size_leaf_vector":"1"}},{"base_weights":[3.1496843E-3,-6.906659E-2,3.8953376E-1,7.1249557E-1,-1.1881868E-1,2.8459933E-1,1.0267683E0,2.2038351E-1,1.1998255E0,2.555861E-1,-1.612538E-1,2.1536033E-1,1.0199473E0,3.3655617E-1,1.3095801E0,-1.7136422E-1,7.390257E-1,1.3345782E0,2.268785E-2,3.1464788E-1,-5.197225E-2,-2.0394592E-1,1.5640382E-1,2.8373593E-1,-8.956963E-1,5.340204E-1,6.856778E-2,-4.5521166E-3,3.746202E-2,3.857316E-2,7.388719E-2,-5.1728833E-2,1.7104928E-1,7.05378E-2,9.7770266E-2,1.5484253E-2,1.4549217E0,-3.1101775E-1,4.4599834E-1,-1.8283522E-1,-1.1680053E0,-1.8937935E-1,4.9688643E-1,-6.016491E-1,3.2491964E-1,-6.75271E-2,-1.7596796E-2,5.5102963E-2,-5.859021E-3,6.5370744E-1,-2.6512727E-2,-1.4424004E-2,2.2835784E-2,7.645077E-2,4.7350537E-2,-1.1485397E0,2.7427515E-1,5.0556934E-1,-4.4086248E-2,-1.4700776E-1,-5.010789E-1,-7.0638224E-2,-3.3333626E-2,3.9504868E-1,-4.2385882E-1,5.9868497E-1,-2.3351144E-2,2.3630349E-2,-7.526772E-2,4.0990224E-1,-1.00817606E-1,-1.8083863E-3,5.902266E-2,-2.3568334E-2,-7.758416E-2,3.5805717E-2,-1.8453699E-2,-8.78316E-3,2.9565064E-2,-1.2147146E-2,-1.2061286E-3,-3.5727613E-2,-3.6750026E-3,3.4022298E-2,-5.8681318E-3,1.0991663E-2,-3.4828752E-2,-1.3111532E-2,3.6040224E-2,3.13944E-2,1.222854E-2,-1.8107202E-2,2.048323E-2],"categories":[],"categories_nodes":[],"categories_segments":[],"categories_sizes":[],"default_left":[0,0,0,0,0,0,0,0,0,0,0,0,0,0,0,0,0,0,0,0,0,0,0,0,0,0,0,0,0,0,0,0,0,0,0,0,0,0,0,0,0,0,0,0,0,0,0,0,0,0,0,0,0,0,0,0,0,0,0,0,0,0,0,0,0,0,0,0,0,0,0,0,0,0,0,0,0,0,0,0,0,0,0,0,0,0,0,0,0,0,0,0,0],"id":4,"left_children":[1,3,5,7,9,11,13,15,17,19,21,23,25,27,29,31,33,35,-1,37,-1,39,41,43,45,47,-1,-1,-1,-1,-1,-1,49,-1,51,-1,53,55,57,59,61,63,65,67,69,-1,-1,-1,-1,71,-1,-1,-1,-1,-1,73,75,77,-1,79,81,-1,-1,83,85,87,-1,-1,-1,89,91,-1,-1,-1,-1,-1,-1,-1,-1,-1,-1,-1,-1,-1,-1,-1,-1,-1,-1,-1,-1,-1,-1],"loss_changes":[5.9472446E1,6.991274E1,2.215063E1,2.5544247E1,2.6878633E1,1.4523169E1,8.74749E0,1.1254744E1,4.807808E0,1.3509413E1,2.0615845E1,2.0454987E1,3.4769459E0,2.7199497E0,1.8501587E0,9.639551E0,1.0095152E1,5.111191E0,0E0,1.374782E1,0E0,2.7026264E1,2.1331858E1,9.357016E0,3.3968897E0,4.5617123E0,0E0,0E0,0E0,0E0,0E0,0E0,8.395858E0,0E0,1.9657696E0,0E0,6.049347E-2,1.4688644E1,1.1303452E1,1.4873497E1,2.554657E0,1.2531122E1,9.225328E0,1.1893457E1,8.75115E0,0E0,0E0,0E0,0E0,5.32401E0,0E0,0E0,0E0,0E0,0E0,2.6141357E0,5.400079E0,7.8140984E0,0E0,1.3901697E1,1.2017464E1,0E0,0E0,3.9334512E0,1.1540907E1,8.904339E0,0E0,0E0,0E0,7.0859146E0,5.599211E0,0E0,0E0,0E0,0E0,0E0,0E0,0E0,0E0,0E0,0E0,0E0,0E0,0E0,0E0,0E0,0E0,0E0,0E0,0E0,0E0,0E0,0E0],"parents":[2147483647,0,0,1,1,2,2,3,3,4,4,5,5,6,6,7,7,8,8,9,9,10,10,11,11,12,12,13,13,14,14,15,15,16,16,17,17,19,19,21,21,22,22,23,23,24,24,25,25,32,32,34,34,36,36,37,37,38,38,39,39,40,40,41,41,42,42,43,43,44,44,49,49,55,55,56,56,57,57,59,59,60,60,63,63,64,64,65,65,69,69,70,70],"right_children":[2,4,6,8,10,12,14,16,18,20,22,24,26,28,30,32,34,36,-1,38,-1,40,42,44,46,48,-1,-1,-1,-1,-1,-1,50,-1,52,-1,54,56,58,60,62,64,66,68,70,-1,-1,-1,-1,72,-1,-1,-1,-1,-1,74,76,78,-1,80,82,-1,-1,84,86,88,-1,-1,-1,90,92,-1,-1,-1,-1,-1,-1,-1,-1,-1,-1,-1,-1,-1,-1,-1,-1,-1,-1,-1,-1,-1,-1],"split_conditions":[6.557377E-1,-3.2214838E-1,5.0001E4,1.02E2,7.231314E-3,1.4925662E0,1.1E1,-6.8927936E-2,1.347882E0,1E0,1E0,1.393462E0,2.0125281E-2,2.4806364E-2,-1.3986166E-2,9.51597E-1,7E1,4.225352E-1,2.268785E-2,4.727245E-1,-5.197225E-2,1.7504792E0,5.074627E-1,7E0,-2.2100398E-2,-6.7294426E-2,6.856778E-2,-4.5521166E-3,3.746202E-2,3.857316E-2,7.388719E-2,-5.1728833E-2,4E0,7.05378E-2,7E0,1.5484253E-2,8E0,3E0,6.3E1,2.6321856E-2,6E0,-2.602642E-2,1.20769E-1,1E0,1E0,-6.75271E-2,-1.7596796E-2,5.5102963E-2,-5.859021E-3,4.16E-1,-2.6512727E-2,-1.4424004E-2,2.2835784E-2,7.645077E-2,4.7350537E-2,2.8E1,2.3642237E-1,1.4E1,-4.4086248E-2,4.9343833E-1,9.7E1,-7.0638224E-2,-3.3333626E-2,5.1E1,9.753828E-1,6.8878233E-1,-2.3351144E-2,2.3630349E-2,-7.526772E-2,1.0927668E-2,1.940988E-2,-1.8083863E-3,5.902266E-2,-2.3568334E-2,-7.758416E-2,3.5805717E-2,-1.8453699E-2,-8.78316E-3,2.9565064E-2,-1.2147146E-2,-1.2061286E-3,-3.5727613E-2,-3.6750026E-3,3.4022298E-2,-5.8681318E-3,1.0991663E-2,-3.4828752E-2,-1.3111532E-2,3.6040224E-2,3.13944E-2,1.222854E-2,-1.8107202E-2,2.048323E-2],"split_indices":[4,7,0,3,8,9,3,6,9,23,21,9,6,7,6,9,14,4,0,9,0,9,4,14,6,6,0,0,0,0,0,0,10,0,13,0,13,16,16,5,13,5,6,25,12,0,0,0,0,4,0,0,0,0,0,2,9,14,0,4,14,0,0,3,9,9,0,0,0,8,8,0,0,0,0,0,0,0,0,0,0,0,0,0,0,0,0,0,0,0,0,0,0],"split_type":[0,0,0,0,0,0,0,0,0,0,0,0,0,0,0,0,0,0,0,0,0,0,0,0,0,0,0,0,0,0,0,0,0,0,0,0,0,0,0,0,0,0,0,0,0,0,0,0,0,0,0,0,0,0,0,0,0,0,0,0,0,0,0,0,0,0,0,0,0,0,0,0,0,0,0,0,0,0,0,0,0,0,0,0,0,0,0,0,0,0,0,0,0],"sum_hessian":[2.1294187E3,1.794789E3,3.3462985E2,1.06616425E2,1.6881725E3,2.88559E2,4.607086E1,5.37705E1,5.2845924E1,1.7134793E2,1.5168246E3,2.6490857E2,2.3650429E1,1.4027147E1,3.2043716E1,3.1014105E1,2.2756395E1,4.4093136E1,8.752789E0,1.6459822E2,6.7497087E0,1.3374357E3,1.7938893E2,2.502524E2,1.465617E1,1.09829235E1,1.2667505E1,7.271867E0,6.7552805E0,8.959921E0,2.3083794E1,8.2343E0,2.2779804E1,1.0528037E1,1.2228357E1,5.0088816E0,3.9084255E1,2.832223E1,1.3627599E2,1.3099406E3,2.749507E1,8.922187E1,9.016707E1,1.0518224E1,2.3973416E2,7.172661E0,7.4835086E0,5.4962373E0,5.4866867E0,1.3533509E1,9.246295E0,5.984707E0,6.243651E0,3.235407E1,6.7301855E0,1.125484E1,1.706739E1,1.3101688E2,5.259119E0,1.1787054E3,1.3123518E2,1.725357E1,1.0241499E1,2.5351006E1,6.3870865E1,8.1896835E1,8.270233E0,5.0235925E0,5.4946313E0,1.9987396E2,3.986021E1,6.262671E0,7.270838E0,5.009481E0,6.2453585E0,1.0051273E1,7.016116E0,1.4527912E1,1.1648896E2,6.6138904E2,5.1731635E2,8.70856E1,4.414958E1,1.6071657E1,9.279348E0,1.9065197E1,4.4805668E1,1.0031265E1,7.186557E1,8.500244E1,1.1487151E2,2.6556149E1,1.3304059E1],"tree_param":{"num_deleted":"0","num_feature":"27","num_nodes":"93","size_leaf_vector":"1"}},{"base_weights":[7.18994E-4,-8.154984E-2,3.9787197E-1,3.8154656E-1,-1.3891788E-1,2.6555955E-1,8.940499E-1,-2.9196413E-2,8.584451E-1,2.9480794E-1,-1.7300281E-1,-2.6172537E-1,3.5531822E-1,-9.3321346E-2,1.0827625E0,-4.063865E-1,3.1305072E-1,9.679393E-1,2.1595554E-1,1.2505886E-1,8.789144E-1,6.557714E-2,-2.295049E-1,5.0561345E-1,-6.2208027E-1,9.4958365E-1,2.9001755E-1,-2.7327538E-2,2.501678E-2,-9.837295E-3,1.1981064E0,-1.0076491E-1,-7.815868E-1,8.69363E-1,1.1740464E-1,1.4310632E0,7.240866E-1,-1.7906737E-2,5.431539E-2,4.4073835E-1,-3.887671E-1,5.4801863E-1,7.422342E-2,1.8928444E-1,-6.1912465E-1,-3.1136724E-1,-5.7729784E-2,-7.362935E-3,5.3538557E-2,-9.908289E-2,-5.92885E-2,3.9871177E-1,1.3237171E0,4.3430828E-2,4.0246883E-1,1.2815532E-2,1.2892282E0,-3.5068965E-1,4.1176956E-2,-1.068792E0,7.2617866E-3,1.8522058E-2,6.411695E-2,-4.0978405E-1,6.093964E-1,4.3630812E-2,7.819181E-2,3.0294207E-1,1.0666339E0,-9.333784E-2,7.082758E-1,-6.3399804E-1,4.1835427E-2,1.0755264E0,-2.5648493E-2,4.5054403E-1,-1.2361952E-2,-8.27875E-2,-9.394604E-1,-2.8967908E-1,-1.1951854E0,-4.223475E-1,9.78631E-2,-4.858313E-2,3.0126406E-2,4.6415087E-2,-8.764291E-3,7.7286884E-2,4.008776E-2,5.81245E-1,-2.6826224E-1,4.769103E-1,-2.0179878E-1,1.4394974E0,6.5520525E-1,1.5428528E-2,-3.61601E-2,-7.826331E-2,-7.6946015E-3,1.4505157E-2,-3.3659976E-2,5.2392823E-3,5.5287033E-2,4.4717193E-2,-9.398836E-3,1.6627467E-3,6.4872704E-2,-2.2903778E-2,4.079214E-2,5.2413274E-2,9.728028E-3,-1.9200208E-2,-5.282666E-2,2.3391103E-2,7.086853E-2,3.3894015E-4,3.506076E-2,2.585806E-2,-6.5542357E-3,4.4487998E-2,-2.7685193E-2,-5.6200624E-2,-5.387088E-3,-3.9054714E-2,-1.2819252E-2,-7.3552355E-2,-2.1592308E-2,-4.387962E-2,-6.3562477E-3,-3.5011955E-2,7.794024E-3,5.516397E-2,4.0963492E-3,-3.8995203E-2,8.483122E-3,2.7798364E-2,-1.2920633E-3,2.802307E-2,-4.8133403E-2,7.942522E-2,5.010605E-2,6.29727E-2,-3.7973113E-3],"categories":[],"categories_nodes":[],"categories_segments":[],"categories_sizes":[],"default_left":[0,0,0,0,0,0,0,0,0,0,0,0,0,0,0,0,0,0,0,0,0,0,0,0,0,0,0,0,0,0,0,0,0,0,0,0,0,0,0,0,0,0,0,0,0,0,0,0,0,0,0,0,0,0,0,0,0,0,0,0,0,0,0,0,0,0,0,0,0,0,0,0,0,0,0,0,0,0,0,0,0,0,0,0,0,0,0,0,0,0,0,0,0,0,0,0,0,0,0,0,0,0,0,0,0,0,0,0,0,0,0,0,0,0,0,0,0,0,0,0,0,0,0,0,0,0,0,0,0,0,0,0,0,0,0,0,0,0,0,0,0,0,0],"id":5,"left_children":[1,3,5,7,9,11,13,15,17,19,21,23,25,27,29,31,33,35,37,39,41,43,45,47,49,51,53,-1,-1,-1,55,57,59,61,63,65,67,-1,-1,69,71,73,-1,75,77,79,81,-1,-1,83,-1,85,87,89,91,-1,93,95,-1,97,-1,-1,-1,99,101,-1,-1,103,105,107,109,111,-1,113,-1,115,117,119,121,123,125,127,129,-1,-1,-1,-1,-1,-1,131,133,135,137,139,141,-1,-1,-1,-1,-1,-1,-1,-1,-1,-1,-1,-1,-1,-1,-1,-1,-1,-1,-1,-1,-1,-1,-1,-1,-1,-1,-1,-1,-1,-1,-1,-1,-1,-1,-1,-1,-1,-1,-1,-1,-1,-1,-1,-1,-1,-1,-1,-1],"loss_changes":[7.0029305E1,4.7223442E1,2.390839E1,3.8413063E1,2.3417206E1,1.3902779E1,1.4449696E1,1.3844205E1,6.1728134E0,1.1345072E1,1.9777489E1,1.2210386E1,9.416994E0,3.8458183E0,9.788773E0,5.7674646E0,6.022806E0,7.684654E0,7.6322455E0,1.4880283E1,4.3658924E0,2.3960262E1,1.6652931E1,5.4336414E0,8.644748E0,4.4780636E0,6.2625046E0,0E0,0E0,0E0,4.7772827E0,7.0445576E0,6.2079363E0,2.5095673E0,1.1347908E1,5.3434753E-1,7.266468E0,0E0,0E0,8.159157E0,1.1061277E1,1.0793925E1,0E0,1.2606173E1,7.3631535E0,1.5039719E1,2.1818632E1,0E0,0E0,1.0692194E1,0E0,3.5840216E0,3.8699532E-1,1.2234551E1,7.087576E0,0E0,4.203491E0,6.0487905E0,0E0,7.698412E0,0E0,0E0,0E0,4.113594E0,5.5283213E0,0E0,0E0,7.4247336E0,6.782345E0,6.935377E0,6.4073734E0,2.7386541E0,0E0,1.943223E0,0E0,1.1588224E1,8.615447E0,8.4119215E0,4.026064E0,1.2639481E1,3.345724E0,1.5344286E1,1.2604847E1,0E0,0E0,0E0,0E0,0E0,0E0,6.8831196E0,1.05065155E1,5.5260906E0,1.0833984E1,1.1997147E0,5.4791527E0,0E0,0E0,0E0,0E0,0E0,0E0,0E0,0E0,0E0,0E0,0E0,0E0,0E0,0E0,0E0,0E0,0E0,0E0,0E0,0E0,0E0,0E0,0E0,0E0,0E0,0E0,0E0,0E0,0E0,0E0,0E0,0E0,0E0,0E0,0E0,0E0,0E0,0E0,0E0,0E0,0E0,0E0,0E0,0E0,0E0,0E0,0E0,0E0],"parents":[2147483647,0,0,1,1,2,2,3,3,4,4,5,5,6,6,7,7,8,8,9,9,10,10,11,11,12,12,13,13,14,14,15,15,16,16,17,17,18,18,19,19,20,20,21,21,22,22,23,23,24,24,25,25,26,26,30,30,31,31,32,32,33,33,34,34,35,35,36,36,39,39,40,40,41,41,43,43,44,44,45,45,46,46,49,49,51,51,52,52,53,53,54,54,56,56,57,57,59,59,63,63,64,64,67,67,68,68,69,69,70,70,71,71,73,73,75,75,76,76,77,77,78,78,79,79,80,80,81,81,82,82,89,89,90,90,91,91,92,92,93,93,94,94],"right_children":[2,4,6,8,10,12,14,16,18,20,22,24,26,28,30,32,34,36,38,40,42,44,46,48,50,52,54,-1,-1,-1,56,58,60,62,64,66,68,-1,-1,70,72,74,-1,76,78,80,82,-1,-1,84,-1,86,88,90,92,-1,94,96,-1,98,-1,-1,-1,100,102,-1,-1,104,106,108,110,112,-1,114,-1,116,118,120,122,124,126,128,130,-1,-1,-1,-1,-1,-1,132,134,136,138,140,142,-1,-1,-1,-1,-1,-1,-1,-1,-1,-1,-1,-1,-1,-1,-1,-1,-1,-1,-1,-1,-1,-1,-1,-1,-1,-1,-1,-1,-1,-1,-1,-1,-1,-1,-1,-1,-1,-1,-1,-1,-1,-1,-1,-1,-1,-1,-1,-1],"split_conditions":[6.451613E-1,-2.183708E-1,1.03E2,1.08E2,6.471597E-3,2.7E1,7.806058E-1,4.4859812E-1,1.373571E0,2.66701E-2,7.640542E-1,8.959424E-1,3.4E1,7E0,-2.0240854E-1,3.9759037E-1,2.8E1,2E0,8E0,9.310598E-4,8.442435E-1,2.3307456E-2,1.02E2,1.4E1,1E0,4.777011E-3,7.4E1,-2.7327538E-2,2.501678E-2,-9.837295E-3,2.2E1,1E0,2.9E1,2.2E1,8.1E1,-2.2400339E-1,1.032417E0,-1.7906737E-2,5.431539E-2,6.5635633E-1,4.5E1,7.421394E-1,7.422342E-2,-3.6152427E-3,4.727245E-1,1.7504792E0,-3.581146E-2,-7.362935E-3,5.3538557E-2,-3.3649273E-2,-5.92885E-2,7.04918E-1,8E0,9.903836E-3,1E0,1.2815532E-2,2.351557E-2,5.6E1,4.1176956E-2,6.1E1,7.2617866E-3,1.8522058E-2,6.411695E-2,1E0,3.857471E-2,4.3630812E-2,7.819181E-2,-9.9803485E-2,4.375E-1,5.6388653E-3,5.7863323E-3,1.22E2,4.1835427E-2,4.2379183E-1,-2.5648493E-2,5.2E1,3.4E1,-7.1233004E-2,1.3889655E-1,6E0,3.1144595E-2,1.5584641E-2,2.1428572E-1,-4.858313E-2,3.0126406E-2,4.6415087E-2,-8.764291E-3,7.7286884E-2,4.008776E-2,1E0,9.347442E-1,4.9E1,1E0,1E2,1.46E2,1.5428528E-2,-3.61601E-2,-7.826331E-2,-7.6946015E-3,1.4505157E-2,-3.3659976E-2,5.2392823E-3,5.5287033E-2,4.4717193E-2,-9.398836E-3,1.6627467E-3,6.4872704E-2,-2.2903778E-2,4.079214E-2,5.2413274E-2,9.728028E-3,-1.9200208E-2,-5.282666E-2,2.3391103E-2,7.086853E-2,3.3894015E-4,3.506076E-2,2.585806E-2,-6.5542357E-3,4.4487998E-2,-2.7685193E-2,-5.6200624E-2,-5.387088E-3,-3.9054714E-2,-1.2819252E-2,-7.3552355E-2,-2.1592308E-2,-4.387962E-2,-6.3562477E-3,-3.5011955E-2,7.794024E-3,5.516397E-2,4.0963492E-3,-3.8995203E-2,8.483122E-3,2.7798364E-2,-1.2920633E-3,2.802307E-2,-4.8133403E-2,7.942522E-2,5.010605E-2,6.29727E-2,-3.7973113E-3],"split_indices":[4,7,3,3,8,14,9,4,9,1,9,9,14,13,7,4,14,10,13,1,9,8,14,16,25,1,14,0,0,0,14,12,16,3,14,6,9,0,0,9,16,9,0,6,9,9,7,0,0,7,0,4,13,8,15,0,8,14,0,3,0,0,0,17,8,0,0,6,4,8,8,14,0,4,0,14,14,6,7,14,8,8,4,0,0,0,0,0,0,26,9,16,25,14,3,0,0,0,0,0,0,0,0,0,0,0,0,0,0,0,0,0,0,0,0,0,0,0,0,0,0,0,0,0,0,0,0,0,0,0,0,0,0,0,0,0,0,0,0,0,0,0,0],"split_type":[0,0,0,0,0,0,0,0,0,0,0,0,0,0,0,0,0,0,0,0,0,0,0,0,0,0,0,0,0,0,0,0,0,0,0,0,0,0,0,0,0,0,0,0,0,0,0,0,0,0,0,0,0,0,0,0,0,0,0,0,0,0,0,0,0,0,0,0,0,0,0,0,0,0,0,0,0,0,0,0,0,0,0,0,0,0,0,0,0,0,0,0,0,0,0,0,0,0,0,0,0,0,0,0,0,0,0,0,0,0,0,0,0,0,0,0,0,0,0,0,0,0,0,0,0,0,0,0,0,0,0,0,0,0,0,0,0,0,0,0,0,0,0],"sum_hessian":[2.1413252E3,1.774532E3,3.6679333E2,1.9497438E2,1.5795575E3,2.9078647E2,7.600685E1,1.0525725E2,8.971713E1,1.145301E2,1.4650275E3,4.202076E1,2.4876572E2,1.2277049E1,6.37298E1,4.9983307E1,5.527394E1,7.6220894E1,1.3496239E1,8.968155E1,2.4848543E1,2.804916E2,1.1845359E3,1.3298938E1,2.872182E1,2.328847E1,2.2547725E2,7.0069323E0,5.2701173E0,5.211622E0,5.8518177E1,2.8244858E1,2.173845E1,1.3485337E1,4.1788605E1,2.4611084E1,5.1609814E1,8.486803E0,5.009436E0,5.5640137E1,3.4041416E1,1.7300135E1,7.5484085E0,2.3818202E2,4.2309574E1,8.0167255E2,3.8286328E2,6.5137124E0,6.7852254E0,1.5508575E1,1.3213245E1,1.0254905E1,1.30335655E1,7.1054E1,1.5442325E2,5.498709E0,5.301947E1,2.2721682E1,5.5231776E0,1.6478796E1,5.2596526E0,6.966281E0,6.5190563E0,2.0253387E1,2.1535217E1,6.1819334E0,1.842915E1,2.3994356E1,2.7615458E1,1.8787132E1,3.6853004E1,2.8767399E1,5.2740164E0,1.1545956E1,5.7541795E0,1.0321675E2,1.3496527E2,1.629139E1,2.6018183E1,7.8376733E2,1.7905233E1,1.14000084E2,2.6886322E2,6.740566E0,8.768009E0,5.01273E0,5.2421746E0,7.767992E0,5.265573E0,2.5753149E1,4.5300854E1,1.376736E2,1.6749645E1,4.183401E1,1.1185457E1,8.265434E0,1.4456246E1,1.0221303E1,6.257493E0,5.510591E0,1.4742797E1,1.127924E1,1.0255977E1,1.0510614E1,1.3483742E1,5.2509756E0,2.2364483E1,1.3762265E1,5.024867E0,2.1550072E1,1.5302933E1,1.9273184E1,9.494213E0,5.0093117E0,6.536644E0,3.762895E1,6.55878E1,2.4103527E1,1.1086175E2,5.0247455E0,1.12666445E1,2.1005735E1,5.012448E0,4.830675E1,7.354606E2,1.2471179E1,5.434054E0,4.4069897E1,6.993018E1,1.7470127E1,2.5139308E2,1.1998847E1,1.3754303E1,2.0531878E1,2.4768974E1,1.18874855E2,1.8798748E1,8.498752E0,8.250895E0,2.924039E1,1.259362E1,5.728591E0,5.4568667E0],"tree_param":{"num_deleted":"0","num_feature":"27","num_nodes":"143","size_leaf_vector":"1"}},{"base_weights":[-1.36902E-4,4.4371846E-1,-3.1216895E-2,2.1871994E-1,9.112751E-1,2.581247E-1,-7.71041E-2,-1.5961063E-1,4.604797E-1,7.63685E-2,6.727807E-1,-3.2975927E-1,3.7259638E-1,1.3543984E-1,-1.4828722E-1,5.514945E-1,-6.5235E-1,5.632886E-1,-2.2239747E-2,9.372256E-1,-1.52261425E-2,-5.63992E-1,2.4056291E-2,4.1252786E-1,-4.0335223E-2,-1.43347485E-2,5.390239E-1,-1.0534604E-1,-4.957158E-1,-9.450157E-3,5.9259027E-2,-1.2012165E0,2.1692326E-3,-1.238384E-2,6.633543E-1,1.1666027E0,5.3836065E-3,-7.7460927E-1,7.746391E-3,1.616429E-1,6.236766E-1,2.9238613E-2,-9.823768E-1,1.5705048E-1,7.5764525E-1,-7.409734E-2,-6.2208396E-1,-9.4593346E-1,1.7333849E-4,-7.389767E-2,-3.9346576E-2,-2.8935575E-3,7.964114E-1,8.7717587E-1,7.766634E-2,-2.7604613E-1,-1.135647E0,4.815157E-1,-6.1237276E-1,4.9364123E-1,1.1231866E0,-2.9890535E-2,7.0037824E-1,-1.6790418E-3,-7.9205684E-2,-3.210601E-1,5.911014E-1,1.1085956E0,4.5543435E-1,3.831075E-1,-1.060309E-1,-8.973952E-1,3.320475E-1,-2.551034E-1,-1.2092162E0,-3.8611633E-1,7.0071024E-1,4.4095274E-2,9.7986115E-3,5.6857582E-2,1.7513348E-2,3.752519E-2,-5.8119666E-2,-7.6830044E-2,-3.3852916E-2,4.653829E-2,1.3188945E-2,-4.2343594E-2,1.4410739E-2,3.4367375E-2,9.794927E-3,2.652551E-2,6.316558E-2,2.1512464E-4,-4.9746197E-2,1.5338251E-2,6.1490983E-2,-3.7242904E-2,3.4857567E-2,4.5282073E-2,-1.2745698E-3,7.306082E-2,2.6899656E-2,2.969361E-2,-2.067258E-2,5.628651E-2,1.1657665E-2,-8.841979E-3,5.3280224E-3,-7.8204446E-2,-3.6563154E-2,-2.782814E-2,4.8010435E-2,-3.0165402E-2,2.7522394E-2,-7.249316E-2,-2.5934389E-2,-4.989512E-2,-6.812594E-4,5.559052E-2,-3.0299514E-3],"categories":[],"categories_nodes":[],"categories_segments":[],"categories_sizes":[],"default_left":[0,0,0,0,0,0,0,0,0,0,0,0,0,0,0,0,0,0,0,0,0,0,0,0,0,0,0,0,0,0,0,0,0,0,0,0,0,0,0,0,0,0,0,0,0,0,0,0,0,0,0,0,0,0,0,0,0,0,0,0,0,0,0,0,0,0,0,0,0,0,0,0,0,0,0,0,0,0,0,0,0,0,0,0,0,0,0,0,0,0,0,0,0,0,0,0,0,0,0,0,0,0,0,0,0,0,0,0,0,0,0,0,0,0,0,0,0,0,0,0,0],"id":6,"left_children":[1,3,5,7,9,11,13,15,17,-1,19,21,23,25,27,29,31,33,-1,35,-1,37,-1,39,-1,41,43,45,47,-1,-1,49,-1,-1,51,53,-1,55,-1,57,59,61,63,65,67,69,71,73,75,-1,-1,-1,77,79,-1,81,83,85,87,89,91,93,95,-1,-1,97,99,101,103,105,107,109,111,113,115,117,119,-1,-1,-1,-1,-1,-1,-1,-1,-1,-1,-1,-1,-1,-1,-1,-1,-1,-1,-1,-1,-1,-1,-1,-1,-1,-1,-1,-1,-1,-1,-1,-1,-1,-1,-1,-1,-1,-1,-1,-1,-1,-1,-1,-1],"loss_changes":[2.9103794E1,1.4324734E1,2.6197855E1,8.719135E0,5.5166054E0,1.8300747E1,2.577885E1,1.35328045E1,5.6419706E0,0E0,9.045534E0,8.733942E0,1.1001917E1,2.585881E1,1.8982624E1,7.698984E0,8.707299E0,4.421568E0,0E0,4.997225E0,0E0,5.4240904E0,0E0,1.1543114E1,0E0,1.322658E1,9.549553E0,1.8310278E1,3.1273827E1,0E0,0E0,2.9354858E-1,0E0,0E0,4.553667E0,9.867325E-1,0E0,4.59317E0,0E0,2.549921E1,7.17535E0,1.1941249E1,7.6576767E0,9.197687E0,7.277218E0,1.5708229E1,1.7291052E1,1.3045509E1,1.857952E1,0E0,0E0,0E0,1.8663216E0,1.560832E0,0E0,1.2491695E1,1.8076439E0,6.8552837E0,6.6237E0,5.4140816E0,1.3060875E0,9.145189E0,4.699768E0,0E0,0E0,9.711845E0,4.5038633E0,5.9044113E0,5.191949E0,7.5633307E0,1.5129901E1,4.446724E0,9.027926E0,6.3704534E0,8.037407E0,1.0071487E1,7.7048635E0,0E0,0E0,0E0,0E0,0E0,0E0,0E0,0E0,0E0,0E0,0E0,0E0,0E0,0E0,0E0,0E0,0E0,0E0,0E0,0E0,0E0,0E0,0E0,0E0,0E0,0E0,0E0,0E0,0E0,0E0,0E0,0E0,0E0,0E0,0E0,0E0,0E0,0E0,0E0,0E0,0E0,0E0,0E0,0E0],"parents":[2147483647,0,0,1,1,2,2,3,3,4,4,5,5,6,6,7,7,8,8,10,10,11,11,12,12,13,13,14,14,15,15,16,16,17,17,19,19,21,21,23,23,25,25,26,26,27,27,28,28,31,31,34,34,35,35,37,37,39,39,40,40,41,41,42,42,43,43,44,44,45,45,46,46,47,47,48,48,52,52,53,53,55,55,56,56,57,57,58,58,59,59,60,60,61,61,62,62,65,65,66,66,67,67,68,68,69,69,70,70,71,71,72,72,73,73,74,74,75,75,76,76],"right_children":[2,4,6,8,10,12,14,16,18,-1,20,22,24,26,28,30,32,34,-1,36,-1,38,-1,40,-1,42,44,46,48,-1,-1,50,-1,-1,52,54,-1,56,-1,58,60,62,64,66,68,70,72,74,76,-1,-1,-1,78,80,-1,82,84,86,88,90,92,94,96,-1,-1,98,100,102,104,106,108,110,112,114,116,118,120,-1,-1,-1,-1,-1,-1,-1,-1,-1,-1,-1,-1,-1,-1,-1,-1,-1,-1,-1,-1,-1,-1,-1,-1,-1,-1,-1,-1,-1,-1,-1,-1,-1,-1,-1,-1,-1,-1,-1,-1,-1,-1,-1,-1],"split_conditions":[-3.0019546E-1,1.45E2,7.8016454E-3,-1.3746087E-1,2E0,4.727245E-1,3E0,5E0,1.15E2,7.63685E-2,-3.4458324E-1,1.5001E4,6.3E1,8.5E1,2.6321856E-2,3.918915E-2,7.3E1,2.2609437E-2,-2.2239747E-2,1.82E2,-1.52261425E-2,1.1E1,2.4056291E-2,6E0,-4.0335223E-2,7.8E1,-3.1646412E-2,1.563459E0,4.5103777E-2,-9.450157E-3,5.9259027E-2,6E0,2.1692326E-3,-1.238384E-2,8.3989E-1,3.2E1,5.3836065E-3,2.9E1,7.746391E-3,9.488652E-1,9E1,5.6E1,1.5146208E-2,1.008182E0,6.40651E-3,9E0,8.8225506E-2,1E0,1.31E2,-7.389767E-2,-3.9346576E-2,-2.8935575E-3,1.2709987E-1,-6.3179275E-3,7.766634E-2,2.9953508E-2,1E1,7.7681695E-3,1.280697E0,6.1987424E-3,-3.647157E-2,1E0,4.147232E-2,-1.6790418E-3,-7.9205684E-2,4.0137317E-2,1.49E2,1.58E2,2.6263753E-2,1.0927668E-2,5E1,1.4416719E-2,4.3E1,1.647539E-2,1.8803798E-2,-1.2675614E-2,1.7874109E-2,4.4095274E-2,9.7986115E-3,5.6857582E-2,1.7513348E-2,3.752519E-2,-5.8119666E-2,-7.6830044E-2,-3.3852916E-2,4.653829E-2,1.3188945E-2,-4.2343594E-2,1.4410739E-2,3.4367375E-2,9.794927E-3,2.652551E-2,6.316558E-2,2.1512464E-4,-4.9746197E-2,1.5338251E-2,6.1490983E-2,-3.7242904E-2,3.4857567E-2,4.5282073E-2,-1.2745698E-3,7.306082E-2,2.6899656E-2,2.969361E-2,-2.067258E-2,5.628651E-2,1.1657665E-2,-8.841979E-3,5.3280224E-3,-7.8204446E-2,-3.6563154E-2,-2.782814E-2,4.8010435E-2,-3.0165402E-2,2.7522394E-2,-7.249316E-2,-2.5934389E-2,-4.989512E-2,-6.812594E-4,5.559052E-2,-3.0299514E-3],"split_indices":[7,3,8,1,13,9,16,3,3,0,7,0,16,3,5,8,3,8,0,3,0,13,0,13,0,3,5,9,5,0,0,13,0,0,9,2,0,2,0,9,3,3,6,9,7,2,6,25,3,0,0,0,6,6,0,7,16,7,9,1,5,23,6,0,0,8,3,3,8,8,16,8,3,1,8,1,8,0,0,0,0,0,0,0,0,0,0,0,0,0,0,0,0,0,0,0,0,0,0,0,0,0,0,0,0,0,0,0,0,0,0,0,0,0,0,0,0,0,0,0,0],"split_type":[0,0,0,0,0,0,0,0,0,0,0,0,0,0,0,0,0,0,0,0,0,0,0,0,0,0,0,0,0,0,0,0,0,0,0,0,0,0,0,0,0,0,0,0,0,0,0,0,0,0,0,0,0,0,0,0,0,0,0,0,0,0,0,0,0,0,0,0,0,0,0,0,0,0,0,0,0,0,0,0,0,0,0,0,0,0,0,0,0,0,0,0,0,0,0,0,0,0,0,0,0,0,0,0,0,0,0,0,0,0,0,0,0,0,0,0,0,0,0,0,0],"sum_hessian":[2.1077275E3,1.3706184E2,1.9706656E3,9.352389E1,4.3537956E1,2.6911798E2,1.7015477E3,3.6595413E1,5.692848E1,1.0642169E1,3.289579E1,4.3555E1,2.2556297E2,4.2666788E2,1.2748799E3,1.49298725E1,2.166554E1,5.1461895E1,5.4665813E0,2.592252E1,6.9732685E0,3.4029648E1,9.525351E0,2.1880438E2,6.7585893E0,3.1188742E2,1.1478046E2,1.1358013E3,1.3907857E2,7.2083044E0,7.721568E0,1.1704943E1,9.960597E0,5.490434E0,4.5971462E1,1.9989098E1,5.9334226E0,2.62592E1,7.7704496E0,1.0080014E2,1.1800424E2,2.993815E2,1.25059185E1,4.2406517E1,7.237394E1,1.0721108E3,6.3690384E1,7.242048E1,6.665809E1,5.478139E0,6.226804E0,7.248206E0,3.8723255E1,1.3302008E1,6.6870894E0,1.1770166E1,1.4489033E1,7.159175E1,2.9208393E1,9.520751E1,2.279673E1,2.7601898E2,2.3362528E1,5.2630873E0,7.242831E0,2.0302961E1,2.2103558E1,3.2252083E1,4.012186E1,6.927515E1,1.0028357E3,4.947423E1,1.421615E1,2.0527395E1,5.189308E1,4.3255173E1,2.3402916E1,3.348649E1,5.23677E0,8.131693E0,5.1703153E0,5.5247602E0,6.2454066E0,6.4761133E0,8.01292E0,2.2301983E1,4.928977E1,2.3221514E1,5.986879E0,5.6888386E1,3.8319122E1,5.274318E0,1.7522413E1,2.6753522E2,8.483757E0,1.4306085E1,9.056443E0,1.4525606E1,5.7773547E0,1.4326468E1,7.7770886E0,1.896887E1,1.3283211E1,3.4880875E1,5.240985E0,1.05451145E1,5.8730034E1,7.523991E2,2.504366E2,8.190555E0,4.128368E1,5.934732E0,8.281419E0,1.4507499E1,6.019896E0,3.7666714E1,1.422637E1,1.5734142E1,2.752103E1,1.4897827E1,8.505088E0],"tree_param":{"num_deleted":"0","num_feature":"27","num_nodes":"121","size_leaf_vector":"1"}},{"base_weights":[7.0550493E-3,-9.6759655E-2,2.3283465E-1,7.768169E-1,-1.1995439E-1,4.2187798E-1,1.10676825E-1,1.1705868E-1,1.0846863E0,1.0881378E-1,-1.7261031E-1,7.822738E-2,6.353735E-1,3.6498562E-1,-8.401515E-2,3.4208063E-2,-1.707386E-2,1.2324123E0,2.2580193E-2,1.7283341E-1,-7.263744E-1,5.037394E-2,-2.5115258E-1,3.52021E-1,-5.502329E-1,8.0285054E-1,5.1293038E-2,9.474583E-2,8.077346E-1,-2.2825952E-1,5.28388E-1,3.8770538E-2,6.847324E-2,1.2279346E-1,9.6578217E-1,-1.0505531E0,-2.3467352E-3,-5.346499E-1,1.6443746E-1,-3.9348817E-1,-7.268256E-2,-4.888395E-2,6.7426604E-1,1.9856335E-1,-1.0236526E0,9.3242407E-1,4.3143883E-1,-8.559312E-1,6.738179E-1,6.6543114E-1,-1.0750485E-2,5.063496E-1,1.2189198E0,1.9615524E-2,-6.0020924E-1,8.636392E-1,-4.8654634E-1,8.831974E-2,5.9605937E-2,5.5890527E-2,2.8682334E-2,-2.8942226E-2,-6.863256E-2,-1.2716235E0,-1.05224915E-1,-4.1181973E-1,2.6595247E-1,-2.1169978E-1,-5.342618E-1,8.552539E-3,-5.4568744E-1,3.872837E-1,-4.5805973E-1,4.5599654E-2,9.2033017E-1,4.0423535E-2,-2.201059E-2,-6.786611E-2,-6.976273E-3,7.766329E-1,1.3526895E0,6.293275E-1,-2.1824861E-2,-7.753568E-2,-1.668098E-2,-1.1404485E-2,1.1106306E0,-1.5907133E-3,5.815014E-2,7.575856E-2,-3.4920435E-2,-9.896504E-2,7.276398E-1,2.785576E-2,1.4952562E0,-2.466084E-1,6.569724E-1,4.4702157E-2,-7.235045E-1,1.3414239E0,1.0728127E-1,-4.1073617E-2,-1.4679427E-3,1.2361369E-2,-4.77769E-3,-4.2992935E-2,-7.9025425E-2,-6.600644E-2,8.842445E-3,-3.3091556E-2,3.522254E-2,3.2880493E-2,5.3090802E-3,-5.227929E-3,-3.8492803E-2,-2.8395057E-2,4.8151948E-2,-2.2621003E-3,4.7311142E-2,-3.7908E-2,1.8241253E-2,5.3632002E-2,-5.46838E-3,1.8165049E-3,-4.1518506E-2,4.038155E-2,-3.7802383E-2,6.0714304E-2,-1.4836985E-3,5.662751E-2,3.1827573E-2,3.717832E-2,7.617035E-2,9.048085E-3,5.9440162E-2,2.0252531E-2,7.255335E-2,2.2643477E-2,-2.1221454E-3,2.5823245E-2,-3.3804797E-2,4.977815E-2,1.7749256E-2,3.5951998E-2,8.789613E-2,-3.3697225E-2,1.2257073E-2,5.6562454E-2,7.6609995E-4,-4.2665504E-2,2.6279781E-2,8.097578E-2,3.480918E-2,3.5406794E-2,-2.0751787E-2],"categories":[],"categories_nodes":[],"categories_segments":[],"categories_sizes":[],"default_left":[0,0,0,0,0,0,0,0,0,0,0,0,0,0,0,0,0,0,0,0,0,0,0,0,0,0,0,0,0,0,0,0,0,0,0,0,0,0,0,0,0,0,0,0,0,0,0,0,0,0,0,0,0,0,0,0,0,0,0,0,0,0,0,0,0,0,0,0,0,0,0,0,0,0,0,0,0,0,0,0,0,0,0,0,0,0,0,0,0,0,0,0,0,0,0,0,0,0,0,0,0,0,0,0,0,0,0,0,0,0,0,0,0,0,0,0,0,0,0,0,0,0,0,0,0,0,0,0,0,0,0,0,0,0,0,0,0,0,0,0,0,0,0,0,0,0,0,0,0,0,0,0,0,0,0],"id":7,"left_children":[1,3,5,7,9,11,13,15,17,19,21,23,25,27,29,-1,-1,31,-1,33,35,37,39,41,43,45,47,49,51,53,55,-1,-1,57,59,61,-1,63,65,67,69,71,73,75,77,79,81,83,85,87,89,91,93,95,97,99,101,103,-1,-1,-1,-1,-1,105,107,109,111,113,115,117,119,121,123,125,127,-1,-1,-1,-1,129,131,133,-1,-1,-1,-1,135,-1,-1,137,-1,139,141,-1,143,145,147,-1,149,151,153,-1,-1,-1,-1,-1,-1,-1,-1,-1,-1,-1,-1,-1,-1,-1,-1,-1,-1,-1,-1,-1,-1,-1,-1,-1,-1,-1,-1,-1,-1,-1,-1,-1,-1,-1,-1,-1,-1,-1,-1,-1,-1,-1,-1,-1,-1,-1,-1,-1,-1,-1,-1,-1,-1],"loss_changes":[5.0129787E1,2.9779879E1,1.5509678E1,7.597357E0,1.72215E1,1.9324635E1,2.0358515E1,3.671439E0,1.8570786E0,1.4445231E1,2.0350777E1,1.7801655E1,1.5878075E1,2.1246368E1,2.0733938E1,0E0,0E0,2.124939E-1,0E0,9.78358E0,4.192789E0,2.0328623E1,2.1790916E1,9.320156E0,1.1349668E1,5.6810684E0,2.1661434E1,6.7380266E0,7.7370872E0,1.748912E1,1.5659338E1,0E0,0E0,8.590403E0,2.3321724E-1,1.1793661E0,0E0,1.5603092E1,1.5003154E1,1.2109711E1,1.4695378E1,6.060934E0,6.133564E0,5.4271865E0,5.5414753E0,5.028816E0,6.209636E0,5.1557884E0,9.196394E0,6.0938706E0,5.724581E0,5.511937E0,4.2515144E0,1.9628382E1,1.4619333E1,1.2152554E1,1.7766612E0,6.732313E0,0E0,0E0,0E0,0E0,0E0,9.579601E-1,1.1373941E1,1.1217892E1,1.3513555E1,1.2483896E1,1.407177E1,1.655095E1,1.1120552E1,5.733252E0,3.2454004E0,8.113522E0,8.033819E0,0E0,0E0,0E0,0E0,2.7735329E0,1.3383255E0,6.9462748E0,0E0,0E0,0E0,0E0,3.1266994E0,0E0,0E0,3.834345E0,0E0,4.523435E0,2.6278152E0,0E0,2.6137314E0,1.732331E1,1.0352169E1,0E0,1.1897663E1,2.5988274E0,4.7692165E0,0E0,0E0,0E0,0E0,0E0,0E0,0E0,0E0,0E0,0E0,0E0,0E0,0E0,0E0,0E0,0E0,0E0,0E0,0E0,0E0,0E0,0E0,0E0,0E0,0E0,0E0,0E0,0E0,0E0,0E0,0E0,0E0,0E0,0E0,0E0,0E0,0E0,0E0,0E0,0E0,0E0,0E0,0E0,0E0,0E0,0E0,0E0,0E0,0E0,0E0,0E0,0E0,0E0,0E0],"parents":[2147483647,0,0,1,1,2,2,3,3,4,4,5,5,6,6,7,7,8,8,9,9,10,10,11,11,12,12,13,13,14,14,17,17,19,19,20,20,21,21,22,22,23,23,24,24,25,25,26,26,27,27,28,28,29,29,30,30,33,33,34,34,35,35,37,37,38,38,39,39,40,40,41,41,42,42,43,43,44,44,45,45,46,46,47,47,48,48,49,49,50,50,51,51,52,52,53,53,54,54,55,55,56,56,57,57,63,63,64,64,65,65,66,66,67,67,68,68,69,69,70,70,71,71,72,72,73,73,74,74,79,79,80,80,81,81,86,86,89,89,91,91,92,92,94,94,95,95,96,96,98,98,99,99,100,100],"right_children":[2,4,6,8,10,12,14,16,18,20,22,24,26,28,30,-1,-1,32,-1,34,36,38,40,42,44,46,48,50,52,54,56,-1,-1,58,60,62,-1,64,66,68,70,72,74,76,78,80,82,84,86,88,90,92,94,96,98,100,102,104,-1,-1,-1,-1,-1,106,108,110,112,114,116,118,120,122,124,126,128,-1,-1,-1,-1,130,132,134,-1,-1,-1,-1,136,-1,-1,138,-1,140,142,-1,144,146,148,-1,150,152,154,-1,-1,-1,-1,-1,-1,-1,-1,-1,-1,-1,-1,-1,-1,-1,-1,-1,-1,-1,-1,-1,-1,-1,-1,-1,-1,-1,-1,-1,-1,-1,-1,-1,-1,-1,-1,-1,-1,-1,-1,-1,-1,-1,-1,-1,-1,-1,-1,-1,-1,-1,-1,-1,-1],"split_conditions":[5.5775577E-1,-5.108256E-1,1E0,4.6E1,-6.375326E-2,9.574611E-1,9.3775254E-1,6E0,1.3671988E0,1E0,8.2466936E-1,8.5391974E-1,1.393462E0,1E0,1E0,3.4208063E-2,-1.707386E-2,4.375E-1,2.2580193E-2,5.3387716E-2,3.6598925E-2,3E0,7E0,-7.660064E-3,1.2254006E-2,1E0,1.4833316E0,6.573726E-3,1.12E2,1E0,1.66E2,3.8770538E-2,6.847324E-2,1E0,2.9E1,1E0,-2.3467352E-3,4.225352E-1,-3.7884522E-2,4E0,1.76635E-1,1.2610023E-2,6.363636E-1,2.1E1,7.4860334E-1,9.2E1,4.2107873E-2,-1.4179897E-1,6.451613E-1,5.516012E-3,1E0,1.5E1,7.3621863E-1,1.3194352E0,6.573726E-3,1.652124E-2,2.5E1,5.807254E-3,5.9605937E-2,5.5890527E-2,2.8682334E-2,-2.8942226E-2,-6.863256E-2,1.2610023E-2,5.538066E-1,1.6152704E-1,4E0,1.1E1,6.25E2,1.492908E-1,8E0,5.8843255E-1,5E0,6.6319895E-1,1E1,4.0423535E-2,-2.201059E-2,-6.786611E-2,-6.976273E-3,1.0985984E-2,2E0,1.7248312E-2,-2.1824861E-2,-7.753568E-2,-1.668098E-2,-1.1404485E-2,1E0,-1.5907133E-3,5.815014E-2,1E0,-3.4920435E-2,1.6E1,7.591585E-1,2.785576E-2,1.1322983E-2,1.6006134E-2,7E0,4.4702157E-2,4.5103777E-2,7.891519E-2,1.5E1,-4.1073617E-2,-1.4679427E-3,1.2361369E-2,-4.77769E-3,-4.2992935E-2,-7.9025425E-2,-6.600644E-2,8.842445E-3,-3.3091556E-2,3.522254E-2,3.2880493E-2,5.3090802E-3,-5.227929E-3,-3.8492803E-2,-2.8395057E-2,4.8151948E-2,-2.2621003E-3,4.7311142E-2,-3.7908E-2,1.8241253E-2,5.3632002E-2,-5.46838E-3,1.8165049E-3,-4.1518506E-2,4.038155E-2,-3.7802383E-2,6.0714304E-2,-1.4836985E-3,5.662751E-2,3.1827573E-2,3.717832E-2,7.617035E-2,9.048085E-3,5.9440162E-2,2.0252531E-2,7.255335E-2,2.2643477E-2,-2.1221454E-3,2.5823245E-2,-3.3804797E-2,4.977815E-2,1.7749256E-2,3.5951998E-2,8.789613E-2,-3.3697225E-2,1.2257073E-2,5.6562454E-2,7.6609995E-4,-4.2665504E-2,2.6279781E-2,8.097578E-2,3.480918E-2,3.5406794E-2,-2.0751787E-2],"split_indices":[4,7,25,3,5,9,9,3,9,20,9,9,9,11,21,0,0,4,0,8,7,13,13,1,7,12,9,8,3,11,3,0,0,18,16,11,0,4,5,13,7,8,4,2,4,3,1,7,4,8,15,2,9,9,8,8,2,1,0,0,0,0,0,8,9,7,13,10,2,7,10,9,13,9,13,0,0,0,0,8,16,8,0,0,0,0,11,0,0,16,0,3,9,0,8,8,16,0,5,7,2,0,0,0,0,0,0,0,0,0,0,0,0,0,0,0,0,0,0,0,0,0,0,0,0,0,0,0,0,0,0,0,0,0,0,0,0,0,0,0,0,0,0,0,0,0,0,0,0,0,0,0,0,0,0],"split_type":[0,0,0,0,0,0,0,0,0,0,0,0,0,0,0,0,0,0,0,0,0,0,0,0,0,0,0,0,0,0,0,0,0,0,0,0,0,0,0,0,0,0,0,0,0,0,0,0,0,0,0,0,0,0,0,0,0,0,0,0,0,0,0,0,0,0,0,0,0,0,0,0,0,0,0,0,0,0,0,0,0,0,0,0,0,0,0,0,0,0,0,0,0,0,0,0,0,0,0,0,0,0,0,0,0,0,0,0,0,0,0,0,0,0,0,0,0,0,0,0,0,0,0,0,0,0,0,0,0,0,0,0,0,0,0,0,0,0,0,0,0,0,0,0,0,0,0,0,0,0,0,0,0,0,0],"sum_hessian":[2.1367507E3,1.4641144E3,6.726364E2,3.702853E1,1.4270858E3,2.6307126E2,4.0956512E2,1.2220486E1,2.4808044E1,2.668157E2,1.1602701E3,1.0133115E2,1.6174013E2,1.7721295E2,2.3235217E2,5.243471E0,6.9770145E0,1.9346878E1,5.461166E0,2.485562E2,1.8259506E1,3.02323E2,8.579471E2,7.088807E1,3.0443075E1,1.2540686E2,3.633326E1,1.10798874E2,6.641408E1,1.8856514E2,4.3787025E1,5.999455E0,1.3347424E1,2.3488817E2,1.3668037E1,1.1991729E1,6.267777E0,4.8725582E1,2.5359743E2,4.766214E2,3.8132568E2,3.1966661E1,3.892141E1,1.2016867E1,1.8426208E1,9.185214E1,3.3554718E1,1.4633086E1,2.1700174E1,1.6458504E1,9.434037E1,3.9611565E1,2.6802517E1,1.1372422E2,7.484092E1,3.302676E1,1.0760265E1,2.2860095E2,6.2872157E0,8.515906E0,5.152131E0,6.000774E0,5.9909544E0,1.7216915E1,3.1508669E1,3.752535E1,2.1607208E2,2.091015E2,2.675199E2,3.2627267E2,5.505301E1,1.54988785E1,1.6467783E1,1.1282132E1,2.7639278E1,6.0114403E0,6.0054264E0,1.2988961E1,5.4372463E0,6.908901E1,2.2763126E1,2.7548578E1,6.006138E0,5.4347725E0,9.198314E0,7.2364907E0,1.4463684E1,7.243821E0,9.214682E0,8.458874E1,9.751635E0,1.0752388E1,2.8859177E1,8.783289E0,1.8019228E1,8.064986E1,3.3074364E1,5.2281485E0,6.961277E1,1.9766747E1,1.3260015E1,5.7506576E0,5.009608E0,1.2244054E2,1.0616041E2,9.0013075E0,8.215608E0,5.2437096E0,2.626496E1,3.0991322E1,6.534027E0,6.1701923E1,1.5437015E2,1.7642339E2,3.267812E1,2.6224875E2,5.2711296E0,3.0947E2,1.6802675E1,4.477246E1,1.0280549E1,6.0249605E0,9.473918E0,7.461757E0,9.006025E0,5.7801566E0,5.501976E0,2.0895483E1,6.743795E0,1.7511383E1,5.1577633E1,6.1555467E0,1.660758E1,1.6027517E1,1.1521062E1,5.42004E0,9.043644E0,1.9510603E1,6.507813E1,5.2544084E0,5.49798E0,1.5816342E1,1.3042833E1,5.5008645E0,1.2518364E1,4.2952854E1,3.7697006E1,1.8578794E1,1.4495569E1,6.334669E1,6.266082E0,1.275817E1,7.0085754E0,6.000963E0,7.259051E0],"tree_param":{"num_deleted":"0","num_feature":"27","num_nodes":"155","size_leaf_vector":"1"}},{"base_weights":[8.260414E-3,-2.3699743E-1,1.08712375E-1,-1.8035452E-1,-6.916026E-1,6.5157413E-1,6.97647E-2,-3.5586143E-1,-1.8399412E-2,-7.806481E-1,7.965845E-3,1.0707942E0,4.448636E-1,1.8772148E-2,4.7640768E-1,-1.6422425E-1,-6.3644075E-1,4.83822E-2,-6.253746E-1,-1.1249012E0,-5.0786203E-1,1.3447325E0,-1.1870171E-2,5.854812E-1,-1.6968466E-2,4.5834386E-1,-3.17005E-2,2.470753E-2,8.861372E-1,-2.5419334E-1,5.8447987E-1,-8.35929E-1,-2.8596428E-1,-1.8311404E-1,1.9651216E-1,-1.1976196E0,-1.5355761E-1,-1.3428134E0,-1.6397258E-2,-2.2665702E-1,-5.7731032E-2,3.2574043E-2,7.3790066E-2,-1.3724141E-2,7.2460663E-1,-9.1077276E-2,5.6641436E-1,2.2247035E-2,-3.430346E-1,-1.8892281E-1,2.5217712E-1,9.9043417E-1,-1.919484E-2,-1.2083076E0,-1.341912E-1,-1.0927989E-2,1.031756E0,-1.1343073E0,-5.4535794E-1,-4.890367E-1,3.717425E-2,-2.654856E-1,4.8168045E-2,5.8617856E-2,1.2598377E-1,-7.251188E-2,-3.9200664E-2,-3.7182447E-2,2.3532663E-2,-7.7425934E-2,-4.7060963E-2,3.937044E-2,-5.48197E-2,7.506289E-2,5.848892E-1,-5.5297412E-2,3.1019807E-1,6.269942E-1,-1.6364569E-2,1.2492441E-2,7.467403E-2,-5.9438884E-1,1.1048628E-1,-4.2030016E-1,2.86815E-1,4.380769E-2,4.6485895E-3,2.8124934E-1,1.1239196E0,-2.3596792E-2,-7.646797E-2,6.582681E-5,-3.6592048E-2,6.4652786E-2,3.0705601E-2,-2.9669335E-2,-6.266176E-2,-1.49814775E-2,-6.875523E-2,-4.1647937E-2,1.1880308E-2,-2.7611678E-2,5.407014E-3,9.8305E-3,-4.001699E-2,3.1375464E-2,-1.3135892E-2,2.1620112E-2,6.737151E-2,3.289983E-2,-1.6328283E-2,2.1279631E-2,5.2523475E-2,-3.8563614E-3,7.060855E-3,-6.3842977E-3,-4.628743E-2,-3.1900715E-2,1.8464262E-2,-5.8115672E-2,-7.017571E-3,3.6529962E-2,-1.7310299E-2,-2.9779086E-2,1.6440028E-2,4.4311572E-2,-2.5480634E-2,4.0629316E-2,6.452179E-2],"categories":[],"categories_nodes":[],"categories_segments":[],"categories_sizes":[],"default_left":[0,0,0,0,0,0,0,0,0,0,0,0,0,0,0,0,0,0,0,0,0,0,0,0,0,0,0,0,0,0,0,0,0,0,0,0,0,0,0,0,0,0,0,0,0,0,0,0,0,0,0,0,0,0,0,0,0,0,0,0,0,0,0,0,0,0,0,0,0,0,0,0,0,0,0,0,0,0,0,0,0,0,0,0,0,0,0,0,0,0,0,0,0,0,0,0,0,0,0,0,0,0,0,0,0,0,0,0,0,0,0,0,0,0,0,0,0,0,0,0,0,0,0,0,0,0,0,0,0],"id":8,"left_children":[1,3,5,7,9,11,13,15,17,19,-1,21,23,25,27,29,31,33,35,37,39,41,-1,43,-1,45,47,49,51,53,55,57,59,61,63,65,67,69,-1,71,-1,-1,-1,-1,73,75,77,79,81,83,85,87,-1,89,91,-1,93,95,97,99,-1,101,-1,-1,103,-1,-1,-1,-1,-1,-1,105,-1,-1,107,-1,109,111,-1,113,-1,115,117,119,121,-1,123,125,127,-1,-1,-1,-1,-1,-1,-1,-1,-1,-1,-1,-1,-1,-1,-1,-1,-1,-1,-1,-1,-1,-1,-1,-1,-1,-1,-1,-1,-1,-1,-1,-1,-1,-1,-1,-1,-1,-1,-1,-1],"loss_changes":[5.216635E1,1.5718475E1,3.1714123E1,1.5582781E1,5.262726E0,8.227097E0,2.9076756E1,1.4045399E1,1.1635076E1,5.2096405E0,0E0,1.1950909E1,7.805352E0,2.7690409E1,2.8896885E1,1.0771975E1,7.203415E0,8.9121475E0,7.4970903E0,4.143009E0,6.3162403E0,1.4907494E0,0E0,7.2407265E0,0E0,7.6840954E0,1.8816862E1,3.7092016E0,1.12294235E1,1.6037724E1,6.4111433E0,5.217758E0,8.7533E0,9.842859E0,1.0749027E1,1.9088745E-1,6.515903E0,2.2790527E-1,0E0,6.1634965E0,0E0,0E0,0E0,0E0,4.649069E0,9.298381E0,6.028282E0,1.3692987E1,1.892647E1,4.4606304E0,5.698447E0,6.875534E0,0E0,2.9857826E0,1.0270525E1,0E0,4.3207073E-1,1.3333359E0,6.9343233E0,8.725547E0,0E0,1.0290986E1,0E0,0E0,9.890587E0,0E0,0E0,0E0,0E0,0E0,0E0,3.935303E0,0E0,0E0,4.627535E0,0E0,3.8779225E0,8.173046E0,0E0,1.09720125E1,0E0,1.636876E1,1.1827877E1,5.4314485E0,4.0442653E0,0E0,5.534687E0,6.8475475E0,2.2486115E0,0E0,0E0,0E0,0E0,0E0,0E0,0E0,0E0,0E0,0E0,0E0,0E0,0E0,0E0,0E0,0E0,0E0,0E0,0E0,0E0,0E0,0E0,0E0,0E0,0E0,0E0,0E0,0E0,0E0,0E0,0E0,0E0,0E0,0E0,0E0,0E0,0E0,0E0,0E0,0E0],"parents":[2147483647,0,0,1,1,2,2,3,3,4,4,5,5,6,6,7,7,8,8,9,9,11,11,12,12,13,13,14,14,15,15,16,16,17,17,18,18,19,19,20,20,21,21,23,23,25,25,26,26,27,27,28,28,29,29,30,30,31,31,32,32,33,33,34,34,35,35,36,36,37,37,39,39,44,44,45,45,46,46,47,47,48,48,49,49,50,50,51,51,53,53,54,54,56,56,57,57,58,58,59,59,61,61,64,64,71,71,74,74,76,76,77,77,79,79,81,81,82,82,83,83,84,84,86,86,87,87,88,88],"right_children":[2,4,6,8,10,12,14,16,18,20,-1,22,24,26,28,30,32,34,36,38,40,42,-1,44,-1,46,48,50,52,54,56,58,60,62,64,66,68,70,-1,72,-1,-1,-1,-1,74,76,78,80,82,84,86,88,-1,90,92,-1,94,96,98,100,-1,102,-1,-1,104,-1,-1,-1,-1,-1,-1,106,-1,-1,108,-1,110,112,-1,114,-1,116,118,120,122,-1,124,126,128,-1,-1,-1,-1,-1,-1,-1,-1,-1,-1,-1,-1,-1,-1,-1,-1,-1,-1,-1,-1,-1,-1,-1,-1,-1,-1,-1,-1,-1,-1,-1,-1,-1,-1,-1,-1,-1,-1,-1,-1],"split_conditions":[4.516129E-1,1.6961709E-1,-2.8077182E-1,6E0,8.3E1,4E0,7.3333335E-1,1.1155161E0,9.621512E-2,5.8E1,7.965845E-3,3.8E1,6.938776E-1,7.1327956E-3,6E0,4.0137317E-2,9.194274E-3,-3.7545875E-2,3.7704918E-1,1.12424724E-1,1.15E2,4.8351648E-1,-1.1870171E-2,2.2439683E-2,-1.6968466E-2,4.727245E-1,3.0130496E-2,-1.3159809E-3,3.792917E-2,-8.864726E-2,1.6E1,-4.8677612E-2,4.5E1,1.38E2,-7.6492585E-2,3.1034482E-1,8.931751E-2,2.1E1,-1.6397258E-2,1.8E2,-5.7731032E-2,3.2574043E-2,7.3790066E-2,-1.3724141E-2,4.7619048E-1,-1.976994E-2,7.427318E-2,1.34E2,9.8E1,1.7E1,4.215395E-3,-8.963465E-2,-1.919484E-2,-2.09776E-1,1.9710062E-2,-1.0927989E-2,-8.140755E-3,1.2E1,7.891519E-2,7.4754804E-2,3.717425E-2,1E0,4.8168045E-2,5.8617856E-2,2.2296969E-2,-7.251188E-2,-3.9200664E-2,-3.7182447E-2,2.3532663E-2,-7.7425934E-2,-4.7060963E-2,1.12782195E-2,-5.48197E-2,7.506289E-2,3.2133885E-2,-5.5297412E-2,3.3195797E-1,5.9E1,-1.6364569E-2,7.159727E-2,7.467403E-2,3.4E1,-8.6532205E-2,-7.9435945E-2,2E0,4.380769E-2,3.840192E-2,6.1987424E-3,2.8E1,-2.3596792E-2,-7.646797E-2,6.582681E-5,-3.6592048E-2,6.4652786E-2,3.0705601E-2,-2.9669335E-2,-6.266176E-2,-1.49814775E-2,-6.875523E-2,-4.1647937E-2,1.1880308E-2,-2.7611678E-2,5.407014E-3,9.8305E-3,-4.001699E-2,3.1375464E-2,-1.3135892E-2,2.1620112E-2,6.737151E-2,3.289983E-2,-1.6328283E-2,2.1279631E-2,5.2523475E-2,-3.8563614E-3,7.060855E-3,-6.3842977E-3,-4.628743E-2,-3.1900715E-2,1.8464262E-2,-5.8115672E-2,-7.017571E-3,3.6529962E-2,-1.7310299E-2,-2.9779086E-2,1.6440028E-2,4.4311572E-2,-2.5480634E-2,4.0629316E-2,6.452179E-2],"split_indices":[4,7,7,13,3,13,4,9,1,14,0,2,4,8,3,8,6,7,4,6,14,4,0,8,0,9,5,1,8,6,3,1,16,3,6,4,7,16,0,2,0,0,0,0,4,5,6,14,14,16,6,7,0,7,8,0,1,14,7,7,0,26,0,0,8,0,0,0,0,0,0,1,0,0,5,0,9,3,0,7,0,14,7,7,11,0,6,1,3,0,0,0,0,0,0,0,0,0,0,0,0,0,0,0,0,0,0,0,0,0,0,0,0,0,0,0,0,0,0,0,0,0,0,0,0,0,0,0,0],"split_type":[0,0,0,0,0,0,0,0,0,0,0,0,0,0,0,0,0,0,0,0,0,0,0,0,0,0,0,0,0,0,0,0,0,0,0,0,0,0,0,0,0,0,0,0,0,0,0,0,0,0,0,0,0,0,0,0,0,0,0,0,0,0,0,0,0,0,0,0,0,0,0,0,0,0,0,0,0,0,0,0,0,0,0,0,0,0,0,0,0,0,0,0,0,0,0,0,0,0,0,0,0,0,0,0,0,0,0,0,0,0,0,0,0,0,0,0,0,0,0,0,0,0,0,0,0,0,0,0,0],"sum_hessian":[2.1153845E3,6.142666E2,1.501118E3,5.474519E2,6.68147E1,9.943535E1,1.4016827E3,2.6215906E2,2.8529285E2,6.0559914E1,6.2547803E0,3.145756E1,6.797778E1,1.2464282E3,1.5525447E2,1.5671036E2,1.054487E2,2.5784418E2,2.7448662E1,2.539188E1,3.5168034E1,2.598776E1,5.4697986E0,5.78571E1,1.0120686E1,1.275449E2,1.1188833E3,7.43494E1,8.0905075E1,1.4048882E2,1.6221544E1,6.631669E1,3.9132015E1,1.00518524E2,1.5732567E2,1.1709022E1,1.573964E1,1.9401884E1,5.989997E0,2.5452124E1,9.71591E0,5.0814376E0,2.0906322E1,7.92125E0,4.9935852E1,2.0990126E1,1.0655477E2,9.544296E2,1.6445369E2,3.8428425E1,3.592098E1,7.49687E1,5.936382E0,1.4682441E1,1.2580637E2,5.985869E0,1.0235676E1,3.1286177E1,3.5030514E1,3.3123016E1,6.008998E0,9.449753E1,6.020997E0,9.551177E0,1.4777449E2,5.7132306E0,5.995791E0,7.9925876E0,7.747052E0,1.0941487E1,8.460397E0,2.022164E1,5.230484E0,6.127849E0,4.3808002E1,5.450106E0,1.554002E1,1.0006997E2,6.484807E0,9.491451E2,5.284544E0,1.05610634E2,5.8843056E1,2.5932539E1,1.2495884E1,9.481116E0,2.6439861E1,1.236778E1,6.2600914E1,5.2077627E0,9.474678E0,1.03367256E2,2.2439114E1,5.006979E0,5.228697E0,6.7183833E0,2.4567793E1,2.8076735E1,6.953779E0,2.2382845E1,1.0740171E1,5.3194286E1,4.1303246E1,1.3803775E2,9.736736E0,6.4964323E0,1.3725208E1,3.7813423E1,5.9945774E0,1.0028913E1,5.511108E0,6.917559E1,3.0894377E1,5.598038E2,3.8934134E2,4.4425274E1,6.118536E1,1.4741699E1,4.4101357E1,6.2403655E0,1.9692175E1,7.255331E0,5.2405524E0,8.977999E0,1.7461863E1,6.939054E0,5.4287257E0,2.3863516E1,3.8737396E1],"tree_param":{"num_deleted":"0","num_feature":"27","num_nodes":"129","size_leaf_vector":"1"}},{"base_weights":[8.684469E-3,-2.2319117E-1,9.3756735E-2,-1.670888E-1,-7.0451105E-1,5.361682E-1,3.8856026E-2,-2.2179726E-1,4.1436312E-1,-8.940117E-1,-1.6951613E-1,2.636718E-1,9.688116E-1,-3.832154E-2,3.2844454E-1,-4.6692146E-3,-3.61864E-1,1.03653006E-1,9.915176E-1,-2.2014296E-1,-1.107394E0,2.2055915E-2,-2.5422363E-2,9.834899E-2,7.820336E-1,1.1118579E0,1.9339857E-1,-1.4003712E-1,1.5360266E-1,-3.688168E-1,4.3338236E-1,1.51952E-1,-3.3220255E-1,-3.944896E-1,4.6461836E-2,6.1935717E-1,-3.4949452E-1,6.43205E-2,1.6058331E-2,9.020991E-3,-3.0047933E-2,-4.8273557E-1,-7.32876E-2,-3.7237537E-1,3.0279753E-1,4.9023667E-1,7.994594E-2,8.253369E-1,1.4024593E0,-1.9236615E-2,3.6988452E-2,1.0238382E0,-1.7164147E-1,-7.551763E-1,1.8820609E-1,2.1491069E-1,-8.5308564E-1,3.0851004E-1,8.9702094E-1,2.2245142E-1,-3.186526E-2,-1.596182E-1,-1.0262909E0,-2.8600562E-1,-7.2687715E-1,1.7877779E-3,5.880452E-2,5.987141E-3,-4.171972E-2,-5.7090845E-2,1.2004601E-2,-8.4966576E-1,3.4045238E-2,6.6947013E-1,-2.2029023E-1,-1.0702444E-2,9.235152E-1,5.990578E-2,4.5346186E-1,7.955879E-2,3.787711E-2,1.9972403E-2,6.318724E-2,-9.468851E-2,-6.4898384E-1,4.5565553E-3,-6.375181E-2,-2.9338884E-1,2.512024E-1,-3.5932083E-2,6.4687234E-1,-8.183089E-3,-1.1475319E0,5.8784896E-1,1.2183665E-1,-7.908102E-3,1.1091803E0,1.3895683E-2,-2.791365E-2,2.860727E-3,-3.828617E-2,-6.241789E-2,-3.274261E-2,-1.9235453E-3,-2.129299E-2,-1.9291146E-2,-5.5278916E-2,-5.799677E-3,-7.02944E-2,6.1457366E-2,1.2598984E-2,2.3992509E-2,-3.1135753E-2,2.1061862E-2,7.060958E-2,3.991222E-2,1.6506032E-5,2.1066216E-3,-1.5278095E-2,-5.1522505E-2,-4.98184E-3,-6.180436E-2,-1.5356498E-3,3.4587428E-2,6.854595E-3,5.5054645E-3,5.6357633E-2,-7.467034E-2,-2.5660692E-2,3.444963E-2,-1.1860709E-2,1.3441644E-2,-2.465473E-2,6.481896E-2,8.739798E-3],"categories":[],"categories_nodes":[],"categories_segments":[],"categories_sizes":[],"default_left":[0,0,0,0,0,0,0,0,0,0,0,0,0,0,0,0,0,0,0,0,0,0,0,0,0,0,0,0,0,0,0,0,0,0,0,0,0,0,0,0,0,0,0,0,0,0,0,0,0,0,0,0,0,0,0,0,0,0,0,0,0,0,0,0,0,0,0,0,0,0,0,0,0,0,0,0,0,0,0,0,0,0,0,0,0,0,0,0,0,0,0,0,0,0,0,0,0,0,0,0,0,0,0,0,0,0,0,0,0,0,0,0,0,0,0,0,0,0,0,0,0,0,0,0,0,0,0,0,0,0,0,0,0,0,0],"id":9,"left_children":[1,3,5,7,9,11,13,15,17,19,21,23,25,27,29,31,33,35,37,39,41,-1,-1,43,45,47,49,51,53,55,57,59,61,63,-1,65,67,-1,-1,-1,-1,69,-1,71,73,75,-1,77,79,-1,-1,81,83,85,87,89,91,93,95,97,-1,99,101,103,105,-1,-1,-1,-1,-1,-1,107,-1,109,111,-1,113,-1,115,-1,-1,-1,-1,117,119,-1,-1,121,123,-1,125,-1,127,129,131,-1,133,-1,-1,-1,-1,-1,-1,-1,-1,-1,-1,-1,-1,-1,-1,-1,-1,-1,-1,-1,-1,-1,-1,-1,-1,-1,-1,-1,-1,-1,-1,-1,-1,-1,-1,-1,-1,-1,-1],"loss_changes":[4.161477E1,1.5173006E1,3.7464012E1,1.626602E1,5.8098545E0,1.9821232E1,3.0721325E1,1.415164E1,7.80104E0,5.966179E0,3.6628146E0,8.994921E0,7.043049E0,2.1217676E1,2.132278E1,9.463912E0,1.22822E1,7.172807E0,2.612813E0,1.8831701E0,6.579399E0,0E0,0E0,7.947101E0,5.2835207E0,3.4247665E0,3.8861575E0,2.6299042E1,1.1984548E1,1.10314E1,1.4304722E1,7.0873947E0,6.9846826E0,9.766228E0,0E0,4.5987797E0,3.8505635E0,0E0,0E0,0E0,0E0,6.637988E0,0E0,1.3196181E1,1.1138975E1,6.360826E0,0E0,3.6351051E0,1.9458504E0,0E0,0E0,2.329115E0,2.536771E1,6.2812424E0,1.11040125E1,7.8040576E0,4.1108723E0,1.0354376E1,1.2021542E1,5.1491194E0,0E0,6.4804716E0,1.4752102E-1,7.260212E0,8.280636E0,0E0,0E0,0E0,0E0,0E0,0E0,7.066902E0,0E0,7.620208E0,7.1647506E0,0E0,2.5205164E0,0E0,2.6084847E0,0E0,0E0,0E0,0E0,1.7247108E1,2.0001736E1,0E0,0E0,1.0490512E1,1.6095142E1,0E0,3.2191916E0,0E0,2.4525642E0,6.825281E0,1.108013E1,0E0,7.501568E0,0E0,0E0,0E0,0E0,0E0,0E0,0E0,0E0,0E0,0E0,0E0,0E0,0E0,0E0,0E0,0E0,0E0,0E0,0E0,0E0,0E0,0E0,0E0,0E0,0E0,0E0,0E0,0E0,0E0,0E0,0E0,0E0,0E0,0E0,0E0,0E0,0E0,0E0],"parents":[2147483647,0,0,1,1,2,2,3,3,4,4,5,5,6,6,7,7,8,8,9,9,10,10,11,11,12,12,13,13,14,14,15,15,16,16,17,17,18,18,19,19,20,20,23,23,24,24,25,25,26,26,27,27,28,28,29,29,30,30,31,31,32,32,33,33,35,35,36,36,41,41,43,43,44,44,45,45,47,47,48,48,51,51,52,52,53,53,54,54,55,55,56,56,57,57,58,58,59,59,61,61,62,62,63,63,64,64,71,71,73,73,74,74,76,76,78,78,83,83,84,84,87,87,88,88,90,90,92,92,93,93,94,94,96,96],"right_children":[2,4,6,8,10,12,14,16,18,20,22,24,26,28,30,32,34,36,38,40,42,-1,-1,44,46,48,50,52,54,56,58,60,62,64,-1,66,68,-1,-1,-1,-1,70,-1,72,74,76,-1,78,80,-1,-1,82,84,86,88,90,92,94,96,98,-1,100,102,104,106,-1,-1,-1,-1,-1,-1,108,-1,110,112,-1,114,-1,116,-1,-1,-1,-1,118,120,-1,-1,122,124,-1,126,-1,128,130,132,-1,134,-1,-1,-1,-1,-1,-1,-1,-1,-1,-1,-1,-1,-1,-1,-1,-1,-1,-1,-1,-1,-1,-1,-1,-1,-1,-1,-1,-1,-1,-1,-1,-1,-1,-1,-1,-1,-1,-1],"split_conditions":[4.4210526E-1,1.4232641E0,-1.9805427E-1,1E0,3.7060764E-2,1.33E2,6.666667E-1,2.8E1,1.161385E0,-3.0293072E-2,3.0832145E-2,1E0,1.373571E0,1.02E2,2.6E1,1.2791936E-2,1.63E2,5.9636467E-4,4.0408164E-1,3.4E1,-6.098244E-2,2.2055915E-2,-2.5422363E-2,-1.379416E-1,8E1,1E0,1.7825696E-3,5.516012E-3,-1.3746087E-1,1E0,9.5E1,1.48E2,1.1787006E0,1.16E2,4.6461836E-2,-3.503003E-2,3.529412E-1,6.43205E-2,1.6058331E-2,9.020991E-3,-3.0047933E-2,-1.1571062E-1,-7.32876E-2,1.2602246E0,1.1346364E0,2.3713216E-2,7.994594E-2,-3.5681883E-1,1.85E2,-1.9236615E-2,3.6988452E-2,-1.6024796E-2,2.5599591E-2,-2.1127953E-1,5.364134E-1,-3.3649273E-2,8.0858463E-1,1.03383055E-2,7.757577E-1,1E0,-3.186526E-2,1.17E2,2.6796719E-2,1.0985984E-2,2.1236413E-3,1.7877779E-3,5.880452E-2,5.987141E-3,-4.171972E-2,-5.7090845E-2,1.2004601E-2,5.141509E-1,3.4045238E-2,6.6E1,2.9E1,-1.0702444E-2,2.3379222E-2,5.990578E-2,5.464684E-1,7.955879E-2,3.787711E-2,1.9972403E-2,6.318724E-2,1.6156945E-2,4.5103777E-2,4.5565553E-3,-6.375181E-2,1.25E2,8.5391974E-1,-3.5932083E-2,2.621475E-3,-8.183089E-3,1.6006134E-2,1.0633163E-1,8.75E-1,-7.908102E-3,2.351557E-2,1.3895683E-2,-2.791365E-2,2.860727E-3,-3.828617E-2,-6.241789E-2,-3.274261E-2,-1.9235453E-3,-2.129299E-2,-1.9291146E-2,-5.5278916E-2,-5.799677E-3,-7.02944E-2,6.1457366E-2,1.2598984E-2,2.3992509E-2,-3.1135753E-2,2.1061862E-2,7.060958E-2,3.991222E-2,1.6506032E-5,2.1066216E-3,-1.5278095E-2,-5.1522505E-2,-4.98184E-3,-6.180436E-2,-1.5356498E-3,3.4587428E-2,6.854595E-3,5.5054645E-3,5.6357633E-2,-7.467034E-2,-2.5660692E-2,3.444963E-2,-1.1860709E-2,1.3441644E-2,-2.465473E-2,6.481896E-2,8.739798E-3],"split_indices":[4,9,7,15,6,3,4,2,9,5,7,12,9,14,14,1,3,6,4,3,6,0,0,6,3,11,6,8,1,25,3,3,9,14,0,1,4,0,0,0,0,6,0,9,9,8,0,7,3,0,0,1,5,1,9,7,9,8,9,23,0,14,6,8,1,0,0,0,0,0,0,4,0,14,14,0,6,0,4,0,0,0,0,8,5,0,0,14,9,0,1,0,8,5,4,0,8,0,0,0,0,0,0,0,0,0,0,0,0,0,0,0,0,0,0,0,0,0,0,0,0,0,0,0,0,0,0,0,0,0,0,0,0,0,0],"split_type":[0,0,0,0,0,0,0,0,0,0,0,0,0,0,0,0,0,0,0,0,0,0,0,0,0,0,0,0,0,0,0,0,0,0,0,0,0,0,0,0,0,0,0,0,0,0,0,0,0,0,0,0,0,0,0,0,0,0,0,0,0,0,0,0,0,0,0,0,0,0,0,0,0,0,0,0,0,0,0,0,0,0,0,0,0,0,0,0,0,0,0,0,0,0,0,0,0,0,0,0,0,0,0,0,0,0,0,0,0,0,0,0,0,0,0,0,0,0,0,0,0,0,0,0,0,0,0,0,0,0,0,0,0,0,0],"sum_hessian":[2.1075598E3,5.6525616E2,1.5423036E3,5.0745468E2,5.7801487E1,1.6929463E2,1.3730089E3,4.6438E2,4.3074684E1,4.2187263E1,1.56142235E1,1.0485937E2,6.443527E1,1.0847756E3,2.8823337E2,1.8250247E2,2.8187753E2,2.8767399E1,1.4307285E1,1.0634578E1,3.1552689E1,5.4656143E0,1.0148609E1,8.0405205E1,2.4454159E1,5.403342E1,1.0401852E1,7.091906E2,3.75585E2,3.7375633E1,2.5085773E2,1.2382663E2,5.8675842E1,2.756075E2,6.270034E0,1.3283422E1,1.5483976E1,9.298014E0,5.0092716E0,5.4393744E0,5.195203E0,1.235814E1,1.9194548E1,2.4098717E1,5.6306488E1,1.9196991E1,5.257167E0,2.9141346E1,2.4892076E1,5.197773E0,5.2040787E0,1.7918558E1,6.9127203E2,1.3012706E1,3.625723E2,1.7199697E1,2.0175936E1,1.9894188E2,5.1915848E1,1.143322E2,9.494431E0,4.79765E1,1.0699341E1,2.0919223E2,6.641527E1,7.0047946E0,6.278628E0,8.251784E0,7.2321916E0,6.1609087E0,6.197231E0,1.6716846E1,7.3818693E0,3.2937916E1,2.3368572E1,7.5045214E0,1.169247E1,1.3443427E1,1.569792E1,1.812195E1,6.770126E0,5.7134714E0,1.2205086E1,5.963346E2,9.493747E1,5.265469E0,7.7472363E0,4.1517975E1,3.2105432E2,5.2309456E0,1.1968751E1,6.503741E0,1.36721945E1,7.883048E1,1.201114E2,8.733578E0,4.318227E1,1.07350136E2,6.9820642E0,3.600235E1,1.1974154E1,5.2185364E0,5.4808044E0,7.598237E1,1.3320985E2,3.6006767E1,3.0408503E1,7.7297006E0,8.987146E0,1.3241955E1,1.9695963E1,8.459064E0,1.4909509E1,6.6842093E0,5.0082603E0,8.482256E0,7.215664E0,3.621567E2,2.3417787E2,5.5513294E1,3.9424175E1,8.240062E0,3.3277916E1,6.500965E1,2.5604468E2,6.232522E0,5.7362294E0,7.9713197E0,5.7008753E0,7.036895E1,8.461533E0,9.739293E1,2.2718468E1,3.5652145E1,7.530126E0],"tree_param":{"num_deleted":"0","num_feature":"27","num_nodes":"135","size_leaf_vector":"1"}},{"base_weights":[1.9538149E-3,-6.0903244E-2,3.6268246E-1,4.299566E-1,-9.037815E-2,2.9086435E-1,1.0834874E0,7.977727E-2,7.365671E-1,6.098316E-2,-1.5994152E-1,2.1008006E-1,9.682442E-1,1.5932405E-2,1.2986503E0,-5.793944E-1,5.9594584E-1,1.2692327E0,4.4440174E-1,-4.6934262E-1,1.2390796E-1,-8.387828E-2,-3.0803463E-1,2.6995748E-1,-6.653964E-1,4.5728165E-1,6.1065264E-2,7.191151E-2,3.5789948E-2,-9.023081E-1,9.126335E-3,9.254703E-1,2.3251656E-1,3.892715E-2,7.104257E-2,6.6184235E-1,-3.161869E-2,-3.18275E-2,-1.1482654E0,5.289551E-1,5.3295434E-2,4.0769953E-1,-1.2269512E-1,-5.203428E-2,-4.539502E-1,2.0130901E-1,8.6482906E-1,-7.245331E-2,-1.9897608E-1,-1.6128926E-3,4.4519495E-2,-1.9935936E-2,-6.437662E-2,1.5302809E-2,6.2341638E-2,-2.5981411E-2,3.669259E-2,1.062881E0,2.9641804E-1,3.5140154E-1,-4.8864597E-1,-2.1021485E-2,-7.609116E-2,-4.6483707E-1,7.586757E-1,-2.0772906E-3,6.355938E-1,-4.084069E-2,5.479871E-1,-9.813552E-2,-7.660732E-1,-5.4168064E-2,1.2121237E-2,-5.46701E-1,3.1351906E-1,3.197651E-1,-3.172092E-2,4.5094206E-3,1.1199633E0,-3.221523E-2,1.4647886E-2,7.511563E-2,3.154544E-2,3.8802367E-2,-2.5230259E-2,4.0405255E-2,-9.37753E-3,-6.068919E-2,2.0929476E-5,-5.3122845E-2,7.6530175E-3,4.6149667E-2,-2.9336557E-2,-2.7216857E-3,3.239287E-2,6.181823E-2,1.2735761E-2,1.4023217E-2,6.1378747E-2,-2.5332982E-3,-1.978573E-2,-1.750022E-2,-5.743261E-2,-8.635499E-3,1.5059692E-2,-2.96389E-2,5.417651E-2,3.6507223E-2,-1.7011607E-2,-1.2297883E-2,2.1766042E-2,2.0182522E-2,-1.6465345E-2,2.017498E-2,7.042091E-2],"categories":[],"categories_nodes":[],"categories_segments":[],"categories_sizes":[],"default_left":[0,0,0,0,0,0,0,0,0,0,0,0,0,0,0,0,0,0,0,0,0,0,0,0,0,0,0,0,0,0,0,0,0,0,0,0,0,0,0,0,0,0,0,0,0,0,0,0,0,0,0,0,0,0,0,0,0,0,0,0,0,0,0,0,0,0,0,0,0,0,0,0,0,0,0,0,0,0,0,0,0,0,0,0,0,0,0,0,0,0,0,0,0,0,0,0,0,0,0,0,0,0,0,0,0,0,0,0,0,0,0,0,0,0,0],"id":10,"left_children":[1,3,5,7,9,11,13,15,17,19,21,23,25,-1,27,29,31,33,35,37,39,41,43,45,47,49,-1,-1,-1,51,-1,53,55,-1,-1,57,-1,59,61,63,65,67,69,71,73,75,77,-1,79,-1,-1,-1,-1,-1,-1,-1,-1,81,83,85,87,-1,-1,89,91,93,95,-1,97,99,101,-1,103,105,107,109,111,-1,113,-1,-1,-1,-1,-1,-1,-1,-1,-1,-1,-1,-1,-1,-1,-1,-1,-1,-1,-1,-1,-1,-1,-1,-1,-1,-1,-1,-1,-1,-1,-1,-1,-1,-1,-1,-1],"loss_changes":[4.80018E1,2.612312E1,1.5947319E1,1.0925068E1,1.792611E1,1.5504477E1,4.210037E0,1.697587E1,7.905405E0,1.796181E1,1.3109386E1,1.3690786E1,3.3606014E0,0E0,7.280426E-1,5.5707564E0,3.1267653E0,2.8787422E-1,9.007446E0,1.6928896E1,1.3711742E1,1.4776468E1,1.4743053E1,9.70657E0,5.8480735E0,2.4961398E0,0E0,0E0,0E0,2.5130663E0,0E0,2.4649029E0,5.888801E0,0E0,0E0,4.2292967E0,0E0,6.4322734E0,5.4380074E0,1.6607975E1,1.3227276E1,1.018997E1,1.123925E1,9.583791E0,1.8085762E1,6.033967E0,4.786442E0,0E0,2.7482867E0,0E0,0E0,0E0,0E0,0E0,0E0,0E0,0E0,1.7851162E0,7.1579075E0,5.0814323E0,5.934513E0,0E0,0E0,5.328249E0,1.3411247E1,1.2815191E1,7.8362484E0,0E0,9.015378E0,9.739157E0,3.7655687E0,0E0,7.380722E0,1.7535477E1,7.812274E0,9.571025E0,9.779296E0,0E0,3.2581367E0,0E0,0E0,0E0,0E0,0E0,0E0,0E0,0E0,0E0,0E0,0E0,0E0,0E0,0E0,0E0,0E0,0E0,0E0,0E0,0E0,0E0,0E0,0E0,0E0,0E0,0E0,0E0,0E0,0E0,0E0,0E0,0E0,0E0,0E0,0E0,0E0],"parents":[2147483647,0,0,1,1,2,2,3,3,4,4,5,5,6,6,7,7,8,8,9,9,10,10,11,11,12,12,14,14,15,15,16,16,17,17,18,18,19,19,20,20,21,21,22,22,23,23,24,24,25,25,29,29,31,31,32,32,35,35,37,37,38,38,39,39,40,40,41,41,42,42,43,43,44,44,45,45,46,46,48,48,57,57,58,58,59,59,60,60,63,63,64,64,65,65,66,66,68,68,69,69,70,70,72,72,73,73,74,74,75,75,76,76,78,78],"right_children":[2,4,6,8,10,12,14,16,18,20,22,24,26,-1,28,30,32,34,36,38,40,42,44,46,48,50,-1,-1,-1,52,-1,54,56,-1,-1,58,-1,60,62,64,66,68,70,72,74,76,78,-1,80,-1,-1,-1,-1,-1,-1,-1,-1,82,84,86,88,-1,-1,90,92,94,96,-1,98,100,102,-1,104,106,108,110,112,-1,114,-1,-1,-1,-1,-1,-1,-1,-1,-1,-1,-1,-1,-1,-1,-1,-1,-1,-1,-1,-1,-1,-1,-1,-1,-1,-1,-1,-1,-1,-1,-1,-1,-1,-1,-1,-1],"split_conditions":[6.666667E-1,-3.2214838E-1,1.00001E5,2.9E1,1.0985984E-2,1.4833316E0,-1.200289E-2,-9.171565E-2,3E0,1.4E1,3.3E1,1.393462E0,6E0,1.5932405E-2,1.03296734E-1,1.02E2,7E1,1.48E2,7.882015E-2,1.1E1,3.4E1,-2.183708E-1,0E0,1.294383E0,-1.5480056E-1,2.7276987E-2,6.1065264E-2,7.191151E-2,3.5789948E-2,1.1787006E0,9.126335E-3,-1.4198162E-1,5E0,3.892715E-2,7.104257E-2,4.1E1,-3.161869E-2,9.154798E-1,1E0,-3.4480974E-2,1.0633802E-2,5.646929E-1,6.3E1,7E0,1E0,1.12E2,-1.7895604E-2,-7.245331E-2,6.1E1,-1.6128926E-3,4.4519495E-2,-1.9935936E-2,-6.437662E-2,1.5302809E-2,6.2341638E-2,-2.5981411E-2,3.669259E-2,3.792917E-2,-4.118576E-2,1.6293008E-2,1.0487583E0,-2.1021485E-2,-7.609116E-2,2.8E1,1.2602246E0,1.31E2,8.2E1,-4.084069E-2,1.0240036E-2,2.6321856E-2,1.7042266E-2,-5.4168064E-2,2.8E1,2.1E2,4.978611E-2,2.7E1,7.0048654E-1,4.5094206E-3,3.5E1,-3.221523E-2,1.4647886E-2,7.511563E-2,3.154544E-2,3.8802367E-2,-2.5230259E-2,4.0405255E-2,-9.37753E-3,-6.068919E-2,2.0929476E-5,-5.3122845E-2,7.6530175E-3,4.6149667E-2,-2.9336557E-2,-2.7216857E-3,3.239287E-2,6.181823E-2,1.2735761E-2,1.4023217E-2,6.1378747E-2,-2.5332982E-3,-1.978573E-2,-1.750022E-2,-5.743261E-2,-8.635499E-3,1.5059692E-2,-2.96389E-2,5.417651E-2,3.6507223E-2,-1.7011607E-2,-1.2297883E-2,2.1766042E-2,2.0182522E-2,-1.6465345E-2,2.017498E-2,7.042091E-2],"split_indices":[4,7,0,16,8,9,1,1,13,14,2,9,3,0,6,3,14,3,8,14,14,7,5,9,7,8,0,0,0,9,0,6,13,0,0,16,0,9,25,5,8,9,16,14,15,14,6,0,14,0,0,0,0,0,0,0,0,8,5,7,9,0,0,14,9,14,14,0,5,5,1,0,16,3,1,14,9,0,14,0,0,0,0,0,0,0,0,0,0,0,0,0,0,0,0,0,0,0,0,0,0,0,0,0,0,0,0,0,0,0,0,0,0,0,0],"split_type":[0,0,0,0,0,0,0,0,0,0,0,0,0,0,0,0,0,0,0,0,0,0,0,0,0,0,0,0,0,0,0,0,0,0,0,0,0,0,0,0,0,0,0,0,0,0,0,0,0,0,0,0,0,0,0,0,0,0,0,0,0,0,0,0,0,0,0,0,0,0,0,0,0,0,0,0,0,0,0,0,0,0,0,0,0,0,0,0,0,0,0,0,0,0,0,0,0,0,0,0,0,0,0,0,0,0,0,0,0,0,0,0,0,0,0],"sum_hessian":[2.1150354E3,1.8018873E3,3.1314816E2,1.0130014E2,1.7005873E3,2.8605072E2,2.7097427E1,4.787844E1,5.34217E1,5.3550903E2,1.1650782E3,2.5674185E2,2.9308882E1,6.4940367E0,2.0603392E1,2.0972752E1,2.6905687E1,1.773806E1,3.568364E1,5.6115208E1,4.793938E2,7.707657E2,3.9431253E2,2.4095369E2,1.5788167E1,1.063747E1,1.8671412E1,1.5438611E1,5.1647797E0,1.460056E1,6.3721924E0,1.3299984E1,1.3605704E1,5.6352706E0,1.2102789E1,3.0009054E1,5.6745844E0,3.476113E1,2.1354078E1,7.020327E1,4.0919055E2,5.5712868E1,7.150528E2,1.4364767E2,2.5066486E2,2.172243E2,2.3729383E1,5.104652E0,1.0683515E1,5.4278855E0,5.209585E0,7.210098E0,7.3904624E0,5.210094E0,8.0898905E0,5.4270716E0,8.178633E0,1.3397362E1,1.6611692E1,1.9028618E1,1.57325115E1,7.9635224E0,1.3390556E1,1.2988847E1,5.721442E1,3.7456802E2,3.4622513E1,5.231018E0,5.048185E1,6.89871E2,2.5181835E1,7.482169E0,1.3616551E2,2.2389426E2,2.6770586E1,1.4376967E2,7.345463E1,6.2144666E0,1.7514917E1,5.4448056E0,5.238709E0,5.4130445E0,7.984318E0,1.0409794E1,6.201899E0,1.0029934E1,8.998684E0,5.739978E0,9.992534E0,6.2370286E0,6.7518177E0,5.126703E1,5.947392E0,3.4749158E2,2.7076437E1,1.2562008E1,2.2060507E1,3.723631E1,1.3245541E1,5.959722E2,9.389872E1,1.298022E1,1.2201616E1,8.330399E1,5.2861515E1,2.1835893E2,5.5353265E0,1.6279234E1,1.0491354E1,2.4194227E1,1.1957545E2,2.9678404E1,4.3776226E1,5.7161045E0,1.1798813E1],"tree_param":{"num_deleted":"0","num_feature":"27","num_nodes":"115","size_leaf_vector":"1"}},{"base_weights":[-7.879467E-3,4.4015524E-1,-3.1146483E-2,1.8523453E-1,9.93114E-1,1.05471656E-1,-9.1885746E-2,-2.686607E-2,7.94678E-1,1.9775853E-2,1.1257056E0,2.3149899E-1,-2.416609E-1,-7.6151997E-1,-6.8559974E-2,-1.5178609E-1,3.5673805E-2,4.0542588E-1,6.868946E-2,1.2750007E0,2.5029097E-2,4.4141376E-1,3.2715354E-2,5.713076E-2,-3.2628393E-1,-1.3229271E0,-4.13219E-1,-1.2842113E-1,1.5668553E-1,5.1700205E-1,-3.4989735E-1,4.533417E-2,-4.9509457E-3,4.1375928E-2,7.0610575E-2,3.5371315E-1,1.1712565E0,-3.7482277E-2,7.7446693E-1,-4.5285133E-1,3.0073205E-1,-8.0403715E-2,-4.1578185E-2,2.3130437E-2,-6.15143E-1,-1.823892E-1,2.1566676E-1,6.82914E-1,7.18558E-2,-1.2222031E-3,4.9163785E-2,5.4197047E-2,-9.7564244E-1,-1.0632051E-1,5.3594506E-1,1.2879757E0,3.2332927E-2,4.058701E-2,-6.568506E-1,9.7775364E-1,6.3207033E-3,-8.309929E-1,-2.7914065E-1,-2.702565E-2,6.677624E-1,-1.1098976E0,6.902294E-2,-1.4548026E-1,-8.9481145E-1,5.196183E-1,-6.232382E-2,1.0847629E0,3.371358E-1,1.2464093E-1,-9.3553114E-1,-1.4396863E-2,4.4390775E-2,-6.643514E-2,-1.9270843E-2,-5.193888E-2,8.859181E-4,2.2075057E-2,6.03481E-2,5.0360482E-2,8.140701E-2,-7.3671187E-3,1.4340191E-2,1.1729264E-2,-4.974194E-2,1.6425027E-2,6.410624E-2,-4.104333E-3,-4.98691E-2,8.442992E-3,-3.4202933E-2,1.1321626E-3,6.1808474E-2,-7.8776754E-2,-2.6133267E-2,-2.4751402E-2,3.0979011E-2,-6.355294E-3,-5.5560935E-2,-2.8110791E-2,-6.6747285E-2,1.3155027E-2,4.8414376E-2,-8.226546E-3,5.3718735E-2,7.498761E-2,1.3762671E-2,-1.4285649E-2,4.4026535E-2,-1.719567E-2,1.1050448E-2,-6.667175E-2,-2.3178024E-2],"categories":[],"categories_nodes":[],"categories_segments":[],"categories_sizes":[],"default_left":[0,0,0,0,0,0,0,0,0,0,0,0,0,0,0,0,0,0,0,0,0,0,0,0,0,0,0,0,0,0,0,0,0,0,0,0,0,0,0,0,0,0,0,0,0,0,0,0,0,0,0,0,0,0,0,0,0,0,0,0,0,0,0,0,0,0,0,0,0,0,0,0,0,0,0,0,0,0,0,0,0,0,0,0,0,0,0,0,0,0,0,0,0,0,0,0,0,0,0,0,0,0,0,0,0,0,0,0,0,0,0,0,0,0,0,0,0],"id":11,"left_children":[1,3,5,7,9,11,13,15,17,-1,19,21,23,25,27,29,-1,31,-1,33,-1,35,37,-1,39,41,43,45,47,49,51,-1,-1,-1,-1,53,55,57,59,61,63,-1,-1,-1,65,67,69,71,73,-1,-1,75,77,79,81,83,-1,85,87,89,-1,91,93,-1,95,97,99,101,103,105,107,109,111,113,115,-1,-1,-1,-1,-1,-1,-1,-1,-1,-1,-1,-1,-1,-1,-1,-1,-1,-1,-1,-1,-1,-1,-1,-1,-1,-1,-1,-1,-1,-1,-1,-1,-1,-1,-1,-1,-1,-1,-1,-1,-1,-1],"loss_changes":[2.2036484E1,1.4526775E1,1.6682632E1,9.413574E0,2.1458664E0,2.7129002E1,2.1681292E1,5.182698E0,3.6790075E0,0E0,1.8089371E0,1.8951593E1,1.9738491E1,8.592335E0,1.8164476E1,6.510328E0,0E0,3.2900727E0,0E0,9.1278076E-2,0E0,1.3730782E1,1.2240797E1,0E0,1.2561735E1,1.1063461E0,5.6426673E0,1.9791737E1,1.2583518E1,2.882087E0,9.522629E0,0E0,0E0,0E0,0E0,1.6715956E1,5.9218216E-1,1.0432701E1,2.5537071E0,8.351677E0,8.665994E0,0E0,0E0,0E0,8.555935E0,2.4061373E1,1.2256527E1,5.0767307E0,1.31349745E1,0E0,0E0,7.015917E0,2.561099E0,6.636167E0,8.497829E0,8.20694E-2,0E0,8.929098E0,7.5090103E0,2.6065369E0,0E0,4.9807224E0,1.6631727E1,0E0,7.0031595E0,3.1676025E0,3.863717E0,1.5401333E1,5.8547287E0,7.7114296E0,9.0593E0,5.521324E0,7.8680563E0,1.062002E1,1.6931171E0,0E0,0E0,0E0,0E0,0E0,0E0,0E0,0E0,0E0,0E0,0E0,0E0,0E0,0E0,0E0,0E0,0E0,0E0,0E0,0E0,0E0,0E0,0E0,0E0,0E0,0E0,0E0,0E0,0E0,0E0,0E0,0E0,0E0,0E0,0E0,0E0,0E0,0E0,0E0,0E0,0E0,0E0],"parents":[2147483647,0,0,1,1,2,2,3,3,4,4,5,5,6,6,7,7,8,8,10,10,11,11,12,12,13,13,14,14,15,15,17,17,19,19,21,21,22,22,24,24,25,25,26,26,27,27,28,28,29,29,30,30,35,35,36,36,37,37,38,38,39,39,40,40,44,44,45,45,46,46,47,47,48,48,51,51,52,52,53,53,54,54,55,55,57,57,58,58,59,59,61,61,62,62,64,64,65,65,66,66,67,67,68,68,69,69,70,70,71,71,72,72,73,73,74,74],"right_children":[2,4,6,8,10,12,14,16,18,-1,20,22,24,26,28,30,-1,32,-1,34,-1,36,38,-1,40,42,44,46,48,50,52,-1,-1,-1,-1,54,56,58,60,62,64,-1,-1,-1,66,68,70,72,74,-1,-1,76,78,80,82,84,-1,86,88,90,-1,92,94,-1,96,98,100,102,104,106,108,110,112,114,116,-1,-1,-1,-1,-1,-1,-1,-1,-1,-1,-1,-1,-1,-1,-1,-1,-1,-1,-1,-1,-1,-1,-1,-1,-1,-1,-1,-1,-1,-1,-1,-1,-1,-1,-1,-1,-1,-1,-1,-1,-1,-1],"split_conditions":[-3.4458324E-1,1.42E2,8.5391974E-1,3.4486842E-3,1.4E1,1.6731847E-2,4E0,1.4925662E0,5.3E1,1.9775853E-2,1.1106706E-1,1.1292683E-2,1.2E1,1.0748556E0,1.44E2,2.3E1,3.5673805E-2,7.4E1,6.868946E-2,-2.2400339E-1,2.5029097E-2,1.32E2,1.3E1,5.713076E-2,8.1681573E-1,-4.3786136E-3,1.2093605E-2,1E0,1.52E2,-2.0251739E-1,-1.6619697E-1,4.533417E-2,-4.9509457E-3,4.1375928E-2,7.0610575E-2,5.538066E-1,7.2408587E-1,8.2466936E-1,7E0,-4.4172507E-2,1.9278772E-2,-8.0403715E-2,-4.1578185E-2,2.3130437E-2,2E0,1E0,1E0,1.1279079E0,1.6296823E0,-1.2222031E-3,4.9163785E-2,1.14E2,7E0,3E0,1E0,1.02767125E-2,3.2332927E-2,4.9025904E-2,5.556808E-2,1.03350775E-2,6.3207033E-3,2E0,2.1226892E-2,-2.702565E-2,3E0,1.7134773E-2,-1.7479777E-3,1.8676451E0,1.2410854E0,2.7E1,1.27E2,7.4754804E-2,1.3084E0,1.63E2,-8.0621704E-2,-1.4396863E-2,4.4390775E-2,-6.643514E-2,-1.9270843E-2,-5.193888E-2,8.859181E-4,2.2075057E-2,6.03481E-2,5.0360482E-2,8.140701E-2,-7.3671187E-3,1.4340191E-2,1.1729264E-2,-4.974194E-2,1.6425027E-2,6.410624E-2,-4.104333E-3,-4.98691E-2,8.442992E-3,-3.4202933E-2,1.1321626E-3,6.1808474E-2,-7.8776754E-2,-2.6133267E-2,-2.4751402E-2,3.0979011E-2,-6.355294E-3,-5.5560935E-2,-2.8110791E-2,-6.6747285E-2,1.3155027E-2,4.8414376E-2,-8.226546E-3,5.3718735E-2,7.498761E-2,1.3762671E-2,-1.4285649E-2,4.4026535E-2,-1.719567E-2,1.1050448E-2,-6.667175E-2,-2.3178024E-2],"split_indices":[7,3,9,6,16,8,14,9,2,0,6,6,14,9,3,14,0,14,0,6,0,14,10,0,9,7,8,21,3,6,6,0,0,0,0,9,9,9,13,1,8,0,0,0,14,23,12,9,9,0,0,14,13,13,21,8,0,6,7,1,0,16,1,0,10,8,7,9,9,16,3,7,9,3,6,0,0,0,0,0,0,0,0,0,0,0,0,0,0,0,0,0,0,0,0,0,0,0,0,0,0,0,0,0,0,0,0,0,0,0,0,0,0,0,0,0,0],"split_type":[0,0,0,0,0,0,0,0,0,0,0,0,0,0,0,0,0,0,0,0,0,0,0,0,0,0,0,0,0,0,0,0,0,0,0,0,0,0,0,0,0,0,0,0,0,0,0,0,0,0,0,0,0,0,0,0,0,0,0,0,0,0,0,0,0,0,0,0,0,0,0,0,0,0,0,0,0,0,0,0,0,0,0,0,0,0,0,0,0,0,0,0,0,0,0,0,0,0,0,0,0,0,0,0,0,0,0,0,0,0,0,0,0,0,0,0,0],"sum_hessian":[2.1116118E3,1.0336059E2,2.0082513E3,7.165962E1,3.1700968E1,6.178384E2,1.390413E3,5.3868156E1,1.7791464E1,6.4796824E0,2.5221285E1,4.5351996E2,1.6431842E2,4.573751E1,1.3446754E3,4.6771282E1,7.096872E0,1.1656548E1,6.134916E0,1.9519857E1,5.701428E0,2.1999036E2,2.3352959E2,8.746095E0,1.5557233E2,1.6440208E1,2.92973E1,1.0626863E3,2.819892E2,1.0320722E1,3.645056E1,5.4467864E0,6.209761E0,6.2307305E0,1.3289125E1,1.9771664E2,2.2273718E1,2.14207E2,1.932258E1,1.2967444E2,2.5897894E1,8.964987E0,7.475222E0,5.2471676E0,2.4050133E1,9.190144E2,1.4367184E2,3.816819E1,2.4382101E2,5.21386E0,5.1068616E0,2.2702866E1,1.3747696E1,5.621692E1,1.4149973E2,1.7029594E1,5.244124E0,1.9105911E2,2.3147888E1,1.4321374E1,5.0012054E0,3.9627556E1,9.004688E1,7.723264E0,1.817463E1,1.3595954E1,1.0454179E1,8.7489246E2,4.412195E1,6.821605E1,7.545579E1,1.6664381E1,2.1503809E1,2.32514E2,1.1307012E1,1.6560633E1,6.142234E0,7.8192244E0,5.9284716E0,5.734375E0,5.0482544E1,1.2549464E2,1.6005093E1,1.1499254E1,5.53034E0,1.0858287E2,8.247624E1,6.447829E0,1.6700058E1,5.2346444E0,9.08673E0,7.4752626E0,3.2152294E1,4.302599E1,4.7020893E1,8.99992E0,9.174709E0,6.6443934E0,6.9515605E0,5.2136283E0,5.2405505E0,8.5966785E2,1.522464E1,2.642829E1,1.7693657E1,4.441122E1,2.3804829E1,7.001554E1,5.4402456E0,1.0453037E1,6.211344E0,1.0240348E1,1.126346E1,3.9225517E1,1.9328848E2,5.14455E0,6.1624613E0],"tree_param":{"num_deleted":"0","num_feature":"27","num_nodes":"117","size_leaf_vector":"1"}},{"base_weights":[1.3675777E-2,5.0428104E-1,-1.5353789E-2,2.0175736E-1,7.69089E-1,-7.4847445E-2,2.827144E-1,-2.7457806E-1,6.6160625E-1,1.2502571E0,5.7427454E-1,-1.10248245E-1,1.730387E-1,1.6985461E-1,7.1247196E-1,-5.173849E-1,3.3723634E-2,3.1779916E-3,9.0200686E-1,3.798517E-2,6.992316E-2,7.1641415E-1,-1.098978E-2,-9.5498085E-2,-8.179077E-1,-2.1344571E-1,3.3152145E-1,4.095085E-1,3.5250455E-2,-2.6526415E-1,9.0316623E-1,-9.688186E-1,1.4404336E-2,2.2135887E-2,1.102385E0,8.471496E-1,-6.640931E-3,-5.6544494E-2,-3.384478E-1,-1.1946716E0,-2.1447094E-1,3.7255517E-1,-4.3440267E-1,4.1950378E-1,-4.479612E-1,2.7785695E-1,9.6442413E-1,-1.6873378E-1,3.0926532E-1,-3.0701986E-2,7.6804818E-3,1.0206345E0,1.4676872E-2,-2.0528313E-2,-7.2951935E-2,6.801715E-2,3.7481915E-2,3.9256442E-1,1.0677221E0,-2.9994354E-2,-5.4222083E-1,-4.8014304E-1,1.139057E-1,-6.852544E-2,-4.1334894E-2,-3.4811165E-2,1.2072447E-2,4.6222072E-2,-1.5237475E-2,-7.3764396E-1,7.8080515E-3,2.5478914E-1,7.9963994E-1,-4.7104202E-2,2.1540029E-2,3.6456215E-1,-2.6635543E-2,2.225675E-2,1.18868E0,4.74239E-2,-2.7156976E-1,1.5830347E-1,1.0105389E0,1.2299299E0,5.184354E-1,4.2405605E-2,-1.0602631E-2,5.9580564E-2,2.8080434E-2,-1.5819592E-2,2.5407516E-4,-4.57313E-2,-8.39839E-3,6.774489E-3,-3.0144645E-2,-7.6666214E-3,4.292361E-2,1.6867567E-3,-5.1418602E-2,-2.7832E-2,2.1723768E-2,4.8242368E-2,7.830383E-3,5.4881502E-2,-1.4661121E-3,2.6479E-2,-6.916564E-3,7.348982E-2,3.4719404E-2,3.8981374E-2,-1.7387232E-2,1.3259356E-2,-3.3713963E-2,2.9440587E-2,6.213175E-2,2.8125668E-2,6.922458E-2,5.0506454E-2,-5.6308005E-3],"categories":[],"categories_nodes":[],"categories_segments":[],"categories_sizes":[],"default_left":[0,0,0,0,0,0,0,0,0,0,0,0,0,0,0,0,0,0,0,0,0,0,0,0,0,0,0,0,0,0,0,0,0,0,0,0,0,0,0,0,0,0,0,0,0,0,0,0,0,0,0,0,0,0,0,0,0,0,0,0,0,0,0,0,0,0,0,0,0,0,0,0,0,0,0,0,0,0,0,0,0,0,0,0,0,0,0,0,0,0,0,0,0,0,0,0,0,0,0,0,0,0,0,0,0,0,0,0,0,0,0,0,0,0,0,0,0,0,0],"id":12,"left_children":[1,3,5,7,9,11,13,15,17,19,21,23,25,27,29,31,-1,-1,33,-1,-1,35,-1,37,39,41,43,45,47,49,51,53,-1,-1,55,57,-1,59,61,63,65,67,69,71,73,75,77,79,81,-1,-1,83,-1,-1,-1,-1,-1,85,87,89,91,93,95,-1,-1,-1,-1,-1,-1,97,99,101,103,-1,-1,105,-1,-1,107,-1,109,111,113,115,117,-1,-1,-1,-1,-1,-1,-1,-1,-1,-1,-1,-1,-1,-1,-1,-1,-1,-1,-1,-1,-1,-1,-1,-1,-1,-1,-1,-1,-1,-1,-1,-1,-1,-1],"loss_changes":[3.0020905E1,9.2785E0,3.532086E1,1.25182085E1,5.134815E0,1.4587798E1,1.5953627E1,6.886656E0,4.104744E0,1.840496E-1,5.382495E0,1.50918865E1,1.2801994E1,8.495346E0,1.3033588E1,8.699423E0,0E0,0E0,1.4053345E0,0E0,0E0,4.497925E0,0E0,1.3464723E1,6.460228E0,8.067225E0,1.0324059E1,6.6564636E0,9.555244E0,1.8433547E0,3.828659E0,3.524887E0,0E0,0E0,2.2255707E-1,3.0266266E0,0E0,1.5832842E1,1.2661007E1,2.9592514E-2,2.9298515E0,6.731903E0,6.0130825E0,8.144249E0,7.1249237E0,5.6769896E0,1.5402927E0,1.1529398E1,7.5583878E0,0E0,0E0,4.400219E0,0E0,0E0,0E0,0E0,0E0,3.7077184E0,7.4513817E-1,1.1719454E1,8.717472E0,1.141375E1,9.626934E0,0E0,0E0,0E0,0E0,0E0,0E0,5.99679E0,4.8689513E0,6.435997E0,9.873058E0,0E0,0E0,5.9709415E0,0E0,0E0,6.207161E-1,0E0,7.527324E0,5.623045E0,5.142269E-1,2.6359406E0,5.024927E0,0E0,0E0,0E0,0E0,0E0,0E0,0E0,0E0,0E0,0E0,0E0,0E0,0E0,0E0,0E0,0E0,0E0,0E0,0E0,0E0,0E0,0E0,0E0,0E0,0E0,0E0,0E0,0E0,0E0,0E0,0E0,0E0,0E0,0E0],"parents":[2147483647,0,0,1,1,2,2,3,3,4,4,5,5,6,6,7,7,8,8,9,9,10,10,11,11,12,12,13,13,14,14,15,15,18,18,21,21,23,23,24,24,25,25,26,26,27,27,28,28,29,29,30,30,31,31,34,34,35,35,37,37,38,38,39,39,40,40,41,41,42,42,43,43,44,44,45,45,46,46,47,47,48,48,51,51,57,57,58,58,59,59,60,60,61,61,62,62,69,69,70,70,71,71,72,72,75,75,78,78,80,80,81,81,82,82,83,83,84,84],"right_children":[2,4,6,8,10,12,14,16,18,20,22,24,26,28,30,32,-1,-1,34,-1,-1,36,-1,38,40,42,44,46,48,50,52,54,-1,-1,56,58,-1,60,62,64,66,68,70,72,74,76,78,80,82,-1,-1,84,-1,-1,-1,-1,-1,86,88,90,92,94,96,-1,-1,-1,-1,-1,-1,98,100,102,104,-1,-1,106,-1,-1,108,-1,110,112,114,116,118,-1,-1,-1,-1,-1,-1,-1,-1,-1,-1,-1,-1,-1,-1,-1,-1,-1,-1,-1,-1,-1,-1,-1,-1,-1,-1,-1,-1,-1,-1,-1,-1,-1,-1],"split_conditions":[-3.351299E-1,2.9E1,6.5217394E-1,-7.964924E-2,3E0,1E0,9.9E1,-7.1233004E-2,-1.976994E-2,4.7826087E-1,1.5001E4,1.7504792E0,4.3589744E-1,1.0098451E-2,7.806058E-1,1.02E2,3.3723634E-2,3.1779916E-3,1E0,3.798517E-2,6.992316E-2,1.3287163E-1,-1.098978E-2,1.76635E-1,6E0,9.684836E-1,1.2374775E-1,9.280898E-3,2.0612499E-2,1.0927668E-2,1E0,1.1213185E0,1.4404336E-2,2.2135887E-2,1E0,9.7332484E-1,-6.640931E-3,1E0,1.3142081E0,4.7E1,4.6551725E-1,1.0643528E-2,1E0,3.3E1,1.5970111E-1,6.392788E-2,7.3333335E-1,6.0311157E-1,2.9915857E-1,-3.0701986E-2,7.6804818E-3,2.0285662E-2,1.4676872E-2,-2.0528313E-2,-7.2951935E-2,6.801715E-2,3.7481915E-2,7.757577E-1,1.3797568E0,-9.831666E-2,4.642857E-1,7.640542E-1,4.1E1,-6.852544E-2,-4.1334894E-2,-3.4811165E-2,1.2072447E-2,4.6222072E-2,-1.5237475E-2,1.6E1,1.161385E0,-6.391933E-2,1.0045172E-1,-4.7104202E-2,2.1540029E-2,1.0458245E0,-2.6635543E-2,2.225675E-2,-8.567875E-4,4.74239E-2,-9.437428E-2,4.1E1,2E0,6.792453E-1,1.46E2,4.2405605E-2,-1.0602631E-2,5.9580564E-2,2.8080434E-2,-1.5819592E-2,2.5407516E-4,-4.57313E-2,-8.39839E-3,6.774489E-3,-3.0144645E-2,-7.6666214E-3,4.292361E-2,1.6867567E-3,-5.1418602E-2,-2.7832E-2,2.1723768E-2,4.8242368E-2,7.830383E-3,5.4881502E-2,-1.4661121E-3,2.6479E-2,-6.916564E-3,7.348982E-2,3.4719404E-2,3.8981374E-2,-1.7387232E-2,1.3259356E-2,-3.3713963E-2,2.9440587E-2,6.213175E-2,2.8125668E-2,6.922458E-2,5.0506454E-2,-5.6308005E-3],"split_indices":[7,16,4,1,13,21,3,6,5,4,0,9,4,8,9,3,0,0,26,0,0,6,0,7,13,9,6,8,8,8,22,9,0,0,11,9,0,23,9,3,4,6,26,16,6,6,4,9,7,0,0,8,0,0,0,0,0,9,9,1,4,9,16,0,0,0,0,0,0,2,9,5,7,0,0,9,0,0,1,0,6,16,16,4,3,0,0,0,0,0,0,0,0,0,0,0,0,0,0,0,0,0,0,0,0,0,0,0,0,0,0,0,0,0,0,0,0,0,0],"split_type":[0,0,0,0,0,0,0,0,0,0,0,0,0,0,0,0,0,0,0,0,0,0,0,0,0,0,0,0,0,0,0,0,0,0,0,0,0,0,0,0,0,0,0,0,0,0,0,0,0,0,0,0,0,0,0,0,0,0,0,0,0,0,0,0,0,0,0,0,0,0,0,0,0,0,0,0,0,0,0,0,0,0,0,0,0,0,0,0,0,0,0,0,0,0,0,0,0,0,0,0,0,0,0,0,0,0,0,0,0,0,0,0,0,0,0,0,0,0,0],"sum_hessian":[2.1063613E3,1.1675796E2,1.9896033E3,5.5320374E1,6.1437584E1,1.6591833E3,3.304199E2,2.7370981E1,2.794939E1,1.6144623E1,4.529296E1,1.4523303E3,2.0685309E2,2.628004E2,6.761949E1,2.2157106E1,5.213874E0,8.376213E0,1.9573177E1,5.1672635E0,1.097736E1,3.8499325E1,6.793634E0,1.4237883E3,2.8541908E1,6.0054417E1,1.4679868E2,9.378322E1,1.690172E2,1.0972053E1,5.6647438E1,1.4069137E1,8.08797E0,6.9203568E0,1.2652822E1,3.3365337E1,5.133987E0,1.2281107E3,1.9567763E2,1.6967955E1,1.1573954E1,1.6255922E1,4.3798496E1,1.3232465E2,1.4474026E1,7.7012924E1,1.6770294E1,9.711002E1,7.190717E1,5.732747E0,5.239306E0,4.693032E1,9.717116E0,7.437258E0,6.631879E0,5.658455E0,6.994366E0,1.1808517E1,2.1556822E1,1.165461E3,6.2649715E1,1.4895692E2,4.672071E1,9.6379595E0,7.329995E0,5.3712716E0,6.2026825E0,8.7562275E0,7.4996953E0,2.5585459E1,1.8213036E1,9.348671E1,3.883794E1,9.2184725E0,5.2555532E0,7.0068085E1,6.9448376E0,5.958253E0,1.0812042E1,7.4921365E0,8.961789E1,6.0178417E1,1.1728754E1,3.2102337E1,1.4827985E1,6.5047774E0,5.3037395E0,1.6229612E1,5.3272095E0,1.26287994E2,1.039173E3,3.0678663E1,3.1971052E1,2.4745571E1,1.2421136E2,3.496516E1,1.175555E1,7.245413E0,1.8340046E1,7.70943E0,1.0503606E1,1.0284077E1,8.320264E1,2.8329962E1,1.0507979E1,5.271672E1,1.7351364E1,5.6341953E0,5.177847E0,5.431374E0,8.4186516E1,5.3935837E1,6.242578E0,5.419057E0,6.3096976E0,6.9087744E0,2.5193562E1,7.9965997E0,6.8313847E0],"tree_param":{"num_deleted":"0","num_feature":"27","num_nodes":"119","size_leaf_vector":"1"}},{"base_weights":[2.7773732E-3,-7.411334E-2,1.7205516E-1,3.436135E-1,-1.0826754E-1,-6.3339435E-2,1.8713456E-1,-2.560708E-1,7.5223386E-1,-3.643111E-1,-6.9135286E-2,4.1453865E-1,9.456921E-2,4.4125718E-1,-5.3056806E-1,8.5587066E-1,-1.9515345E-2,-3.8045373E-2,