{"learner":{"attributes":{"scikit_learn":"{\"_estimator_type\": \"classifier\"}"},"feature_names":[],"feature_types":[],"gradient_booster":{"model":{"cats":{"enc":[],"feature_segments":[],"sorted_idx":[]},"gbtree_model_param":{"num_parallel_tree":"1","num_trees":"300"},"iteration_indptr":[0,1,2,3,4,5,6,7,8,9,10,11,12,13,14,15,16,17,18,19,20,21,22,23,24,25,26,27,28,29,30,31,32,33,34,35,36,37,38,39,40,41,42,43,44,45,46,47,48,49,50,51,52,53,54,55,56,57,58,59,60,61,62,63,64,65,66,67,68,69,70,71,72,73,74,75,76,77,78,79,80,81,82,83,84,85,86,87,88,89,90,91,92,93,94,95,96,97,98,99,100,101,102,103,104,105,106,107,108,109,110,111,112,113,114,115,116,117,118,119,120,121,122,123,124,125,126,127,128,129,130,131,132,133,134,135,136,137,138,139,140,141,142,143,144,145,146,147,148,149,150,151,152,153,154,155,156,157,158,159,160,161,162,163,164,165,166,167,168,169,170,171,172,173,174,175,176,177,178,179,180,181,182,183,184,185,186,187,188,189,190,191,192,193,194,195,196,197,198,199,200,201,202,203,204,205,206,207,208,209,210,211,212,213,214,215,216,217,218,219,220,221,222,223,224,225,226,227,228,229,230,231,232,233,234,235,236,237,238,239,240,241,242,243,244,245,246,247,248,249,250,251,252,253,254,255,256,257,258,259,260,261,262,263,264,265,266,267,268,269,270,271,272,273,274,275,276,277,278,279,280,281,282,283,284,285,286,287,288,289,290,291,292,293,294,295,296,297,298,299,300],"tree_info":[0,0,0,0,0,0,0,0,0,0,0,0,0,0,0,0,0,0,0,0,0,0,0,0,0,0,0,0,0,0,0,0,0,0,0,0,0,0,0,0,0,0,0,0,0,0,0,0,0,0,0,0,0,0,0,0,0,0,0,0,0,0,0,0,0,0,0,0,0,0,0,0,0,0,0,0,0,0,0,0,0,0,0,0,0,0,0,0,0,0,0,0,0,0,0,0,0,0,0,0,0,0,0,0,0,0,0,0,0,0,0,0,0,0,0,0,0,0,0,0,0,0,0,0,0,0,0,0,0,0,0,0,0,0,0,0,0,0,0,0,0,0,0,0,0,0,0,0,0,0,0,0,0,0,0,0,0,0,0,0,0,0,0,0,0,0,0,0,0,0,0,0,0,0,0,0,0,0,0,0,0,0,0,0,0,0,0,0,0,0,0,0,0,0,0,0,0,0,0,0,0,0,0,0,0,0,0,0,0,0,0,0,0,0,0,0,0,0,0,0,0,0,0,0,0,0,0,0,0,0,0,0,0,0,0,0,0,0,0,0,0,0,0,0,0,0,0,0,0,0,0,0,0,0,0,0,0,0,0,0,0,0,0,0,0,0,0,0,0,0,0,0,0,0,0,0,0,0,0,0,0,0,0,0,0,0,0,0,0,0,0,0,0,0,0,0,0,0,0,0],"trees":[{"base_weights":[1.2511927E-2,-3.3623314E-1,8.290369E-2,-1.3421878E0,-2.852627E-1,3.6756225E-2,3.431244E-1,-2.4000054E-2,-8.110073E-2,-1.1254315E-2,-3.42167E-2,-1.9090628E-3,9.242052E-3,2.9149199E-2,6.2773945E-3],"categories":[],"categories_nodes":[],"categories_segments":[],"categories_sizes":[],"default_left":[0,0,0,0,0,0,0,0,0,0,0,0,0,0,0],"id":0,"left_children":[1,3,5,7,9,11,13,-1,-1,-1,-1,-1,-1,-1,-1],"loss_changes":[5.774413E1,1.9872871E1,2.3488491E1,3.7527046E0,8.905939E0,1.8465662E1,1.5304634E1,0E0,0E0,0E0,0E0,0E0,0E0,0E0,0E0],"parents":[2147483647,0,0,1,1,2,2,3,3,4,4,5,5,6,6],"right_children":[2,4,6,8,10,12,14,-1,-1,-1,-1,-1,-1,-1,-1],"split_conditions":[3.880597E-1,-2.5444373E-1,6.532258E-1,2.3333333E-1,1.26E2,1.06E2,8E0,-2.4000054E-2,-8.110073E-2,-1.1254315E-2,-3.42167E-2,-1.9090628E-3,9.242052E-3,2.9149199E-2,6.2773945E-3],"split_indices":[4,1,4,4,14,14,16,0,0,0,0,0,0,0,0],"split_type":[0,0,0,0,0,0,0,0,0,0,0,0,0,0,0],"sum_hessian":[2.3500845E3,3.9404968E2,1.9560347E3,1.778145E1,3.7626825E2,1.6623715E3,2.936632E2,5.022319E0,1.2759131E1,3.283239E2,4.7944324E1,1.1042926E3,5.5807886E2,1.3888019E2,1.54783E2],"tree_param":{"num_deleted":"0","num_feature":"27","num_nodes":"15","size_leaf_vector":"1"}},{"base_weights":[2.1203237E-2,-2.2453879E-1,9.478751E-2,-1.137412E0,-1.8396845E-1,7.432973E-2,7.1424955E-1,-2.8476885E-2,-7.186543E-2,-7.4731307E-3,-3.9875135E-2,1.0910097E-3,1.0858827E-2,5.4554153E-2,7.059931E-4],"categories":[],"categories_nodes":[],"categories_segments":[],"categories_sizes":[],"default_left":[0,0,0,0,0,0,0,0,0,0,0,0,0,0,0],"id":1,"left_children":[1,3,5,7,9,11,13,-1,-1,-1,-1,-1,-1,-1,-1],"loss_changes":[4.2344048E1,1.977639E1,2.278171E1,3.0590744E0,1.0844254E1,1.3087068E1,1.51518955E1,0E0,0E0,0E0,0E0,0E0,0E0,0E0,0E0],"parents":[2147483647,0,0,1,1,2,2,3,3,4,4,5,5,6,6],"right_children":[2,4,6,8,10,12,14,-1,-1,-1,-1,-1,-1,-1,-1],"split_conditions":[4.2857143E-1,-2.5444373E-1,1.31E2,1E0,1E0,5.9090906E-1,7.105001E-1,-2.8476885E-2,-7.186543E-2,-7.4731307E-3,-3.9875135E-2,1.0910097E-3,1.0858827E-2,5.4554153E-2,7.059931E-4],"split_indices":[4,1,14,25,20,4,9,0,0,0,0,0,0,0,0],"split_type":[0,0,0,0,0,0,0,0,0,0,0,0,0,0,0],"sum_hessian":[2.3395054E3,5.386335E2,1.8008718E3,2.17692E1,5.1686426E2,1.7443834E3,5.648841E1,8.525226E0,1.3243973E1,4.9052048E2,2.6343796E1,1.2763562E3,4.680272E2,3.6359886E1,2.0128523E1],"tree_param":{"num_deleted":"0","num_feature":"27","num_nodes":"15","size_leaf_vector":"1"}},{"base_weights":[-4.114897E-3,-2.7476203E-1,7.230567E-2,1.3750371E-1,-3.7443003E-1,1.1101754E-1,-2.9543683E-1,-1.2571528E-2,3.0701509E-2,-5.556513E-2,-1.628066E-2,1.950968E-3,1.5287875E-2,-4.733152E-3,-4.2211216E-2],"categories":[],"categories_nodes":[],"categories_segments":[],"categories_sizes":[],"default_left":[0,0,0,0,0,0,0,0,0,0,0,0,0,0,0],"id":2,"left_children":[1,3,5,7,9,11,13,-1,-1,-1,-1,-1,-1,-1,-1],"loss_changes":[4.856749E1,2.1296562E1,2.610149E1,1.8946459E1,1.4625702E1,2.3227762E1,1.9166698E1,0E0,0E0,0E0,0E0,0E0,0E0,0E0,0E0],"parents":[2147483647,0,0,1,1,2,2,3,3,4,4,5,5,6,6],"right_children":[2,4,6,8,10,12,14,-1,-1,-1,-1,-1,-1,-1,-1],"split_conditions":[4.2424244E-1,-7.2112314E-2,1.7E1,1.0262624E0,-2.2717926E-1,5.9090906E-1,1.2746409E0,-1.2571528E-2,3.0701509E-2,-5.556513E-2,-1.628066E-2,1.950968E-3,1.5287875E-2,-4.733152E-3,-4.2211216E-2],"split_indices":[4,5,10,9,1,4,9,0,0,0,0,0,0,0,0],"split_type":[0,0,0,0,0,0,0,0,0,0,0,0,0,0,0],"sum_hessian":[2.3462224E3,5.1604144E2,1.830181E3,1.0039381E2,4.156476E2,1.656501E3,1.7368001E2,5.553736E1,4.485645E1,2.447292E1,3.911747E2,1.2102533E3,4.462478E2,1.2801736E2,4.566264E1],"tree_param":{"num_deleted":"0","num_feature":"27","num_nodes":"15","size_leaf_vector":"1"}},{"base_weights":[6.6777826E-3,-4.103127E-2,3.4046933E-1,8.9294213E-4,-4.0455526E-1,-3.3208638E-1,4.396941E-1,-1.3931291E-2,2.228077E-3,-1.1418643E-2,-4.9158495E-2,2.017021E-2,-4.0899932E-2,2.4882356E-2,-1.7417727E-2],"categories":[],"categories_nodes":[],"categories_segments":[],"categories_sizes":[],"default_left":[0,0,0,0,0,0,0,0,0,0,0,0,0,0,0],"id":3,"left_children":[1,3,5,7,9,11,13,-1,-1,-1,-1,-1,-1,-1,-1],"loss_changes":[3.726161E1,3.1202913E1,1.9673054E1,2.2430887E1,2.1356792E1,1.3978233E1,1.1838322E1,0E0,0E0,0E0,0E0,0E0,0E0,0E0,0E0],"parents":[2147483647,0,0,1,1,2,2,3,3,4,4,5,5,6,6],"right_children":[2,4,6,8,10,12,14,-1,-1,-1,-1,-1,-1,-1,-1],"split_conditions":[6.532258E-1,1.7E1,2.5E1,3.5532996E-1,1.2746409E0,1E0,2.7131492E-1,-1.3931291E-2,2.228077E-3,-1.1418643E-2,-4.9158495E-2,2.017021E-2,-4.0899932E-2,2.4882356E-2,-1.7417727E-2],"split_indices":[4,10,14,4,9,25,7,0,0,0,0,0,0,0,0],"split_type":[0,0,0,0,0,0,0,0,0,0,0,0,0,0,0],"sum_hessian":[2.3379592E3,2.0463501E3,2.9160916E2,1.8356476E3,2.1070259E2,3.718932E1,2.5441983E2,2.4730298E2,1.5883446E3,1.625902E2,4.81124E1,1.4862627E1,2.2326693E1,2.3733476E2,1.7085064E1],"tree_param":{"num_deleted":"0","num_feature":"27","num_nodes":"15","size_leaf_vector":"1"}},{"base_weights":[1.175192E-2,-3.109434E-1,6.203341E-2,2.4091615E-1,-3.9678374E-1,4.9119117E-3,2.4173525E-1,2.7655775E-2,-4.819573E-2,-1.5848467E-2,-4.352659E-2,2.4421697E-3,-1.3515266E-2,2.7754083E-2,6.5167467E-3],"categories":[],"categories_nodes":[],"categories_segments":[],"categories_sizes":[],"default_left":[0,0,0,0,0,0,0,0,0,0,0,0,0,0,0],"id":4,"left_children":[1,3,5,7,9,11,13,-1,-1,-1,-1,-1,-1,-1,-1],"loss_changes":[3.8107727E1,1.5094749E1,2.085493E1,1.6798918E1,1.0099022E1,1.8666185E1,1.7033688E1,0E0,0E0,0E0,0E0,0E0,0E0,0E0,0E0],"parents":[2147483647,0,0,1,1,2,2,3,3,4,4,5,5,6,6],"right_children":[2,4,6,8,10,12,14,-1,-1,-1,-1,-1,-1,-1,-1],"split_conditions":[3.6231884E-1,8.152393E-3,5.9090906E-1,1.09E2,1.16E2,1.1E1,9.470518E-3,2.7655775E-2,-4.819573E-2,-1.5848467E-2,-4.352659E-2,2.4421697E-3,-1.3515266E-2,2.7754083E-2,6.5167467E-3],"split_indices":[4,8,4,3,2,10,8,0,0,0,0,0,0,0,0],"split_type":[0,0,0,0,0,0,0,0,0,0,0,0,0,0,0],"sum_hessian":[2.3464282E3,3.156262E2,2.030802E3,4.2243046E1,2.7338312E2,1.5417546E3,4.8904742E2,3.397918E1,8.263868E0,2.3539429E2,3.798884E1,1.3302382E3,2.115164E2,1.2722017E2,3.6182724E2],"tree_param":{"num_deleted":"0","num_feature":"27","num_nodes":"15","size_leaf_vector":"1"}},{"base_weights":[5.981409E-3,-2.752256E-1,5.7984285E-2,-2.601772E-2,-4.4849896E-1,1.0111161E-1,-2.2738375E-1,1.4995961E-2,-2.0516893E-2,-1.1594231E-2,-4.3574892E-2,-2.598254E-3,9.0535255E-3,-2.0748995E-2,7.976752E-3],"categories":[],"categories_nodes":[],"categories_segments":[],"categories_sizes":[],"default_left":[0,0,0,0,0,0,0,0,0,0,0,0,0,0,0],"id":5,"left_children":[1,3,5,7,9,11,13,-1,-1,-1,-1,-1,-1,-1,-1],"loss_changes":[3.4638702E1,1.5951368E1,2.4624037E1,1.9248146E1,1.9772598E1,2.1272224E1,1.913713E1,0E0,0E0,0E0,0E0,0E0,0E0,0E0,0E0],"parents":[2147483647,0,0,1,1,2,2,3,3,4,4,5,5,6,6],"right_children":[2,4,6,8,10,12,14,-1,-1,-1,-1,-1,-1,-1,-1],"split_conditions":[3.7704918E-1,1.7E1,1.1E1,1.1E1,3E0,4.3E1,8E0,1.4995961E-2,-2.0516893E-2,-1.1594231E-2,-4.3574892E-2,-2.598254E-3,9.0535255E-3,-2.0748995E-2,7.976752E-3],"split_indices":[4,16,10,3,17,14,13,0,0,0,0,0,0,0,0],"split_type":[0,0,0,0,0,0,0,0,0,0,0,0,0,0,0],"sum_hessian":[2.366598E3,3.6867657E2,1.9979214E3,1.5167802E2,2.1699855E2,1.7361803E3,2.6174115E2,8.219182E1,6.9486206E1,1.4453271E2,7.246584E1,5.958362E2,1.140344E3,1.7622606E2,8.551508E1],"tree_param":{"num_deleted":"0","num_feature":"27","num_nodes":"15","size_leaf_vector":"1"}},{"base_weights":[-1.7750494E-2,1.8567951E-1,-6.600468E-2,5.226084E-1,7.935228E-2,-3.777517E-1,-4.179313E-2,3.5841286E-2,-1.3256513E-2,7.327836E-2,2.7025987E-3,2.2069803E-2,-2.4120305E-2,-4.836844E-3,4.627184E-3],"categories":[],"categories_nodes":[],"categories_segments":[],"categories_sizes":[],"default_left":[0,0,0,0,0,0,0,0,0,0,0,0,0,0,0],"id":6,"left_children":[1,3,5,7,9,11,13,-1,-1,-1,-1,-1,-1,-1,-1],"loss_changes":[2.282522E1,1.5930154E1,1.4167804E1,1.6524279E1,1.1847328E1,1.1811886E1,1.28876295E1,0E0,0E0,0E0,0E0,0E0,0E0,0E0,0E0],"parents":[2147483647,0,0,1,1,2,2,3,3,4,4,5,5,6,6],"right_children":[2,4,6,8,10,12,14,-1,-1,-1,-1,-1,-1,-1,-1],"split_conditions":[1.4E1,9.812054E-3,-1.7330435E-1,9.8E1,3.2823E2,-5.724578E-1,9E0,3.5841286E-2,-1.3256513E-2,7.327836E-2,2.7025987E-3,2.2069803E-2,-2.4120305E-2,-4.836844E-3,4.627184E-3],"split_indices":[2,8,1,3,0,7,13,0,0,0,0,0,0,0,0],"split_type":[0,0,0,0,0,0,0,0,0,0,0,0,0,0,0],"sum_hessian":[2.3229768E3,4.4482697E2,1.8781498E3,1.0576489E2,3.3906207E2,1.343004E2,1.7438494E3,8.4918274E1,2.0846615E1,5.0570536E0,3.34005E2,1.4849917E1,1.1945048E2,1.237849E3,5.060003E2],"tree_param":{"num_deleted":"0","num_feature":"27","num_nodes":"15","size_leaf_vector":"1"}},{"base_weights":[2.618494E-2,4.892531E-2,-4.61689E-1,8.663273E-2,-2.6989567E-1,1.2905894E-1,-7.5658584E-1,-2.1300955E-2,5.3137373E-3,-8.254175E-3,-4.388176E-2,-1.6072692E-2,3.2135367E-2,-7.5493224E-2,-2.8412301E-2],"categories":[],"categories_nodes":[],"categories_segments":[],"categories_sizes":[],"default_left":[0,0,0,0,0,0,0,0,0,0,0,0,0,0,0],"id":7,"left_children":[1,3,5,7,9,11,13,-1,-1,-1,-1,-1,-1,-1,-1],"loss_changes":[2.6255817E1,2.719458E1,1.845958E1,2.0404392E1,1.5096985E1,8.525665E0,9.137096E0,0E0,0E0,0E0,0E0,0E0,0E0,0E0,0E0],"parents":[2147483647,0,0,1,1,2,2,3,3,4,4,5,5,6,6],"right_children":[2,4,6,8,10,12,14,-1,-1,-1,-1,-1,-1,-1,-1],"split_conditions":[1E0,1.7E1,8.384749E-1,-2.2717926E-1,1.4142591E0,5.254237E-1,-1.8022527E-1,-2.1300955E-2,5.3137373E-3,-8.254175E-3,-4.388176E-2,-1.6072692E-2,3.2135367E-2,-7.5493224E-2,-2.8412301E-2],"split_indices":[20,10,9,1,9,4,7,0,0,0,0,0,0,0,0],"split_type":[0,0,0,0,0,0,0,0,0,0,0,0,0,0,0],"sum_hessian":[2.36354E3,2.2591387E3,1.0440135E2,2.0208572E3,2.382814E2,3.495021E1,6.945115E1,7.38076E1,1.9470496E3,2.043162E2,3.3965214E1,1.8818754E1,1.6131454E1,1.2487963E1,5.6963184E1],"tree_param":{"num_deleted":"0","num_feature":"27","num_nodes":"15","size_leaf_vector":"1"}},{"base_weights":[1.2415466E-2,3.7594713E-2,-5.257103E-1,1.0040083E-1,-1.67087E-1,2.8340656E-2,-7.9419273E-1,-7.595859E-2,5.384703E-3,-1.0151007E-2,3.5546556E-2,1.6906863E-2,-4.718753E-2,-6.966784E-2,-2.839278E-2],"categories":[],"categories_nodes":[],"categories_segments":[],"categories_sizes":[],"default_left":[0,0,0,0,0,0,0,0,0,0,0,0,0,0,0],"id":8,"left_children":[1,3,5,7,9,11,13,-1,-1,-1,-1,-1,-1,-1,-1],"loss_changes":[3.1763916E1,2.88E1,1.561009E1,2.0408329E1,1.6742691E1,1.0910412E1,8.785618E0,0E0,0E0,0E0,0E0,0E0,0E0,0E0,0E0],"parents":[2147483647,0,0,1,1,2,2,3,3,4,4,5,5,6,6],"right_children":[2,4,6,8,10,12,14,-1,-1,-1,-1,-1,-1,-1,-1],"split_conditions":[1E0,4E1,8.384749E-1,-2.8935418E-1,1E0,4.8635565E-2,4.1025642E-1,-7.595859E-2,5.384703E-3,-1.0151007E-2,3.5546556E-2,1.6906863E-2,-4.718753E-2,-6.966784E-2,-2.839278E-2],"split_indices":[20,2,9,9,19,6,4,0,0,0,0,0,0,0,0],"split_type":[0,0,0,0,0,0,0,0,0,0,0,0,0,0,0],"sum_hessian":[2.3418108E3,2.2380225E3,1.0378837E2,1.7129249E3,5.2509766E2,3.4169434E1,6.9618935E1,6.7497087E0,1.7061752E3,5.0519128E2,1.9906328E1,2.6406178E1,7.7632537E0,1.7674515E1,5.1944424E1],"tree_param":{"num_deleted":"0","num_feature":"27","num_nodes":"15","size_leaf_vector":"1"}},{"base_weights":[1.9309621E-2,-2.6186547E-1,6.355698E-2,-9.9358004E-1,-2.1886122E-1,-8.937134E-2,1.4220434E-1,-1.182996E-2,-6.5896116E-2,-7.0920126E-3,-3.0863276E-2,6.3880025E-3,-1.0820298E-2,2.3487156E-2,3.7656499E-3],"categories":[],"categories_nodes":[],"categories_segments":[],"categories_sizes":[],"default_left":[0,0,0,0,0,0,0,0,0,0,0,0,0,0,0],"id":9,"left_children":[1,3,5,7,9,11,13,-1,-1,-1,-1,-1,-1,-1,-1],"loss_changes":[2.9092283E1,9.787724E0,2.4308975E1,3.9522076E0,9.166952E0,1.8968174E1,2.9200808E1,0E0,0E0,0E0,0E0,0E0,0E0,0E0,0E0],"parents":[2147483647,0,0,1,1,2,2,3,3,4,4,5,5,6,6],"right_children":[2,4,6,8,10,12,14,-1,-1,-1,-1,-1,-1,-1,-1],"split_conditions":[3.644068E-1,-2.5444373E-1,4.3E1,2.4358974E-1,1.22E2,9.3446386E-1,6.5E1,-1.182996E-2,-6.5896116E-2,-7.0920126E-3,-3.0863276E-2,6.3880025E-3,-1.0820298E-2,2.3487156E-2,3.7656499E-3],"split_indices":[4,1,14,4,14,9,14,0,0,0,0,0,0,0,0],"split_type":[0,0,0,0,0,0,0,0,0,0,0,0,0,0,0],"sum_hessian":[2.3360344E3,3.1695947E2,2.019075E3,1.6367268E1,3.005922E2,6.856687E2,1.3334062E3,5.428108E0,1.0939159E1,2.530313E2,4.7560905E1,2.5308408E2,4.3258463E2,2.2511081E2,1.1082954E3],"tree_param":{"num_deleted":"0","num_feature":"27","num_nodes":"15","size_leaf_vector":"1"}},{"base_weights":[5.8102747E-3,-2.3766707E-1,7.2328255E-2,-3.6892742E-2,-3.3340535E-1,7.070207E-2,6.490919E-2,6.669331E-3,-3.3530604E-2,4.374865E-3,-2.14478E-2,2.4137923E-3,3.1202143E-2],"categories":[],"categories_nodes":[],"categories_segments":[],"categories_sizes":[],"default_left":[0,0,0,0,0,0,0,0,0,0,0,0,0],"id":10,"left_children":[1,3,5,7,9,-1,11,-1,-1,-1,-1,-1,-1],"loss_changes":[3.7964287E1,9.656223E0,1.8234491E1,1.7736177E1,1.3730198E1,0E0,1.7007694E1,0E0,0E0,0E0,0E0,0E0,0E0],"parents":[2147483647,0,0,1,1,2,2,3,3,4,4,6,6],"right_children":[2,4,6,8,10,-1,12,-1,-1,-1,-1,-1,-1],"split_conditions":[4.181818E-1,8.55761E-1,2.8804E2,1.1E2,-7.2112314E-2,7.070207E-2,1.33E2,6.669331E-3,-3.3530604E-2,4.374865E-3,-2.14478E-2,2.4137923E-3,3.1202143E-2],"split_indices":[4,9,0,3,5,0,14,0,0,0,0,0,0],"split_type":[0,0,0,0,0,0,0,0,0,0,0,0,0],"sum_hessian":[2.3420466E3,5.019981E2,1.8400485E3,1.6253294E2,3.3946515E2,9.076074E0,1.8309724E3,1.287323E2,3.3800644E1,6.282111E1,2.7664404E2,1.7791324E3,5.1840023E1],"tree_param":{"num_deleted":"0","num_feature":"27","num_nodes":"13","size_leaf_vector":"1"}},{"base_weights":[2.2676732E-2,5.1727638E-2,-2.5045413E-1,7.205688E-2,-3.6539444E-1,-1.4475693E-1,-8.6600393E-1,7.7509596E-3,-1.7708456E-3,-1.1922671E-2,-6.2246937E-2,6.207357E-2,-9.420699E-3,3.922912E-3,-5.6831736E-2],"categories":[],"categories_nodes":[],"categories_segments":[],"categories_sizes":[],"default_left":[0,0,0,0,0,0,0,0,0,0,0,0,0,0,0],"id":11,"left_children":[1,3,5,7,9,11,13,-1,-1,-1,-1,-1,-1,-1,-1],"loss_changes":[1.8612686E1,1.7999847E1,1.4547817E1,1.8033382E1,1.0719179E1,1.1954962E1,8.485579E0,0E0,0E0,0E0,0E0,0E0,0E0,0E0,0E0],"parents":[2147483647,0,0,1,1,2,2,3,3,4,4,5,5,6,6],"right_children":[2,4,6,8,10,12,14,-1,-1,-1,-1,-1,-1,-1,-1],"split_conditions":[1.7E1,1E0,1.4235218E0,2.9E1,3.3996526E-2,-4.1030648E-1,1.7E1,7.7509596E-3,-1.7708456E-3,-1.1922671E-2,-6.2246937E-2,6.207357E-2,-9.420699E-3,3.922912E-3,-5.6831736E-2],"split_indices":[10,20,9,2,8,7,16,0,0,0,0,0,0,0,0],"split_type":[0,0,0,0,0,0,0,0,0,0,0,0,0,0,0],"sum_hessian":[2.3431006E3,2.1185742E3,2.2452643E2,2.0209086E3,9.766562E1,1.9267673E2,3.1849707E1,1.1402626E3,8.80646E2,8.645853E1,1.1207092E1,5.0450773E0,1.8763165E2,7.2518587E0,2.4597847E1],"tree_param":{"num_deleted":"0","num_feature":"27","num_nodes":"15","size_leaf_vector":"1"}},{"base_weights":[5.4387865E-3,-5.4280218E-2,2.2714393E-1,-2.9261509E-2,-5.688774E-1,-8.417473E-2,2.509434E-1,-1.18944E-2,1.1878714E-3,-3.583024E-2,3.5841092E-2,2.5541786E-2,6.9656656E-3],"categories":[],"categories_nodes":[],"categories_segments":[],"categories_sizes":[],"default_left":[0,0,0,0,0,0,0,0,0,0,0,0,0],"id":12,"left_children":[1,3,5,7,9,-1,11,-1,-1,-1,-1,-1,-1],"loss_changes":[3.1035362E1,2.3759007E1,2.3040829E1,1.949706E1,1.6765642E1,0E0,1.4207333E1,0E0,0E0,0E0,0E0,0E0,0E0],"parents":[2147483647,0,0,1,1,2,2,3,3,4,4,6,6],"right_children":[2,4,6,8,10,-1,12,-1,-1,-1,-1,-1,-1],"split_conditions":[5.9090906E-1,2.287941E-2,-2.8935418E-1,3.7704918E-1,1.00001E5,-8.417473E-2,9.881528E-3,-1.18944E-2,1.1878714E-3,-3.583024E-2,3.5841092E-2,2.5541786E-2,6.9656656E-3],"split_indices":[4,5,9,4,0,0,8,0,0,0,0,0,0],"split_type":[0,0,0,0,0,0,0,0,0,0,0,0,0],"sum_hessian":[2.3421274E3,1.8457163E3,4.9641116E2,1.7611495E3,8.456678E1,5.2493935E0,4.9116177E2,3.5616678E2,1.4049828E3,7.624843E1,8.318345E0,1.4650323E2,3.4465854E2],"tree_param":{"num_deleted":"0","num_feature":"27","num_nodes":"13","size_leaf_vector":"1"}},{"base_weights":[7.42892E-3,-5.1105794E-2,1.5953547E-1,1.0686315E-1,-1.21020645E-1,-6.1492015E-2,1.8186402E-1,2.3910478E-2,1.0770749E-3,-1.0051529E-2,2.2102154E-3,2.3183225E-2,3.4898475E-3],"categories":[],"categories_nodes":[],"categories_segments":[],"categories_sizes":[],"default_left":[0,0,0,0,0,0,0,0,0,0,0,0,0],"id":13,"left_children":[1,3,5,7,9,-1,11,-1,-1,-1,-1,-1,-1],"loss_changes":[2.0996237E1,1.8821262E1,2.0552977E1,1.6560549E1,1.5620909E1,0E0,2.0362667E1,0E0,0E0,0E0,0E0,0E0,0E0],"parents":[2147483647,0,0,1,1,2,2,3,3,4,4,6,6],"right_children":[2,4,6,8,10,-1,12,-1,-1,-1,-1,-1,-1],"split_conditions":[5.566667E-1,8.523883E-1,-2.7163161E-2,1.6E1,8E0,-6.1492015E-2,9.94678E-3,2.3910478E-2,1.0770749E-3,-1.0051529E-2,2.2102154E-3,2.3183225E-2,3.4898475E-3],"split_indices":[4,9,9,2,13,0,8,0,0,0,0,0,0],"split_type":[0,0,0,0,0,0,0,0,0,0,0,0,0],"sum_hessian":[2.3562812E3,1.701978E3,6.5430316E2,5.2200555E2,1.1799725E3,9.493586E0,6.4480963E2,9.666865E1,4.2533688E2,7.948507E2,3.851219E2,1.825749E2,4.622347E2],"tree_param":{"num_deleted":"0","num_feature":"27","num_nodes":"13","size_leaf_vector":"1"}},{"base_weights":[1.7781507E-2,-3.492738E-2,2.5261366E-1,-5.1616573E-1,-1.9233901E-2,2.2012061E-1,1.0775775E0,-3.1187013E-2,1.5973E-2,3.1982006E-5,-1.960901E-2,-7.290956E-4,1.6513968E-2,6.701019E-2,2.73246E-2],"categories":[],"categories_nodes":[],"categories_segments":[],"categories_sizes":[],"default_left":[0,0,0,0,0,0,0,0,0,0,0,0,0,0,0],"id":14,"left_children":[1,3,5,7,9,11,13,-1,-1,-1,-1,-1,-1,-1,-1],"loss_changes":[2.8957317E1,1.4421903E1,1.1258017E1,5.6206055E0,1.3723932E1,1.0704523E1,1.498373E0,0E0,0E0,0E0,0E0,0E0,0E0,0E0,0E0],"parents":[2147483647,0,0,1,1,2,2,3,3,4,4,5,5,6,6],"right_children":[2,4,6,8,10,12,14,-1,-1,-1,-1,-1,-1,-1,-1],"split_conditions":[6.111111E-1,-2.7651155E-1,1.33E2,5.4545456E-1,1E0,8.796454E-1,9.170184E-3,-3.1187013E-2,1.5973E-2,3.1982006E-5,-1.960901E-2,-7.290956E-4,1.6513968E-2,6.701019E-2,2.73246E-2],"split_indices":[4,1,14,4,20,9,5,0,0,0,0,0,0,0,0],"split_type":[0,0,0,0,0,0,0,0,0,0,0,0,0,0,0],"sum_hessian":[2.337754E3,1.9099176E3,4.278363E2,5.9309498E1,1.850608E3,4.128424E2,1.4993906E1,5.2769733E1,6.539764E0,1.7579299E3,9.267819E1,1.3215105E2,2.8069135E2,9.013256E0,5.9806495E0],"tree_param":{"num_deleted":"0","num_feature":"27","num_nodes":"15","size_leaf_vector":"1"}},{"base_weights":[6.264549E-3,-5.4394704E-1,2.4503388E-2,-7.2275246E-3,-6.939457E-1,-1.4607865E-1,7.1799695E-2,-3.315865E-2,3.2260876E-2,-6.505901E-2,-2.5309253E-2,-3.2147304E-3,-1.7533248E-2,8.3138887E-4,1.0097711E-2],"categories":[],"categories_nodes":[],"categories_segments":[],"categories_sizes":[],"default_left":[0,0,0,0,0,0,0,0,0,0,0,0,0,0,0],"id":15,"left_children":[1,3,5,7,9,11,13,-1,-1,-1,-1,-1,-1,-1,-1],"loss_changes":[2.340876E1,6.0204887E0,1.8223671E1,7.85684E0,6.009594E0,8.182398E0,1.2693222E1,0E0,0E0,0E0,0E0,0E0,0E0,0E0,0E0],"parents":[2147483647,0,0,1,1,2,2,3,3,4,4,5,5,6,6],"right_children":[2,4,6,8,10,12,14,-1,-1,-1,-1,-1,-1,-1,-1],"split_conditions":[-2.5444373E-1,2E0,4.2105263E-1,-2.4406347E-1,3.5849056E-1,4E1,9E0,-3.315865E-2,3.2260876E-2,-6.505901E-2,-2.5309253E-2,-3.2147304E-3,-1.7533248E-2,8.3138887E-4,1.0097711E-2],"split_indices":[1,10,4,7,4,2,13,0,0,0,0,0,0,0,0],"split_type":[0,0,0,0,0,0,0,0,0,0,0,0,0,0,0],"sum_hessian":[2.3303318E3,7.384432E1,2.2564873E3,1.635864E1,5.7485683E1,4.893774E2,1.76711E3,8.149238E0,8.209402E0,1.2176338E1,4.5309345E1,3.5055585E2,1.3882156E2,1.2418312E3,5.252788E2],"tree_param":{"num_deleted":"0","num_feature":"27","num_nodes":"15","size_leaf_vector":"1"}},{"base_weights":[-3.9579757E-3,-6.436893E-2,1.9619496E-1,-3.0758658E-2,-3.4049824E-1,7.3209606E-2,1.7601389E-1,-4.6698702E-4,-2.5285427E-2,-3.101312E-2,-8.144486E-3,1.9845922E-2,2.17021E-3],"categories":[],"categories_nodes":[],"categories_segments":[],"categories_sizes":[],"default_left":[0,0,0,0,0,0,0,0,0,0,0,0,0],"id":16,"left_children":[1,3,5,7,9,-1,11,-1,-1,-1,-1,-1,-1],"loss_changes":[2.7912857E1,1.6446383E1,1.3438314E1,1.6087841E1,9.454811E0,0E0,1.5449209E1,0E0,0E0,0E0,0E0,0E0,0E0],"parents":[2147483647,0,0,1,1,2,2,3,3,4,4,6,6],"right_children":[2,4,6,8,10,-1,12,-1,-1,-1,-1,-1,-1],"split_conditions":[5.75E-1,1.7E1,2.8804E2,2.287941E-2,4.4E1,7.3209606E-2,1.0992574E-2,-4.6698702E-4,-2.5285427E-2,-3.101312E-2,-8.144486E-3,1.9845922E-2,2.17021E-3],"split_indices":[4,10,0,5,14,0,8,0,0,0,0,0,0],"split_type":[0,0,0,0,0,0,0,0,0,0,0,0,0],"sum_hessian":[2.3064382E3,1.7722185E3,5.3421967E2,1.5809034E3,1.9131512E2,7.248311E0,5.269714E2,1.5136611E3,6.724225E1,7.332433E1,1.1799079E2,1.9692899E2,3.300424E2],"tree_param":{"num_deleted":"0","num_feature":"27","num_nodes":"13","size_leaf_vector":"1"}},{"base_weights":[9.663283E-3,-3.4636015E-1,3.330636E-2,1.4855242E-1,-4.9481636E-1,-8.509831E-6,2.564155E-1,-2.0443914E-2,2.875262E-2,2.4993064E-2,-2.9757136E-2,9.196824E-3,-1.8183576E-3,-9.275882E-3,1.6070267E-2],"categories":[],"categories_nodes":[],"categories_segments":[],"categories_sizes":[],"default_left":[0,0,0,0,0,0,0,0,0,0,0,0,0,0,0],"id":17,"left_children":[1,3,5,7,9,11,13,-1,-1,-1,-1,-1,-1,-1,-1],"loss_changes":[1.9576576E1,1.0714687E1,1.6207336E1,8.363295E0,1.1438581E1,1.2701883E1,8.196129E0,0E0,0E0,0E0,0E0,0E0,0E0,0E0,0E0],"parents":[2147483647,0,0,1,1,2,2,3,3,4,4,5,5,6,6],"right_children":[2,4,6,8,10,12,14,-1,-1,-1,-1,-1,-1,-1,-1],"split_conditions":[-1.6431992E-1,2E0,6.532258E-1,-1.8396495E-1,-5.724578E-1,-4.743742E-2,8E0,-2.0443914E-2,2.875262E-2,2.4993064E-2,-2.9757136E-2,9.196824E-3,-1.8183576E-3,-9.275882E-3,1.6070267E-2],"split_indices":[1,10,4,7,7,5,2,0,0,0,0,0,0,0,0],"split_type":[0,0,0,0,0,0,0,0,0,0,0,0,0,0,0],"sum_hessian":[2.323332E3,1.4383148E2,2.1795005E3,3.3188717E1,1.1064277E2,1.8972075E3,2.822929E2,1.4404073E1,1.8784645E1,9.7724285E0,1.00870346E2,3.1244293E2,1.5847646E3,3.595348E1,2.4633942E2],"tree_param":{"num_deleted":"0","num_feature":"27","num_nodes":"15","size_leaf_vector":"1"}},{"base_weights":[-2.804624E-3,-9.088245E-2,9.5108576E-2,-6.9814444E-1,-6.719373E-2,7.0335045E-2,8.978967E-1,-1.6264282E-2,-5.9903245E-2,-5.344126E-4,-1.178988E-2,5.605062E-3,-1.4356935E-2,5.56776E-2,-1.3195695E-2],"categories":[],"categories_nodes":[],"categories_segments":[],"categories_sizes":[],"default_left":[0,0,0,0,0,0,0,0,0,0,0,0,0,0,0],"id":18,"left_children":[1,3,5,7,9,11,13,-1,-1,-1,-1,-1,-1,-1,-1],"loss_changes":[2.0238056E1,1.7724512E1,2.2038761E1,8.236052E0,1.1335758E1,1.6144117E1,8.607943E0,0E0,0E0,0E0,0E0,0E0,0E0,0E0,0E0],"parents":[2147483647,0,0,1,1,2,2,3,3,4,4,5,5,6,6],"right_children":[2,4,6,8,10,12,14,-1,-1,-1,-1,-1,-1,-1,-1],"split_conditions":[5.1339287E-1,-2.7651155E-1,1.33E2,6E0,4.2E1,8.2227886E-2,1.39E2,-1.6264282E-2,-5.9903245E-2,-5.344126E-4,-1.178988E-2,5.605062E-3,-1.4356935E-2,5.56776E-2,-1.3195695E-2],"split_indices":[4,1,14,3,16,1,3,0,0,0,0,0,0,0,0],"split_type":[0,0,0,0,0,0,0,0,0,0,0,0,0,0,0],"sum_hessian":[2.344716E3,1.2343911E3,1.1103248E3,4.527563E1,1.1891155E3,1.0781417E3,3.2183155E1,2.6878984E1,1.8396646E1,8.91428E2,2.9768756E2,9.659673E2,1.121744E2,2.7179613E1,5.0035424E0],"tree_param":{"num_deleted":"0","num_feature":"27","num_nodes":"15","size_leaf_vector":"1"}},{"base_weights":[6.418887E-3,5.565289E-2,-1.6053595E-1,6.3649796E-2,-6.152829E-2,-1.1859063E-1,-8.18137E-1,-2.9278924E-3,6.4617814E-3,-1.5811965E-2,-6.9956307E-4,-9.819158E-3,-5.58719E-2],"categories":[],"categories_nodes":[],"categories_segments":[],"categories_sizes":[],"default_left":[0,0,0,0,0,0,0,0,0,0,0,0,0],"id":19,"left_children":[1,3,5,7,-1,9,11,-1,-1,-1,-1,-1,-1],"loss_changes":[1.9204128E1,1.8635403E1,1.45792675E1,1.43862705E1,0E0,1.0360201E1,5.6859646E0,0E0,0E0,0E0,0E0,0E0,0E0],"parents":[2147483647,0,0,1,1,2,2,3,3,5,5,6,6],"right_children":[2,4,6,8,-1,10,12,-1,-1,-1,-1,-1,-1],"split_conditions":[4E1,1.22314565E-1,2.5433002E-2,4.5E1,-6.152829E-2,-5.6847874E-2,1.1482649E-2,-2.9278924E-3,6.4617814E-3,-1.5811965E-2,-6.9956307E-4,-9.819158E-3,-5.58719E-2],"split_indices":[2,5,5,14,0,1,8,0,0,0,0,0,0],"split_type":[0,0,0,0,0,0,0,0,0,0,0,0,0],"sum_hessian":[2.334223E3,1.803151E3,5.31072E2,1.792954E3,1.0196954E1,5.0033813E2,3.0733904E1,6.262167E2,1.1667373E3,1.7245244E2,3.2788568E2,1.0525293E1,2.020861E1],"tree_param":{"num_deleted":"0","num_feature":"27","num_nodes":"13","size_leaf_vector":"1"}},{"base_weights":[-2.718721E-3,-2.0535538E-1,4.571649E-2,-1.9843818E-3,-3.507037E-1,5.1394273E-3,3.159337E-1,-4.185958E-3,3.973576E-2,-1.3848366E-2,-3.9421488E-2,-2.1877624E-4,4.4009805E-2,2.243842E-2,-1.7839065E-2],"categories":[],"categories_nodes":[],"categories_segments":[],"categories_sizes":[],"default_left":[0,0,0,0,0,0,0,0,0,0,0,0,0,0,0],"id":20,"left_children":[1,3,5,7,9,11,13,-1,-1,-1,-1,-1,-1,-1,-1],"loss_changes":[2.2865679E1,1.3284397E1,2.0615547E1,1.2330373E1,8.241306E0,1.3624201E1,2.2096062E1,0E0,0E0,0E0,0E0,0E0,0E0,0E0,0E0],"parents":[2147483647,0,0,1,1,2,2,3,3,4,4,5,5,6,6],"right_children":[2,4,6,8,10,12,14,-1,-1,-1,-1,-1,-1,-1,-1],"split_conditions":[2.7E1,-7.684307E-3,6.532258E-1,1.9E2,9.2306554E-2,2.50001E5,4.3E1,-4.185958E-3,3.973576E-2,-1.3848366E-2,-3.9421488E-2,-2.1877624E-4,4.4009805E-2,2.243842E-2,-1.7839065E-2],"split_indices":[14,5,4,3,6,0,16,0,0,0,0,0,0,0,0],"split_type":[0,0,0,0,0,0,0,0,0,0,0,0,0,0,0],"sum_hessian":[2.3277698E3,4.4843378E2,1.8793362E3,1.873324E2,2.6110138E2,1.6348574E3,2.4447871E2,1.7071352E2,1.6618876E1,2.2485632E2,3.6245045E1,1.6182562E3,1.6601152E1,2.0444232E2,4.0036392E1],"tree_param":{"num_deleted":"0","num_feature":"27","num_nodes":"15","size_leaf_vector":"1"}},{"base_weights":[8.923811E-3,-1.5462913E-1,5.5953633E-2,-1.8976556E-1,5.296726E-1,1.7292869E-1,-3.0424383E-2,-1.652592E-2,-2.3512605E-3,1.2428883E-2,6.0539473E-2,7.5203436E-3,5.096097E-2,6.8678358E-3,-4.8649507E-3],"categories":[],"categories_nodes":[],"categories_segments":[],"categories_sizes":[],"default_left":[0,0,0,0,0,0,0,0,0,0,0,0,0,0,0],"id":21,"left_children":[1,3,5,7,9,11,13,-1,-1,-1,-1,-1,-1,-1,-1],"loss_changes":[1.8046133E1,1.2699057E1,1.8415154E1,1.0012451E1,4.6490493E0,1.4600859E1,1.1782755E1,0E0,0E0,0E0,0E0,0E0,0E0,0E0,0E0],"parents":[2147483647,0,0,1,1,2,2,3,3,4,4,5,5,6,6],"right_children":[2,4,6,8,10,12,14,-1,-1,-1,-1,-1,-1,-1,-1],"split_conditions":[4.2424244E-1,1E0,-1.0025812E-3,1.0062425E0,2.2488873E-2,1.7077638E-1,9.94678E-3,-1.652592E-2,-2.3512605E-3,1.2428883E-2,6.0539473E-2,7.5203436E-3,5.096097E-2,6.8678358E-3,-4.8649507E-3],"split_indices":[4,19,6,9,8,1,8,0,0,0,0,0,0,0,0],"split_type":[0,0,0,0,0,0,0,0,0,0,0,0,0,0,0],"sum_hessian":[2.3440073E3,5.2298035E2,1.8210269E3,4.9812604E2,2.485429E1,7.730896E2,1.0479374E3,2.5014677E2,2.4797928E2,1.8559708E1,6.2945824E0,7.5419635E2,1.8893246E1,2.983517E2,7.4958563E2],"tree_param":{"num_deleted":"0","num_feature":"27","num_nodes":"15","size_leaf_vector":"1"}},{"base_weights":[-8.8687735E-3,-1.5221472E-2,6.8331555E-2,3.315175E-3,-4.2447272E-1,1.7620316E-3,-1.3233579E-2,3.8006299E-3,-3.4488745E-2],"categories":[],"categories_nodes":[],"categories_segments":[],"categories_sizes":[],"default_left":[0,0,0,0,0,0,0,0,0],"id":22,"left_children":[1,3,-1,5,7,-1,-1,-1,-1],"loss_changes":[2.0300783E1,1.7534344E1,0E0,1.8934515E1,1.3350901E1,0E0,0E0,0E0,0E0],"parents":[2147483647,0,0,1,1,3,3,4,4],"right_children":[2,4,-1,6,8,-1,-1,-1,-1],"split_conditions":[1.35E2,1E0,6.8331555E-2,1.7E1,8.384749E-1,1.7620316E-3,-1.3233579E-2,3.8006299E-3,-3.4488745E-2],"split_indices":[14,20,0,10,9,0,0,0,0],"split_type":[0,0,0,0,0,0,0,0,0],"sum_hessian":[2.3198586E3,2.3101782E3,9.680545E0,2.211024E3,9.915433E1,1.9764379E3,2.34586E2,3.4598564E1,6.455577E1],"tree_param":{"num_deleted":"0","num_feature":"27","num_nodes":"9","size_leaf_vector":"1"}},{"base_weights":[-3.1968139E-3,-1.606038E-1,4.0598873E-2,-5.11014E-2,-3.9372987E-1,2.365595E-2,6.2990665E-1,-3.0090922E-2,-1.458926E-4,-3.8182855E-2,-1.4410378E-2,2.9685623E-3,-1.0432839E-2,9.757338E-3,4.4498798E-2],"categories":[],"categories_nodes":[],"categories_segments":[],"categories_sizes":[],"default_left":[0,0,0,0,0,0,0,0,0,0,0,0,0,0,0],"id":23,"left_children":[1,3,5,7,9,11,13,-1,-1,-1,-1,-1,-1,-1,-1],"loss_changes":[1.6152395E1,1.2999253E1,1.8287842E1,9.236845E0,6.136715E0,1.4805379E1,5.614336E0,0E0,0E0,0E0,0E0,0E0,0E0,0E0,0E0],"parents":[2147483647,0,0,1,1,2,2,3,3,4,4,5,5,6,6],"right_children":[2,4,6,8,10,12,14,-1,-1,-1,-1,-1,-1,-1,-1],"split_conditions":[4.2105263E-1,4E1,1.33E2,-1.6652596E-1,4.3E1,1E1,-2.2765594E-3,-3.0090922E-2,-1.458926E-4,-3.8182855E-2,-1.4410378E-2,2.9685623E-3,-1.0432839E-2,9.757338E-3,4.4498798E-2],"split_indices":[4,2,14,6,2,10,7,0,0,0,0,0,0,0,0],"split_type":[0,0,0,0,0,0,0,0,0,0,0,0,0,0,0],"sum_hessian":[2.3411042E3,5.0900644E2,1.8320978E3,3.4716E2,1.6184645E2,1.7819071E3,5.0190674E1,2.7005762E1,3.2015424E2,3.4536316E1,1.2731013E2,1.5451095E3,2.367976E2,1.9441137E1,3.0749537E1],"tree_param":{"num_deleted":"0","num_feature":"27","num_nodes":"15","size_leaf_vector":"1"}},{"base_weights":[6.4313635E-3,1.9743577E-1,-2.3850197E-2,3.2359323E-1,-4.482196E-1,5.1424044E-1,-3.344452E-2,-2.2628427E-2,1.9446615E-2,-5.439905E-2,-3.5059515E-3,-1.1923894E-3,5.0062448E-2,-2.8586898E-2,-1.1506042E-3],"categories":[],"categories_nodes":[],"categories_segments":[],"categories_sizes":[],"default_left":[0,0,0,0,0,0,0,0,0,0,0,0,0,0,0],"id":24,"left_children":[1,3,5,7,9,11,13,-1,-1,-1,-1,-1,-1,-1,-1],"loss_changes":[1.3479366E1,2.612156E1,1.04031925E1,1.3734953E1,1.2634504E1,9.275198E0,1.1091723E1,0E0,0E0,0E0,0E0,0E0,0E0,0E0,0E0],"parents":[2147483647,0,0,1,1,2,2,3,3,4,4,5,5,6,6],"right_children":[2,4,6,8,10,12,14,-1,-1,-1,-1,-1,-1,-1,-1],"split_conditions":[8.080153E-3,1.11E2,-5.724578E-1,2E0,4.5454547E-1,-7.293526E-1,-3.3925217E-1,-2.2628427E-2,1.9446615E-2,-5.439905E-2,-3.5059515E-3,-1.1923894E-3,5.0062448E-2,-2.8586898E-2,-1.1506042E-3],"split_indices":[8,3,7,13,4,7,1,0,0,0,0,0,0,0,0],"split_type":[0,0,0,0,0,0,0,0,0,0,0,0,0,0,0],"sum_hessian":[2.328679E3,3.1790933E2,2.0107695E3,2.6636243E2,5.154692E1,3.430316E1,1.9764664E3,2.0221775E1,2.4614066E2,1.845048E1,3.3096443E1,1.6748755E1,1.7554409E1,3.6553867E1,1.9399125E3],"tree_param":{"num_deleted":"0","num_feature":"27","num_nodes":"15","size_leaf_vector":"1"}},{"base_weights":[9.480918E-3,1.4760758E-2,-1.0427682E0,-1.5720502E-1,4.5956668E-2,-2.7862826E-2,-6.9296144E-2,9.723875E-3,-1.0554585E-2,1.9890124E-3,5.646941E-2],"categories":[],"categories_nodes":[],"categories_segments":[],"categories_sizes":[],"default_left":[0,0,0,0,0,0,0,0,0,0,0],"id":25,"left_children":[1,3,5,7,9,-1,-1,-1,-1,-1,-1],"loss_changes":[1.2931025E1,1.242167E1,1.1637335E0,6.779377E0,1.30679455E1,0E0,0E0,0E0,0E0,0E0,0E0],"parents":[2147483647,0,0,1,1,2,2,3,3,4,4],"right_children":[2,4,6,8,10,-1,-1,-1,-1,-1,-1],"split_conditions":[1.22314565E-1,3.7704918E-1,2.2E1,8.364717E-3,5.00001E5,-2.7862826E-2,-6.9296144E-2,9.723875E-3,-1.0554585E-2,1.9890124E-3,5.646941E-2],"split_indices":[5,4,3,8,0,0,0,0,0,0,0],"split_type":[0,0,0,0,0,0,0,0,0,0,0],"sum_hessian":[2.32375E3,2.3131296E3,1.0620551E1,3.545657E2,1.9585638E3,5.484598E0,5.135953E0,4.6763348E1,3.0780237E2,1.9484927E3,1.0071241E1],"tree_param":{"num_deleted":"0","num_feature":"27","num_nodes":"11","size_leaf_vector":"1"}},{"base_weights":[1.5991382E-2,1.0333613E-2,1.1476396E0,2.7805578E-2,-3.7736407E-1,7.1207576E-2,3.3947375E-2,1.1182817E-2,-3.0935433E-4,-1.2862702E-2,-5.3561952E-2],"categories":[],"categories_nodes":[],"categories_segments":[],"categories_sizes":[],"default_left":[0,0,0,0,0,0,0,0,0,0,0],"id":26,"left_children":[1,3,5,7,9,-1,-1,-1,-1,-1,-1],"loss_changes":[1.4810876E1,1.56215E1,5.244894E-1,1.4688823E1,8.012635E0,0E0,0E0,0E0,0E0,0E0,0E0],"parents":[2147483647,0,0,1,1,2,2,3,3,4,4],"right_children":[2,4,6,8,10,-1,-1,-1,-1,-1,-1],"split_conditions":[1.36E2,1E0,2.8E1,-4.743742E-2,6.746702E-2,7.1207576E-2,3.3947375E-2,1.1182817E-2,-3.0935433E-4,-1.2862702E-2,-5.3561952E-2],"split_indices":[14,20,16,5,1,0,0,0,0,0,0],"split_type":[0,0,0,0,0,0,0,0,0,0,0],"sum_hessian":[2.3141099E3,2.303602E3,1.0507917E1,2.2051528E3,9.8449036E1,5.3267565E0,5.181161E0,3.2530566E2,1.8798473E3,8.5090576E1,1.3358464E1],"tree_param":{"num_deleted":"0","num_feature":"27","num_nodes":"11","size_leaf_vector":"1"}},{"base_weights":[-3.239988E-4,-1.9849299E-1,2.9377468E-2,-8.9316374E-1,-1.6276325E-1,-3.409193E-3,2.5874892E-1,-6.302481E-2,-1.2115522E-2,-3.136351E-3,-1.8396782E-2,5.256137E-3,-3.2027008E-3,-6.316998E-3,2.1260949E-2],"categories":[],"categories_nodes":[],"categories_segments":[],"categories_sizes":[],"default_left":[0,0,0,0,0,0,0,0,0,0,0,0,0,0,0],"id":27,"left_children":[1,3,5,7,9,11,13,-1,-1,-1,-1,-1,-1,-1,-1],"loss_changes":[1.3748516E1,7.4114733E0,1.5277542E1,3.202054E0,5.9452963E0,1.1711434E1,1.6340876E1,0E0,0E0,0E0,0E0,0E0,0E0,0E0,0E0],"parents":[2147483647,0,0,1,1,2,2,3,3,4,4,5,5,6,6],"right_children":[2,4,6,8,10,12,14,-1,-1,-1,-1,-1,-1,-1,-1],"split_conditions":[3.6231884E-1,-2.5444373E-1,1E0,-4.9544103E-2,3.7E1,-1.4558125E-2,3E0,-6.302481E-2,-1.2115522E-2,-3.136351E-3,-1.8396782E-2,5.256137E-3,-3.2027008E-3,-6.316998E-3,2.1260949E-2],"split_indices":[4,1,21,6,16,6,13,0,0,0,0,0,0,0,0],"split_type":[0,0,0,0,0,0,0,0,0,0,0,0,0,0,0],"sum_hessian":[2.3338445E3,3.034611E2,2.0303835E3,1.367079E1,2.8979028E2,1.7773167E3,2.5306688E2,8.140003E0,5.530787E0,1.9568538E2,9.410491E1,6.3685205E2,1.1404646E3,7.6452736E1,1.7661414E2],"tree_param":{"num_deleted":"0","num_feature":"27","num_nodes":"15","size_leaf_vector":"1"}},{"base_weights":[-4.0203664E-3,4.351267E-2,-1.5188117E-1,3.2346533E-3,2.9852736E-1,-1.8685804E-1,5.1730806E-1,-7.4761565E-4,2.512675E-2,1.7217098E-2,-4.0883143E-2,-1.5230636E-2,-1.2997838E-3,-1.7115964E-2,4.2011984E-2],"categories":[],"categories_nodes":[],"categories_segments":[],"categories_sizes":[],"default_left":[0,0,0,0,0,0,0,0,0,0,0,0,0,0,0],"id":28,"left_children":[1,3,5,7,9,11,13,-1,-1,-1,-1,-1,-1,-1,-1],"loss_changes":[1.633365E1,1.8063549E1,1.3329242E1,1.3808707E1,1.2548346E1,1.0183027E1,8.156744E0,0E0,0E0,0E0,0E0,0E0,0E0,0E0,0E0],"parents":[2147483647,0,0,1,1,2,2,3,3,4,4,5,5,6,6],"right_children":[2,4,6,8,10,12,14,-1,-1,-1,-1,-1,-1,-1,-1],"split_conditions":[4.2E1,6.532258E-1,1E0,1.00001E5,1.4880587E-1,5.21815E-1,4.117647E-1,-7.4761565E-4,2.512675E-2,1.7217098E-2,-4.0883143E-2,-1.5230636E-2,-1.2997838E-3,-1.7115964E-2,4.2011984E-2],"split_indices":[16,4,19,0,6,4,4,0,0,0,0,0,0,0,0],"split_type":[0,0,0,0,0,0,0,0,0,0,0,0,0,0,0],"sum_hessian":[2.3220518E3,1.7577053E3,5.6434644E2,1.5188284E3,2.38877E2,5.369996E2,2.7346869E1,1.4663855E3,5.2442898E1,2.3012299E2,8.754018E0,3.0952618E2,2.2747337E2,7.4514513E0,1.9895418E1],"tree_param":{"num_deleted":"0","num_feature":"27","num_nodes":"15","size_leaf_vector":"1"}},{"base_weights":[8.668068E-3,2.6100712E-2,-3.8955033E-1,5.2778978E-2,-2.059588E-1,-4.695488E-2,-6.0891885E-1,1.8068099E-3,2.3837779E-2,-4.3293172E-3,-4.263051E-2,5.7886867E-3,-4.6627447E-2,-5.3978976E-2,-9.09551E-3],"categories":[],"categories_nodes":[],"categories_segments":[],"categories_sizes":[],"default_left":[0,0,0,0,0,0,0,0,0,0,0,0,0,0,0],"id":29,"left_children":[1,3,5,7,9,11,13,-1,-1,-1,-1,-1,-1,-1,-1],"loss_changes":[1.6219337E1,1.38659E1,7.3359346E0,1.4151469E1,1.775433E1,5.7766786E0,1.1793053E1,0E0,0E0,0E0,0E0,0E0,0E0,0E0,0E0],"parents":[2147483647,0,0,1,1,2,2,3,3,4,4,5,5,6,6],"right_children":[2,4,6,8,10,12,14,-1,-1,-1,-1,-1,-1,-1,-1],"split_conditions":[1E0,1.7E1,1.22671025E-2,1.7077638E-1,1.4142591E0,4.8139695E-2,5.018382E-1,1.8068099E-3,2.3837779E-2,-4.3293172E-3,-4.263051E-2,5.7886867E-3,-4.6627447E-2,-5.3978976E-2,-9.09551E-3],"split_indices":[20,10,8,1,9,1,4,0,0,0,0,0,0,0,0],"split_type":[0,0,0,0,0,0,0,0,0,0,0,0,0,0,0],"sum_hessian":[2.3339424E3,2.2369507E3,9.699162E1,2.0069932E3,2.2995746E2,3.8335613E1,5.865601E1,1.9322306E3,7.476256E1,1.950795E2,3.487796E1,3.31192E1,5.2164097E0,2.717488E1,3.1481129E1],"tree_param":{"num_deleted":"0","num_feature":"27","num_nodes":"15","size_leaf_vector":"1"}},{"base_weights":[1.1317353E-2,6.382817E-3,5.3786077E-2,-1.9774348E-2,1.9759099E-1,-3.6665865E-3,5.5856155E-3,-1.483151E-2,2.4822375E-2],"categories":[],"categories_nodes":[],"categories_segments":[],"categories_sizes":[],"default_left":[0,0,0,0,0,0,0,0,0],"id":30,"left_children":[1,3,-1,5,7,-1,-1,-1,-1],"loss_changes":[1.2272871E1,1.164818E1,0E0,1.4436824E1,4.1541576E1,0E0,0E0,0E0,0E0],"parents":[2147483647,0,0,1,1,3,3,4,4],"right_children":[2,4,-1,6,8,-1,-1,-1,-1],"split_conditions":[5.00001E5,1.71E2,5.3786077E-2,5.6179774E-1,1.4916126E-2,-3.6665865E-3,5.5856155E-3,-1.483151E-2,2.4822375E-2],"split_indices":[0,3,0,4,8,0,0,0,0],"split_type":[0,0,0,0,0,0,0,0,0],"sum_hessian":[2.3369558E3,2.327173E3,9.782685E0,2.0479159E3,2.792571E2,1.455501E3,5.9241504E2,1.0523562E2,1.7402148E2],"tree_param":{"num_deleted":"0","num_feature":"27","num_nodes":"9","size_leaf_vector":"1"}},{"base_weights":[4.9706134E-3,9.796035E-2,-5.6934547E-2,-8.798377E-3,2.400858E-1,5.4354716E-2,-1.3484827E-1,9.52747E-3,-8.462726E-3,1.4682985E-2,-1.5088362E-2,-3.5290115E-3,1.8770201E-2,4.880463E-2,-8.045807E-3],"categories":[],"categories_nodes":[],"categories_segments":[],"categories_sizes":[],"default_left":[0,0,0,0,0,0,0,0,0,0,0,0,0,0,0],"id":31,"left_children":[1,3,5,7,9,11,13,-1,-1,-1,-1,-1,-1,-1,-1],"loss_changes":[1.331034E1,1.4023244E1,1.2044054E1,1.6942242E1,1.1596279E1,2.2983955E1,2.3811653E1,0E0,0E0,0E0,0E0,0E0,0E0,0E0,0E0],"parents":[2147483647,0,0,1,1,2,2,3,3,4,4,5,5,6,6],"right_children":[2,4,6,8,10,12,14,-1,-1,-1,-1,-1,-1,-1,-1],"split_conditions":[1.6E1,1.0706968E0,1E0,-2.4808207E-4,1.7E1,9E0,5.2592433E-3,9.52747E-3,-8.462726E-3,1.4682985E-2,-1.5088362E-2,-3.5290115E-3,1.8770201E-2,4.880463E-2,-8.045807E-3],"split_indices":[16,9,25,6,10,13,8,0,0,0,0,0,0,0,0],"split_type":[0,0,0,0,0,0,0,0,0,0,0,0,0,0,0],"sum_hessian":[2.3102412E3,9.2307623E2,1.3871649E3,5.2765894E2,3.9541733E2,5.713585E2,8.158064E2,2.3522816E2,2.9243073E2,3.6025626E2,3.5161064E1,4.118637E2,1.5949483E2,1.7868195E1,7.9793823E2],"tree_param":{"num_deleted":"0","num_feature":"27","num_nodes":"15","size_leaf_vector":"1"}},{"base_weights":[-1.2003484E-2,-2.2662422E-1,1.8607786E-2,1.10749364E-1,-3.7622464E-1,-3.3477575E-2,1.4612725E-1,3.5464287E-2,-9.816288E-3,2.0565087E-2,-2.1766244E-2,4.9214987E-3,-5.014341E-3,-1.8173831E-3,1.5968582E-2],"categories":[],"categories_nodes":[],"categories_segments":[],"categories_sizes":[],"default_left":[0,0,0,0,0,0,0,0,0,0,0,0,0,0,0],"id":32,"left_children":[1,3,5,7,9,11,13,-1,-1,-1,-1,-1,-1,-1,-1],"loss_changes":[1.52229185E1,1.4639438E1,1.3476184E1,1.6611952E1,9.515785E0,1.2707628E1,1.8611683E1,0E0,0E0,0E0,0E0,0E0,0E0,0E0,0E0],"parents":[2147483647,0,0,1,1,2,2,3,3,4,4,5,5,6,6],"right_children":[2,4,6,8,10,12,14,-1,-1,-1,-1,-1,-1,-1,-1],"split_conditions":[3.5849056E-1,8.523883E-1,9E0,2.3333333E-1,8.364717E-3,8.596175E-1,1.0616901E0,3.5464287E-2,-9.816288E-3,2.0565087E-2,-2.1766244E-2,4.9214987E-3,-5.014341E-3,-1.8173831E-3,1.5968582E-2],"split_indices":[4,9,13,4,8,9,9,0,0,0,0,0,0,0,0],"split_type":[0,0,0,0,0,0,0,0,0,0,0,0,0,0,0],"sum_hessian":[2.315459E3,2.882296E2,2.0272292E3,8.862509E1,1.996045E2,1.4398568E3,5.8737244E2,2.9606903E1,5.9018192E1,1.35177355E1,1.8608678E2,4.839255E2,9.5593134E2,2.8645023E2,3.009222E2],"tree_param":{"num_deleted":"0","num_feature":"27","num_nodes":"15","size_leaf_vector":"1"}},{"base_weights":[8.554832E-3,3.3298124E-2,-2.1675299E-1,-7.128615E-1,4.19498E-2,-1.3819297E-1,-7.217111E-1,1.1750984E-2,-4.9502164E-2,4.0817815E-3,-5.9801186E-3,1.4076154E-2,-1.3971317E-2,1.3939065E-2,-5.206967E-2],"categories":[],"categories_nodes":[],"categories_segments":[],"categories_sizes":[],"default_left":[0,0,0,0,0,0,0,0,0,0,0,0,0,0,0],"id":33,"left_children":[1,3,5,7,9,11,13,-1,-1,-1,-1,-1,-1,-1,-1],"loss_changes":[1.2864502E1,1.3450636E1,8.95873E0,6.50801E0,1.3191884E1,1.1865609E1,1.0047371E1,0E0,0E0,0E0,0E0,0E0,0E0,0E0,0E0],"parents":[2147483647,0,0,1,1,2,2,3,3,4,4,5,5,6,6],"right_children":[2,4,6,8,10,12,14,-1,-1,-1,-1,-1,-1,-1,-1],"split_conditions":[1.7E1,-4.4339243E-1,1.4312556E0,-4.8629395E-3,5.507981E-4,-3.689327E-2,1.7E1,1.1750984E-2,-4.9502164E-2,4.0817815E-3,-5.9801186E-3,1.4076154E-2,-1.3971317E-2,1.3939065E-2,-5.206967E-2],"split_indices":[10,1,9,5,5,6,16,0,0,0,0,0,0,0,0],"split_type":[0,0,0,0,0,0,0,0,0,0,0,0,0,0,0],"sum_hessian":[2.3052986E3,2.0779504E3,2.2734818E2,2.2884592E1,2.055066E3,1.978421E2,2.9506073E1,5.2122674E0,1.7672325E1,1.6501866E3,4.0487918E2,4.9561718E1,1.4828038E2,7.175921E0,2.2330153E1],"tree_param":{"num_deleted":"0","num_feature":"27","num_nodes":"15","size_leaf_vector":"1"}},{"base_weights":[1.0398717E-2,-1.7323276E-2,2.2040294E-1,-3.1115264E-2,4.2945957E-1,-9.248668E-1,2.7231437E-1,5.4146834E-2,-1.8400832E-3,-1.3594209E-2,3.2123804E-2,-6.0705073E-2,-2.450517E-2,1.6992342E-2,-1.13144005E-2],"categories":[],"categories_nodes":[],"categories_segments":[],"categories_sizes":[],"default_left":[0,0,0,0,0,0,0,0,0,0,0,0,0,0,0],"id":34,"left_children":[1,3,5,7,9,11,13,-1,-1,-1,-1,-1,-1,-1,-1],"loss_changes":[1.346939E1,1.2609682E1,1.6291979E1,1.2607772E1,9.32993E0,9.0467167E-1,8.793556E0,0E0,0E0,0E0,0E0,0E0,0E0,0E0,0E0],"parents":[2147483647,0,0,1,1,2,2,3,3,4,4,5,5,6,6],"right_children":[2,4,6,8,10,12,14,-1,-1,-1,-1,-1,-1,-1,-1],"split_conditions":[1E0,1.33E2,7E0,2.8804E2,4.181818E-1,1.5E1,3.0890143E-2,5.4146834E-2,-1.8400832E-3,-1.3594209E-2,3.2123804E-2,-6.0705073E-2,-2.450517E-2,1.6992342E-2,-1.13144005E-2],"split_indices":[21,14,14,0,4,16,8,0,0,0,0,0,0,0,0],"split_type":[0,0,0,0,0,0,0,0,0,0,0,0,0,0,0],"sum_hessian":[2.3119824E3,2.0431854E3,2.6879694E2,1.9829044E3,6.0281025E1,1.0926229E1,2.578707E2,9.10778E0,1.9737966E3,1.3979158E1,4.6301865E1,5.4848027E0,5.4414263E0,2.2739053E2,3.0480164E1],"tree_param":{"num_deleted":"0","num_feature":"27","num_nodes":"15","size_leaf_vector":"1"}},{"base_weights":[9.611994E-3,1.4549531E-1,-3.0476008E-2,1.8407008E-1,-5.379613E-1,-8.085038E-2,9.8960534E-2,1.5481363E-2,-2.5243477E-3,3.4186828E-3,-6.302684E-2,-2.340192E-3,-1.7898656E-2,1.7380774E-2,-4.217078E-3],"categories":[],"categories_nodes":[],"categories_segments":[],"categories_sizes":[],"default_left":[0,0,0,0,0,0,0,0,0,0,0,0,0,0,0],"id":35,"left_children":[1,3,5,7,9,11,13,-1,-1,-1,-1,-1,-1,-1,-1],"loss_changes":[1.2735078E1,1.4140016E1,1.1780253E1,1.4884226E1,1.2663864E1,1.2250939E1,2.3104069E1,0E0,0E0,0E0,0E0,0E0,0E0,0E0,0E0],"parents":[2147483647,0,0,1,1,2,2,3,3,4,4,5,5,6,6],"right_children":[2,4,6,8,10,12,14,-1,-1,-1,-1,-1,-1,-1,-1],"split_conditions":[1.5E1,2.1E1,9E0,1E0,1.1715577E0,1.4011788E0,1E0,1.5481363E-2,-2.5243477E-3,3.4186828E-3,-6.302684E-2,-2.340192E-3,-1.7898656E-2,1.7380774E-2,-4.217078E-3],"split_indices":[2,10,13,12,9,9,25,0,0,0,0,0,0,0,0],"split_type":[0,0,0,0,0,0,0,0,0,0,0,0,0,0,0],"sum_hessian":[2.33606E3,5.315785E2,1.8044814E3,5.0387036E2,2.770811E1,1.2992228E3,5.052587E2,3.279828E2,1.7588757E2,1.5558162E1,1.2149949E1,1.1581095E3,1.4111325E2,2.1402745E2,2.9123126E2],"tree_param":{"num_deleted":"0","num_feature":"27","num_nodes":"15","size_leaf_vector":"1"}},{"base_weights":[-1.3713448E-2,-6.1718542E-2,9.065107E-2,8.582582E-2,-1.4734769E-1,3.0945525E-1,-7.1104005E-2,7.7599348E-3,-2.1668583E-2,2.7555856E-3,-1.2443963E-2,-1.2670358E-4,2.3085978E-2,-1.067623E-2,7.6707387E-3],"categories":[],"categories_nodes":[],"categories_segments":[],"categories_sizes":[],"default_left":[0,0,0,0,0,0,0,0,0,0,0,0,0,0,0],"id":36,"left_children":[1,3,5,7,9,11,13,-1,-1,-1,-1,-1,-1,-1,-1],"loss_changes":[1.1686706E1,2.0196514E1,2.6034727E1,2.1221252E1,2.0801147E1,1.4850447E1,1.3571116E1,0E0,0E0,0E0,0E0,0E0,0E0,0E0,0E0],"parents":[2147483647,0,0,1,1,2,2,3,3,4,4,5,5,6,6],"right_children":[2,4,6,8,10,12,14,-1,-1,-1,-1,-1,-1,-1,-1],"split_conditions":[1.11E2,9.1893864E-1,1.19E2,2.6180973E-2,1E1,1.1245229E0,5.3846157E-1,7.7599348E-3,-2.1668583E-2,2.7555856E-3,-1.2443963E-2,-1.2670358E-4,2.3085978E-2,-1.067623E-2,7.6707387E-3],"split_indices":[14,9,14,8,16,9,4,0,0,0,0,0,0,0,0],"split_type":[0,0,0,0,0,0,0,0,0,0,0,0,0,0,0],"sum_hessian":[2.3305457E3,1.5965712E3,7.3397455E2,5.863137E2,1.01025745E3,3.1158463E2,4.2238992E2,5.1782526E2,6.848844E1,3.3757404E2,6.726835E2,1.0251497E2,2.0906966E2,2.584772E2,1.6391272E2],"tree_param":{"num_deleted":"0","num_feature":"27","num_nodes":"15","size_leaf_vector":"1"}},{"base_weights":[-1.0432614E-2,-1.11606725E-1,4.5617454E-2,-3.4413878E-2,-5.4574716E-1,-1.0836791E-1,1.1072362E-1,7.8434395E-3,-6.8869144E-3,9.571784E-3,-4.129603E-2,-2.7903497E-2,-2.9420517E-3,8.774052E-3,-4.06059E-3],"categories":[],"categories_nodes":[],"categories_segments":[],"categories_sizes":[],"default_left":[0,0,0,0,0,0,0,0,0,0,0,0,0,0,0],"id":37,"left_children":[1,3,5,7,9,11,13,-1,-1,-1,-1,-1,-1,-1,-1],"loss_changes":[1.3306345E1,2.8013718E1,1.5151199E1,1.4079215E1,2.622554E1,9.972979E0,1.3212068E1,0E0,0E0,0E0,0E0,0E0,0E0,0E0,0E0],"parents":[2147483647,0,0,1,1,2,2,3,3,4,4,5,5,6,6],"right_children":[2,4,6,8,10,12,14,-1,-1,-1,-1,-1,-1,-1,-1],"split_conditions":[4.6E1,3.5E1,4.6268657E-1,9.156961E-1,-9.331902E-2,5.243187E-1,5.507981E-4,7.8434395E-3,-6.8869144E-3,9.571784E-3,-4.129603E-2,-2.7903497E-2,-2.9420517E-3,8.774052E-3,-4.06059E-3],"split_indices":[14,14,4,9,7,9,5,0,0,0,0,0,0,0,0],"split_type":[0,0,0,0,0,0,0,0,0,0,0,0,0,0,0],"sum_hessian":[2.3445627E3,8.35478E2,1.5090847E3,7.1026733E2,1.2521065E2,4.482486E2,1.0608362E3,2.4892278E2,4.6134457E2,3.4569443E1,9.0641205E1,4.3450626E1,4.0479797E2,7.9327686E2,2.6755927E2],"tree_param":{"num_deleted":"0","num_feature":"27","num_nodes":"15","size_leaf_vector":"1"}},{"base_weights":[-9.644032E-3,-7.4856736E-2,6.2410437E-2,-6.651037E-2,-4.9894065E-2,3.953049E-2,7.9628384E-1,3.5056926E-3,-6.3153463E-3,-6.437606E-2,2.4684453E-3,5.1382046E-2,3.3388908E-3],"categories":[],"categories_nodes":[],"categories_segments":[],"categories_sizes":[],"default_left":[0,0,0,0,0,0,0,0,0,0,0,0,0],"id":38,"left_children":[1,3,5,7,-1,9,11,-1,-1,-1,-1,-1,-1],"loss_changes":[1.1002164E1,9.401798E0,1.864759E1,9.968224E0,0E0,1.4162372E1,5.599203E0,0E0,0E0,0E0,0E0,0E0,0E0],"parents":[2147483647,0,0,1,1,2,2,3,3,5,5,6,6],"right_children":[2,4,6,8,-1,10,12,-1,-1,-1,-1,-1,-1],"split_conditions":[5.1339287E-1,1.34E2,1.33E2,8.523883E-1,-4.9894065E-2,-2.8935418E-1,4.137399E-3,3.5056926E-3,-6.3153463E-3,-6.437606E-2,2.4684453E-3,5.1382046E-2,3.3388908E-3],"split_indices":[4,14,14,9,0,9,5,0,0,0,0,0,0],"split_type":[0,0,0,0,0,0,0,0,0,0,0,0,0],"sum_hessian":[2.3394565E3,1.2280103E3,1.1114463E3,1.218068E3,9.942205E0,1.0788644E3,3.2581856E1,3.7076495E2,8.4730304E2,6.983847E0,1.0718805E3,2.44265E1,8.155355E0],"tree_param":{"num_deleted":"0","num_feature":"27","num_nodes":"13","size_leaf_vector":"1"}},{"base_weights":[-2.6270722E-3,9.858141E-2,-5.4759488E-2,-4.8933113E-1,1.3705188E-1,1.5210299E-1,-8.932523E-2,-3.921114E-2,-1.4072657E-3,-3.194879E-3,9.626555E-3,1.5924197E-3,2.7371595E-2,-3.144217E-2,-3.364897E-3],"categories":[],"categories_nodes":[],"categories_segments":[],"categories_sizes":[],"default_left":[0,0,0,0,0,0,0,0,0,0,0,0,0,0,0],"id":39,"left_children":[1,3,5,7,9,11,13,-1,-1,-1,-1,-1,-1,-1,-1],"loss_changes":[1.2200702E1,1.7848026E1,1.0926416E1,6.5742903E0,8.247317E0,1.0388056E1,1.5505867E1,0E0,0E0,0E0,0E0,0E0,0E0,0E0,0E0],"parents":[2147483647,0,0,1,1,2,2,3,3,4,4,5,5,6,6],"right_children":[2,4,6,8,10,12,14,-1,-1,-1,-1,-1,-1,-1,-1],"split_conditions":[-2.0096503E-2,-2.5444373E-1,-4.743742E-2,-1.7038438E-1,4.181818E-1,-5.914355E-2,-3.9645888E-2,-3.921114E-2,-1.4072657E-3,-3.194879E-3,9.626555E-3,1.5924197E-3,2.7371595E-2,-3.144217E-2,-3.364897E-3],"split_indices":[6,1,5,7,4,5,5,0,0,0,0,0,0,0,0],"split_type":[0,0,0,0,0,0,0,0,0,0,0,0,0,0,0],"sum_hessian":[2.3103616E3,7.851675E2,1.5251942E3,4.7502724E1,7.3766473E2,2.1787811E2,1.307316E3,2.8548061E1,1.8954664E1,1.5956343E2,5.781013E2,1.678888E2,4.9989323E1,5.0200405E1,1.2571156E3],"tree_param":{"num_deleted":"0","num_feature":"27","num_nodes":"15","size_leaf_vector":"1"}},{"base_weights":[1.3744648E-2,7.889832E-2,-8.1414476E-2,8.681909E-2,-5.944119E-2,7.0180185E-2,-1.7714866E-1,3.4803976E-3,3.8188305E-2,8.192406E-3,-1.4229332E-2,1.2144276E-3,-1.4786501E-2],"categories":[],"categories_nodes":[],"categories_segments":[],"categories_sizes":[],"default_left":[0,0,0,0,0,0,0,0,0,0,0,0,0],"id":40,"left_children":[1,3,5,7,-1,9,11,-1,-1,-1,-1,-1,-1],"loss_changes":[1.44369755E1,1.3981216E1,1.3747825E1,1.5960443E1,0E0,1.2243956E1,1.3870522E1,0E0,0E0,0E0,0E0,0E0,0E0],"parents":[2147483647,0,0,1,1,2,2,3,3,5,5,6,6],"right_children":[2,4,6,8,-1,10,12,-1,-1,-1,-1,-1,-1],"split_conditions":[3E1,1.22314565E-1,1.7E1,7.614273E-2,-5.944119E-2,1.18E2,1E0,3.4803976E-3,3.8188305E-2,8.192406E-3,-1.4229332E-2,1.2144276E-3,-1.4786501E-2],"split_indices":[2,5,16,5,0,14,25,0,0,0,0,0,0],"split_type":[0,0,0,0,0,0,0,0,0,0,0,0,0],"sum_hessian":[2.326521E3,1.3810873E3,9.4543365E2,1.3734375E3,7.6497693E0,3.6605463E2,5.79379E2,1.3404596E3,3.2977875E1,2.9001978E2,7.603483E1,2.1498082E2,3.6439822E2],"tree_param":{"num_deleted":"0","num_feature":"27","num_nodes":"13","size_leaf_vector":"1"}},{"base_weights":[1.1492817E-2,-1.2991693E-2,1.8930928E-1,-1.3443238E-1,2.306601E-2,-6.774952E-1,2.2594498E-1,-3.3921525E-3,-2.0138051E-2,3.356648E-4,2.4242679E-2,-6.0901858E-2,-3.0125596E-3,2.2911161E-2,5.273221E-3],"categories":[],"categories_nodes":[],"categories_segments":[],"categories_sizes":[],"default_left":[0,0,0,0,0,0,0,0,0,0,0,0,0,0,0],"id":41,"left_children":[1,3,5,7,9,11,13,-1,-1,-1,-1,-1,-1,-1,-1],"loss_changes":[1.0094682E1,8.929147E0,9.06439E0,8.313839E0,1.187227E1,3.806765E0,7.5073175E0,0E0,0E0,0E0,0E0,0E0,0E0,0E0,0E0],"parents":[2147483647,0,0,1,1,2,2,3,3,4,4,5,5,6,6],"right_children":[2,4,6,8,10,12,14,-1,-1,-1,-1,-1,-1,-1,-1],"split_conditions":[1E0,4.2424244E-1,7E0,1.11E2,1.3E2,-6.0854773E-3,4.7252747E-1,-3.3921525E-3,-2.0138051E-2,3.356648E-4,2.4242679E-2,-6.0901858E-2,-3.0125596E-3,2.2911161E-2,5.273221E-3],"split_indices":[21,4,14,3,14,1,4,0,0,0,0,0,0,0,0],"split_type":[0,0,0,0,0,0,0,0,0,0,0,0,0,0,0],"sum_hessian":[2.3170532E3,2.0374347E3,2.7961844E2,4.65826E2,1.5716088E3,1.0629543E1,2.689889E2,3.742129E2,9.16131E1,1.5188385E3,5.2770226E1,5.147954E0,5.48159E0,9.091252E1,1.7807639E2],"tree_param":{"num_deleted":"0","num_feature":"27","num_nodes":"15","size_leaf_vector":"1"}},{"base_weights":[-1.565903E-3,1.0029451E-1,-5.015248E-2,3.5380805E-1,6.082439E-3,8.406129E-2,-1.0466468E-1,-4.3232042E-2,1.9993491E-2,-7.086107E-3,1.0666908E-2,2.964473E-3,5.024307E-2,-4.34702E-2,-4.5843557E-3],"categories":[],"categories_nodes":[],"categories_segments":[],"categories_sizes":[],"default_left":[0,0,0,0,0,0,0,0,0,0,0,0,0,0,0],"id":42,"left_children":[1,3,5,7,9,11,13,-1,-1,-1,-1,-1,-1,-1,-1],"loss_changes":[1.1446468E1,1.7837782E1,1.1465419E1,1.170281E1,1.6743265E1,1.0270019E1,1.0976635E1,0E0,0E0,0E0,0E0,0E0,0E0,0E0,0E0],"parents":[2147483647,0,0,1,1,2,2,3,3,4,4,5,5,6,6],"right_children":[2,4,6,8,10,12,14,-1,-1,-1,-1,-1,-1,-1,-1],"split_conditions":[-2.244217E-2,8.2633233E-1,1.2E1,-4.9847916E-1,8.1E1,1.1E1,8.275749E-2,-4.3232042E-2,1.9993491E-2,-7.086107E-3,1.0666908E-2,2.964473E-3,5.024307E-2,-4.34702E-2,-4.5843557E-3],"split_indices":[6,9,3,7,3,3,9,0,0,0,0,0,0,0,0],"split_type":[0,0,0,0,0,0,0,0,0,0,0,0,0,0,0],"sum_hessian":[2.310846E3,7.4593976E2,1.5649062E3,2.0135684E2,5.4458295E2,4.5185583E2,1.1130504E3,6.687393E0,1.9466946E2,3.180684E2,2.2651454E2,4.4105475E2,1.0801086E1,1.747199E1,1.0955784E3],"tree_param":{"num_deleted":"0","num_feature":"27","num_nodes":"15","size_leaf_vector":"1"}},{"base_weights":[6.9797677E-3,-1.9098183E-2,1.9059327E-1,5.360543E-3,-3.2076E-1,4.0319175E-1,-1.5306371E-1,6.6076503E-3,-1.7970353E-3,-2.8730674E-2,-6.2509975E-3,1.1131848E-2,4.288935E-2,-1.1235219E-2,4.7669854E-2],"categories":[],"categories_nodes":[],"categories_segments":[],"categories_sizes":[],"default_left":[0,0,0,0,0,0,0,0,0,0,0,0,0,0,0],"id":43,"left_children":[1,3,5,7,9,11,13,-1,-1,-1,-1,-1,-1,-1,-1],"loss_changes":[1.1137374E1,1.5030877E1,2.1195515E1,9.876768E0,7.5199757E0,1.4499817E1,9.03511E0,0E0,0E0,0E0,0E0,0E0,0E0,0E0,0E0],"parents":[2147483647,0,0,1,1,2,2,3,3,4,4,5,5,6,6],"right_children":[2,4,6,8,10,12,14,-1,-1,-1,-1,-1,-1,-1,-1],"split_conditions":[1.71E2,2.3198964E-1,-7.128882E-3,9.470518E-3,3.008271E-1,1E0,1.5577115E0,6.6076503E-3,-1.7970353E-3,-2.8730674E-2,-6.2509975E-3,1.1131848E-2,4.288935E-2,-1.1235219E-2,4.7669854E-2],"split_indices":[3,7,5,8,7,11,9,0,0,0,0,0,0,0,0],"split_type":[0,0,0,0,0,0,0,0,0,0,0,0,0,0,0],"sum_hessian":[2.3242131E3,2.0359504E3,2.882626E2,1.8841647E3,1.5178575E2,1.7798283E2,1.1027976E2,4.624058E2,1.4217589E3,6.524045E1,8.65453E1,1.284537E2,4.9529118E1,1.0432208E2,5.957686E0],"tree_param":{"num_deleted":"0","num_feature":"27","num_nodes":"15","size_leaf_vector":"1"}},{"base_weights":[5.4046623E-3,3.141111E-2,-2.2547908E-1,1.579382E-1,-7.6233223E-3,-1.3336238E-1,-7.592431E-1,-5.2414026E-2,8.735057E-3,1.2261337E-3,-1.6580608E-2,-8.334542E-3,4.7038052E-2,-2.3644732E-3,-5.0590675E-2],"categories":[],"categories_nodes":[],"categories_segments":[],"categories_sizes":[],"default_left":[0,0,0,0,0,0,0,0,0,0,0,0,0,0,0],"id":44,"left_children":[1,3,5,7,9,11,13,-1,-1,-1,-1,-1,-1,-1,-1],"loss_changes":[1.4091488E1,1.0417711E1,1.1580521E1,1.0238454E1,1.6805016E1,7.4537506E0,6.201685E0,0E0,0E0,0E0,0E0,0E0,0E0,0E0,0E0],"parents":[2147483647,0,0,1,1,2,2,3,3,4,4,5,5,6,6],"right_children":[2,4,6,8,10,12,14,-1,-1,-1,-1,-1,-1,-1,-1],"split_conditions":[1.7E1,1.5E1,1.4312556E0,-2.7163161E-2,1.8204026E-2,1E0,1.7E1,-5.2414026E-2,8.735057E-3,1.2261337E-3,-1.6580608E-2,-8.334542E-3,4.7038052E-2,-2.3644732E-3,-5.0590675E-2],"split_indices":[10,2,9,9,5,21,16,0,0,0,0,0,0,0,0],"split_type":[0,0,0,0,0,0,0,0,0,0,0,0,0,0,0],"sum_hessian":[2.344655E3,2.1080688E3,2.365862E2,4.9630112E2,1.6117677E3,2.028315E2,3.3754696E1,5.959166E0,4.9034195E2,1.4671246E3,1.44643E2,1.9754674E2,5.284766E0,9.1498995E0,2.46048E1],"tree_param":{"num_deleted":"0","num_feature":"27","num_nodes":"15","size_leaf_vector":"1"}},{"base_weights":[1.1299103E-3,3.864559E-2,-1.1692653E-1,1.9722503E-2,5.2461714E-1,-5.8132526E-2,-4.3008092E-1,2.8500227E-2,5.468382E-4,-1.9132817E-2,3.6866143E-2,-8.270483E-3,7.231337E-3,1.2768559E-3,-3.742836E-2],"categories":[],"categories_nodes":[],"categories_segments":[],"categories_sizes":[],"default_left":[0,0,0,0,0,0,0,0,0,0,0,0,0,0,0],"id":45,"left_children":[1,3,5,7,9,11,13,-1,-1,-1,-1,-1,-1,-1,-1],"loss_changes":[1.0274641E1,1.6178627E1,1.0275032E1,8.190794E0,1.3007441E1,1.0294045E1,1.28282795E1,0E0,0E0,0E0,0E0,0E0,0E0,0E0,0E0],"parents":[2147483647,0,0,1,1,2,2,3,3,4,4,5,5,6,6],"right_children":[2,4,6,8,10,12,14,-1,-1,-1,-1,-1,-1,-1,-1],"split_conditions":[4.2E1,1.00001E5,1E0,-5.724578E-1,-1.3582477E-1,1.08E2,5.4E1,2.8500227E-2,5.468382E-4,-1.9132817E-2,3.6866143E-2,-8.270483E-3,7.231337E-3,1.2768559E-3,-3.742836E-2],"split_indices":[16,0,12,7,7,3,3,0,0,0,0,0,0,0,0],"split_type":[0,0,0,0,0,0,0,0,0,0,0,0,0,0,0],"sum_hessian":[2.3178525E3,1.7594209E3,5.584317E2,1.6944806E3,6.494025E1,4.7115845E2,8.7273254E1,2.562488E1,1.6688557E3,1.2181666E1,5.2758583E1,3.082512E2,1.6290726E2,3.628488E1,5.0988377E1],"tree_param":{"num_deleted":"0","num_feature":"27","num_nodes":"15","size_leaf_vector":"1"}},{"base_weights":[-1.0770899E-2,-1.5204711E-2,4.705558E-2,-3.9479005E-1,-4.718149E-3,-2.5730206E-2,1.11217415E-2,4.7439956E-3,-2.793541E-3],"categories":[],"categories_nodes":[],"categories_segments":[],"categories_sizes":[],"default_left":[0,0,0,0,0,0,0,0,0],"id":46,"left_children":[1,3,-1,5,7,-1,-1,-1,-1],"loss_changes":[9.777334E0,9.167384E0,0E0,4.693205E0,1.1430693E1,0E0,0E0,0E0,0E0],"parents":[2147483647,0,0,1,1,3,3,4,4],"right_children":[2,4,-1,6,8,-1,-1,-1,-1],"split_conditions":[5.00001E5,-2.7651155E-1,4.705558E-2,5.5050504E-1,-1.9192424E-2,-2.5730206E-2,1.11217415E-2,4.7439956E-3,-2.793541E-3],"split_indices":[0,1,0,4,6,0,0,0,0],"split_type":[0,0,0,0,0,0,0,0,0],"sum_hessian":[2.3122563E3,2.3025154E3,9.740954E0,6.091484E1,2.2416006E3,5.1151676E1,9.763166E0,7.603288E2,1.4812719E3],"tree_param":{"num_deleted":"0","num_feature":"27","num_nodes":"9","size_leaf_vector":"1"}},{"base_weights":[3.7595457E-3,2.0467898E-2,-3.687112E-1,-2.9303061E-3,2.3546347E-1,-2.42008E-1,-1.1659613E0,-9.852492E-4,1.5389055E-2,3.5793576E-2,4.6569165E-3,-2.9331842E-2,4.8162187E-3,-6.98767E-2,-3.793573E-2],"categories":[],"categories_nodes":[],"categories_segments":[],"categories_sizes":[],"default_left":[0,0,0,0,0,0,0,0,0,0,0,0,0,0,0],"id":47,"left_children":[1,3,5,7,9,11,13,-1,-1,-1,-1,-1,-1,-1,-1],"loss_changes":[1.4452064E1,1.1180055E1,9.788828E0,1.0457236E1,1.4847835E1,1.02343235E1,2.0432663E-1,0E0,0E0,0E0,0E0,0E0,0E0,0E0,0E0],"parents":[2147483647,0,0,1,1,2,2,3,3,4,4,5,5,6,6],"right_children":[2,4,6,8,10,12,14,-1,-1,-1,-1,-1,-1,-1,-1],"split_conditions":[1E0,1E0,6.746702E-2,4.7964454E-2,9.470518E-3,7.3E1,5.251391E-2,-9.852492E-4,1.5389055E-2,3.5793576E-2,4.6569165E-3,-2.9331842E-2,4.8162187E-3,-6.98767E-2,-3.793573E-2],"split_indices":[20,15,1,8,8,3,7,0,0,0,0,0,0,0,0],"split_type":[0,0,0,0,0,0,0,0,0,0,0,0,0,0,0],"sum_hessian":[2.3200112E3,2.2213123E3,9.869892E1,2.0041813E3,2.1713087E2,8.628898E1,1.2409948E1,1.9024106E3,1.017707E2,4.8704063E1,1.6842682E2,4.2383152E1,4.3905823E1,6.3611455E0,6.0488024E0],"tree_param":{"num_deleted":"0","num_feature":"27","num_nodes":"15","size_leaf_vector":"1"}},{"base_weights":[-2.7898815E-2,1.8138361E-4,-1.7003131E-1,-4.9123798E-2,9.258578E-2,-2.2090873E-1,5.504989E-1,4.250891E-3,-8.322442E-3,-8.239463E-4,1.5340224E-2,4.824744E-2,-1.2146062E-2,6.776123E-2,-8.493398E-3],"categories":[],"categories_nodes":[],"categories_segments":[],"categories_sizes":[],"default_left":[0,0,0,0,0,0,0,0,0,0,0,0,0,0,0],"id":48,"left_children":[1,3,5,7,9,11,13,-1,-1,-1,-1,-1,-1,-1,-1],"loss_changes":[9.303452E0,8.877306E0,1.4218909E1,2.0010216E1,1.5844154E1,9.629276E0,1.509906E1,0E0,0E0,0E0,0E0,0E0,0E0,0E0,0E0],"parents":[2147483647,0,0,1,1,2,2,3,3,4,4,5,5,6,6],"right_children":[2,4,6,8,10,12,14,-1,-1,-1,-1,-1,-1,-1,-1],"split_conditions":[7.2351173E-3,1.1514729E0,1.00001E5,8.55761E-1,9E0,2.748E2,4E0,4.250891E-3,-8.322442E-3,-8.239463E-4,1.5340224E-2,4.824744E-2,-1.2146062E-2,6.776123E-2,-8.493398E-3],"split_indices":[5,9,0,9,13,0,10,0,0,0,0,0,0,0,0],"split_type":[0,0,0,0,0,0,0,0,0,0,0,0,0,0,0],"sum_hessian":[2.330037E3,1.9464819E3,3.835551E2,1.2695455E3,6.7693634E2,3.589058E2,2.4649319E1,5.924514E2,6.770941E2,4.4917294E2,2.277634E2,5.760123E0,3.531457E2,1.1226661E1,1.3422659E1],"tree_param":{"num_deleted":"0","num_feature":"27","num_nodes":"15","size_leaf_vector":"1"}},{"base_weights":[3.708514E-3,-2.8134257E-2,1.4628235E-1,-6.2006477E-2,1.6605046E-1,-5.4491323E-1,2.0132002E-1,-9.7278703E-4,-1.2959043E-2,-1.4189799E-2,1.8238723E-2,-3.882162E-2,1.7077258E-2,8.421621E-3,4.8337962E-2],"categories":[],"categories_nodes":[],"categories_segments":[],"categories_sizes":[],"default_left":[0,0,0,0,0,0,0,0,0,0,0,0,0,0,0],"id":49,"left_children":[1,3,5,7,9,11,13,-1,-1,-1,-1,-1,-1,-1,-1],"loss_changes":[1.0558932E1,1.2515836E1,1.6262558E1,1.3583357E1,2.5371853E1,6.747713E0,9.756054E0,0E0,0E0,0E0,0E0,0E0,0E0,0E0,0E0],"parents":[2147483647,0,0,1,1,2,2,3,3,4,4,5,5,6,6],"right_children":[2,4,6,8,10,12,14,-1,-1,-1,-1,-1,-1,-1,-1],"split_conditions":[6.111111E-1,1.71E2,-2.1830693E-1,2.5710372E-2,1.3588054E-2,1E0,1.33E2,-9.7278703E-4,-1.2959043E-2,-1.4189799E-2,1.8238723E-2,-3.882162E-2,1.7077258E-2,8.421621E-3,4.8337962E-2],"split_indices":[4,3,7,8,8,12,14,0,0,0,0,0,0,0,0],"split_type":[0,0,0,0,0,0,0,0,0,0,0,0,0,0,0],"sum_hessian":[2.3238774E3,1.9002695E3,4.2360797E2,1.6186111E3,2.8165845E2,3.0586317E1,3.9302164E2,1.3322145E3,2.8639664E2,8.616985E1,1.954886E2,2.4350689E1,6.2356267E0,3.7800064E2,1.5021004E1],"tree_param":{"num_deleted":"0","num_feature":"27","num_nodes":"15","size_leaf_vector":"1"}},{"base_weights":[1.177648E-2,-1.08323745E-1,4.8011143E-2,-1.0143629E0,-8.310114E-2,5.623703E-1,2.8287953E-2,-1.2692845E-2,-7.437665E-2,7.598417E-2,-5.163008E-3,5.095579E-2,2.6384252E-3,6.268076E-2,1.1563242E-3],"categories":[],"categories_nodes":[],"categories_segments":[],"categories_sizes":[],"default_left":[0,0,0,0,0,0,0,0,0,0,0,0,0,0,0],"id":50,"left_children":[1,3,5,7,9,11,13,-1,-1,-1,-1,-1,-1,-1,-1],"loss_changes":[1.0075538E1,1.2179642E1,1.8025763E1,4.8206186E0,1.706202E1,1.5220367E1,1.0809874E1,0E0,0E0,0E0,0E0,0E0,0E0,0E0,0E0],"parents":[2147483647,0,0,1,1,2,2,3,3,4,4,5,5,6,6],"right_children":[2,4,6,8,10,12,14,-1,-1,-1,-1,-1,-1,-1,-1],"split_conditions":[3.2E1,-1.355913E-1,3.4E1,8E0,-1.0821439E-1,4.3258797E-2,3.2823E2,-1.2692845E-2,-7.437665E-2,7.598417E-2,-5.163008E-3,5.095579E-2,2.6384252E-3,6.268076E-2,1.1563242E-3],"split_indices":[14,5,14,16,5,7,0,0,0,0,0,0,0,0,0],"split_type":[0,0,0,0,0,0,0,0,0,0,0,0,0,0,0],"sum_hessian":[2.3130674E3,5.356522E2,1.7774152E3,1.344563E1,5.222066E2,6.462234E1,1.7127928E3,5.7463183E0,7.699312E0,5.562513E0,5.1664404E2,3.3551235E1,3.10711E1,6.169968E0,1.7066229E3],"tree_param":{"num_deleted":"0","num_feature":"27","num_nodes":"15","size_leaf_vector":"1"}},{"base_weights":[1.893694E-2,3.184877E-2,-2.6350242E-1,5.3305604E-2,-1.5397854E-1,-1.5031284E-1,-1.0838827E0,7.903386E-4,8.531686E-3,9.9165095E-3,-1.4076781E-2,2.8104454E-3,-3.640262E-2,-3.0058494E-2,-6.9562525E-2],"categories":[],"categories_nodes":[],"categories_segments":[],"categories_sizes":[],"default_left":[0,0,0,0,0,0,0,0,0,0,0,0,0,0,0],"id":51,"left_children":[1,3,5,7,9,11,13,-1,-1,-1,-1,-1,-1,-1,-1],"loss_changes":[8.458362E0,8.846707E0,9.253263E0,8.743696E0,1.0379108E1,1.0811561E1,9.638815E-1,0E0,0E0,0E0,0E0,0E0,0E0,0E0,0E0],"parents":[2147483647,0,0,1,1,2,2,3,3,4,4,5,5,6,6],"right_children":[2,4,6,8,10,12,14,-1,-1,-1,-1,-1,-1,-1,-1],"split_conditions":[1E0,1.7E1,1.4865727E-2,1.2240666E0,8.523883E-1,4E1,9.0865916E-1,7.903386E-4,8.531686E-3,9.9165095E-3,-1.4076781E-2,2.8104454E-3,-3.640262E-2,-3.0058494E-2,-6.9562525E-2],"split_indices":[20,10,5,9,9,16,9,0,0,0,0,0,0,0,0],"split_type":[0,0,0,0,0,0,0,0,0,0,0,0,0,0,0],"sum_hessian":[2.3160854E3,2.215682E3,1.0040358E2,1.9869669E3,2.2871503E2,8.927003E1,1.113355E1,1.5065867E3,4.8038022E2,6.0649143E1,1.6806589E2,6.642729E1,2.2842733E1,5.481253E0,5.652296E0],"tree_param":{"num_deleted":"0","num_feature":"27","num_nodes":"15","size_leaf_vector":"1"}},{"base_weights":[-1.5340168E-3,3.3710746E-3,-5.272587E-2,-7.010078E-2,7.3840015E-2,1.4605139E-3,-7.222811E-3,-4.7778614E-2,4.3399595E-3],"categories":[],"categories_nodes":[],"categories_segments":[],"categories_sizes":[],"default_left":[0,0,0,0,0,0,0,0,0],"id":52,"left_children":[1,3,-1,5,7,-1,-1,-1,-1],"loss_changes":[1.2065833E1,1.2045752E1,0E0,8.415234E0,1.5924966E1,0E0,0E0,0E0,0E0],"parents":[2147483647,0,0,1,1,3,3,4,4],"right_children":[2,4,-1,6,8,-1,-1,-1,-1],"split_conditions":[1.22314565E-1,5.018382E-1,-5.272587E-2,1.7E1,-2.7163161E-2,1.4605139E-3,-7.222811E-3,-4.7778614E-2,4.3399595E-3],"split_indices":[5,4,0,16,9,0,0,0,0],"split_type":[0,0,0,0,0,0,0,0,0],"sum_hessian":[2.3343972E3,2.3245654E3,9.831679E0,1.1380376E3,1.1865278E3,4.8751166E2,6.50526E2,1.3847094E1,1.1726808E3],"tree_param":{"num_deleted":"0","num_feature":"27","num_nodes":"9","size_leaf_vector":"1"}},{"base_weights":[-1.7490169E-2,-2.4133181E-2,5.4439235E-1,-4.529106E-2,1.292595E-1,8.4269077E-1,-2.3213893E-3,4.426983E-2,-2.4648462E-3,-3.7473474E-2,8.449911E-3,1.5403114E-2,6.452269E-2],"categories":[],"categories_nodes":[],"categories_segments":[],"categories_sizes":[],"default_left":[0,0,0,0,0,0,0,0,0,0,0,0,0],"id":53,"left_children":[1,3,5,7,9,11,-1,-1,-1,-1,-1,-1,-1],"loss_changes":[8.784179E0,7.5462117E0,4.8856726E0,7.658406E0,9.969824E0,3.9894028E0,0E0,0E0,0E0,0E0,0E0,0E0,0E0],"parents":[2147483647,0,0,1,1,2,2,3,3,4,4,5,5],"right_children":[2,4,6,8,10,12,-1,-1,-1,-1,-1,-1,-1],"split_conditions":[2.50001E5,1E0,3.2E1,2.8804E2,7E0,2.818521E-2,-2.3213893E-3,4.426983E-2,-2.4648462E-3,-3.7473474E-2,8.449911E-3,1.5403114E-2,6.452269E-2],"split_indices":[0,21,2,0,14,6,0,0,0,0,0,0,0],"split_type":[0,0,0,0,0,0,0,0,0,0,0,0,0],"sum_hessian":[2.3488525E3,2.3223528E3,2.6499607E1,2.0414718E3,2.808811E2,1.7325735E1,9.173873E0,7.8062654E0,2.0336655E3,1.1379957E1,2.6950116E2,8.666249E0,8.659486E0],"tree_param":{"num_deleted":"0","num_feature":"27","num_nodes":"13","size_leaf_vector":"1"}},{"base_weights":[-2.1425115E-3,-3.9906242E-1,1.2305152E-2,-7.107056E-1,-1.2432751E-1,5.1604817E-3,6.7014134E-1,-4.4935446E-2,6.180149E-3,-2.155618E-2,1.0239438E-2,-5.134182E-4,1.0546972E-2,-1.9997684E-3,4.678522E-2],"categories":[],"categories_nodes":[],"categories_segments":[],"categories_sizes":[],"default_left":[0,0,0,0,0,0,0,0,0,0,0,0,0,0,0],"id":54,"left_children":[1,3,5,7,9,11,13,-1,-1,-1,-1,-1,-1,-1,-1],"loss_changes":[1.328026E1,6.875407E0,1.0499382E1,6.055073E0,4.5753427E0,7.0239553E0,4.5637846E0,0E0,0E0,0E0,0E0,0E0,0E0,0E0,0E0],"parents":[2147483647,0,0,1,1,2,2,3,3,4,4,5,5,6,6],"right_children":[2,4,6,8,10,12,14,-1,-1,-1,-1,-1,-1,-1,-1],"split_conditions":[-2.3802198E-1,2.7E1,2.50001E5,5.88E2,4.892396E-1,1.92E2,4.7E1,-4.4935446E-2,6.180149E-3,-2.155618E-2,1.0239438E-2,-5.134182E-4,1.0546972E-2,-1.9997684E-3,4.678522E-2],"split_indices":[1,16,0,2,4,3,14,0,0,0,0,0,0,0,0],"split_type":[0,0,0,0,0,0,0,0,0,0,0,0,0,0,0],"sum_hessian":[2.3139705E3,8.0334114E1,2.2336362E3,3.6895336E1,4.3438778E1,2.2106348E3,2.3001562E1,3.0047281E1,6.848055E0,2.232132E1,2.111746E1,2.0573308E3,1.5330396E2,6.4916825E0,1.650988E1],"tree_param":{"num_deleted":"0","num_feature":"27","num_nodes":"15","size_leaf_vector":"1"}},{"base_weights":[-1.8555634E-2,-7.1760796E-2,7.376225E-2,7.199265E-2,-1.5164968E-1,-1.2584315E-1,2.1129003E-1,1.740876E-3,5.643329E-2,-8.274602E-3,3.562927E-2,-2.2471812E-2,1.6813864E-3,2.3423472E-2,6.001055E-3],"categories":[],"categories_nodes":[],"categories_segments":[],"categories_sizes":[],"default_left":[0,0,0,0,0,0,0,0,0,0,0,0,0,0,0],"id":55,"left_children":[1,3,5,7,9,11,13,-1,-1,-1,-1,-1,-1,-1,-1],"loss_changes":[1.1477655E1,1.7033308E1,2.34823E1,2.0786291E1,1.1519587E1,1.8034317E1,1.1827051E1,0E0,0E0,0E0,0E0,0E0,0E0,0E0,0E0],"parents":[2147483647,0,0,1,1,2,2,3,3,4,4,5,5,6,6],"right_children":[2,4,6,8,10,12,14,-1,-1,-1,-1,-1,-1,-1,-1],"split_conditions":[8.6E1,1.0929879E-2,1.4855346E-2,3E0,9.4E2,4.3E1,1.8042197E-2,1.740876E-3,5.643329E-2,-8.274602E-3,3.562927E-2,-2.2471812E-2,1.6813864E-3,2.3423472E-2,6.001055E-3],"split_indices":[3,8,8,15,2,14,8,0,0,0,0,0,0,0,0],"split_type":[0,0,0,0,0,0,0,0,0,0,0,0,0,0,0],"sum_hessian":[2.3346794E3,1.481231E3,8.5344855E2,5.291565E2,9.520744E2,3.4818457E2,5.05264E2,5.121706E2,1.6985876E1,9.378613E2,1.4213088E1,1.1434373E2,2.3384084E2,1.3126108E2,3.7400293E2],"tree_param":{"num_deleted":"0","num_feature":"27","num_nodes":"15","size_leaf_vector":"1"}},{"base_weights":[1.8617531E-2,1.170027E-1,-2.9550897E-2,3.3973992E-1,3.3799034E-2,-5.0246283E-2,2.7734107E-1,2.049977E-2,-5.4762824E-3,-1.2407535E-2,6.5330365E-3,-6.1402768E-2,-2.1990442E-3,2.2886072E-3,3.0729378E-2],"categories":[],"categories_nodes":[],"categories_segments":[],"categories_sizes":[],"default_left":[0,0,0,0,0,0,0,0,0,0,0,0,0,0,0],"id":56,"left_children":[1,3,5,7,9,11,13,-1,-1,-1,-1,-1,-1,-1,-1],"loss_changes":[1.1065485E1,1.4210431E1,9.971565E0,6.628769E0,1.5320895E1,1.0790981E1,7.719039E0,0E0,0E0,0E0,0E0,0E0,0E0,0E0,0E0],"parents":[2147483647,0,0,1,1,2,2,3,3,4,4,5,5,6,6],"right_children":[2,4,6,8,10,12,14,-1,-1,-1,-1,-1,-1,-1,-1],"split_conditions":[-2.3246018E-2,8.2633233E-1,7.1428573E-1,1.63E2,1.3531588E-2,-2.2572747E-1,6E0,2.049977E-2,-5.4762824E-3,-1.2407535E-2,6.5330365E-3,-6.1402768E-2,-2.1990442E-3,2.2886072E-3,3.0729378E-2],"split_indices":[6,9,4,3,8,5,3,0,0,0,0,0,0,0,0],"split_type":[0,0,0,0,0,0,0,0,0,0,0,0,0,0,0],"sum_hessian":[2.3332244E3,7.664017E2,1.5668228E3,2.0759203E2,5.5880963E2,1.468622E3,9.820086E1,1.795947E2,2.7997332E1,1.4248767E2,4.1632193E2,6.739198E0,1.4618827E3,5.889593E1,3.9304924E1],"tree_param":{"num_deleted":"0","num_feature":"27","num_nodes":"15","size_leaf_vector":"1"}},{"base_weights":[1.0727255E-3,2.17186E-2,-1.832968E-1,-6.8627624E-3,2.0002799E-1,6.1298728E-2,-4.060798E-1,7.312207E-3,-2.027406E-3,1.3906545E-2,-1.0097719E-2,-1.7373111E-2,1.4304425E-2,-2.669777E-2,2.0520868E-2],"categories":[],"categories_nodes":[],"categories_segments":[],"categories_sizes":[],"default_left":[0,0,0,0,0,0,0,0,0,0,0,0,0,0,0],"id":57,"left_children":[1,3,5,7,9,11,13,-1,-1,-1,-1,-1,-1,-1,-1],"loss_changes":[8.791248E0,1.0586064E1,1.2698685E1,9.242796E0,9.065391E0,1.0365981E1,1.2941452E1,0E0,0E0,0E0,0E0,0E0,0E0,0E0,0E0],"parents":[2147483647,0,0,1,1,2,2,3,3,4,4,5,5,6,6],"right_children":[2,4,6,8,10,12,14,-1,-1,-1,-1,-1,-1,-1,-1],"split_conditions":[2.287941E-2,6.136364E-1,1.4527336E-2,-4.743742E-2,8.5714287E-1,7.69324E-1,9.214135E-2,7.312207E-3,-2.027406E-3,1.3906545E-2,-1.0097719E-2,-1.7373111E-2,1.4304425E-2,-2.669777E-2,2.0520868E-2],"split_indices":[5,4,8,5,4,9,1,0,0,0,0,0,0,0,0],"split_type":[0,0,0,0,0,0,0,0,0,0,0,0,0,0,0],"sum_hessian":[2.3075083E3,2.0759263E3,2.31582E2,1.7899717E3,2.8595456E2,1.1073255E2,1.2084945E2,3.221936E2,1.4677781E3,2.396919E2,4.6262672E1,3.9095325E1,7.163722E1,1.0478465E2,1.6064795E1],"tree_param":{"num_deleted":"0","num_feature":"27","num_nodes":"15","size_leaf_vector":"1"}},{"base_weights":[1.660098E-2,2.1505643E-2,-8.3665156E-1,-1.335737E-1,4.6087015E-2,-4.3181283E-3,-6.710249E-2,-1.7002173E-2,2.6742953E-3,4.2939046E-3,-4.344104E-3],"categories":[],"categories_nodes":[],"categories_segments":[],"categories_sizes":[],"default_left":[0,0,0,0,0,0,0,0,0,0,0],"id":58,"left_children":[1,3,5,7,9,-1,-1,-1,-1,-1,-1],"loss_changes":[9.626838E0,8.712595E0,4.8696985E0,1.209706E1,1.0442196E1,0E0,0E0,0E0,0E0,0E0,0E0],"parents":[2147483647,0,0,1,1,2,2,3,3,4,4],"right_children":[2,4,6,8,10,-1,-1,-1,-1,-1,-1],"split_conditions":[1.22314565E-1,1.6E1,2E0,4.5E1,1.18E2,-4.3181283E-3,-6.710249E-2,-1.7002173E-2,2.6742953E-3,4.2939046E-3,-4.344104E-3],"split_indices":[5,14,16,3,14,0,0,0,0,0,0],"split_type":[0,0,0,0,0,0,0,0,0,0,0],"sum_hessian":[2.295066E3,2.282918E3,1.2147867E1,3.1174466E2,1.9711733E3,5.360627E0,6.7872396E0,1.4779544E2,1.6394922E2,1.5174344E3,4.537389E2],"tree_param":{"num_deleted":"0","num_feature":"27","num_nodes":"11","size_leaf_vector":"1"}},{"base_weights":[1.448031E-3,-1.4358256E-2,3.616903E-1,6.975156E-2,-9.084634E-2,5.9116393E-1,-4.038599E-2,5.3289956E-3,-1.8492255E-2,-5.711901E-3,1.17678875E-2,1.2708883E-2,4.836722E-2,-4.496868E-2,1.2934687E-2],"categories":[],"categories_nodes":[],"categories_segments":[],"categories_sizes":[],"default_left":[0,0,0,0,0,0,0,0,0,0,0,0,0,0,0],"id":59,"left_children":[1,3,5,7,9,11,13,-1,-1,-1,-1,-1,-1,-1,-1],"loss_changes":[1.3325968E1,1.443023E1,9.100007E0,1.7336094E1,8.990029E0,7.7012825E0,9.655587E0,0E0,0E0,0E0,0E0,0E0,0E0,0E0,0E0],"parents":[2147483647,0,0,1,1,2,2,3,3,4,4,5,5,6,6],"right_children":[2,4,6,8,10,12,14,-1,-1,-1,-1,-1,-1,-1,-1],"split_conditions":[1E0,2.6E1,4.9855858E-2,1.9E1,4.0137317E-2,-3.6247827E-2,9.1881845E-3,5.3289956E-3,-1.8492255E-2,-5.711901E-3,1.17678875E-2,1.2708883E-2,4.836722E-2,-4.496868E-2,1.2934687E-2],"split_indices":[19,2,7,10,8,7,8,0,0,0,0,0,0,0,0],"split_type":[0,0,0,0,0,0,0,0,0,0,0,0,0,0,0],"sum_hessian":[2.3384026E3,2.2410332E3,9.736928E1,1.0673806E3,1.1736527E3,6.1690754E1,3.5678524E1,9.8556946E2,8.181109E1,1.0957291E3,7.792356E1,3.3424465E1,2.826629E1,8.695893E0,2.6982632E1],"tree_param":{"num_deleted":"0","num_feature":"27","num_nodes":"15","size_leaf_vector":"1"}},{"base_weights":[9.184998E-4,5.315384E-2,-2.9508634E-3,2.8001912E-2,-1.4584845E-1,-7.802952E-4,1.2224997E-2,-8.494702E-3,4.3738775E-2],"categories":[],"categories_nodes":[],"categories_segments":[],"categories_sizes":[],"default_left":[0,0,0,0,0,0,0,0,0],"id":60,"left_children":[1,-1,3,5,7,-1,-1,-1,-1],"loss_changes":[9.604723E0,0E0,1.0304282E1,1.8083004E1,1.0327852E1,0E0,0E0,0E0,0E0],"parents":[2147483647,0,0,2,2,3,3,4,4],"right_children":[2,-1,4,6,8,-1,-1,-1,-1],"split_conditions":[2.8804E2,5.315384E-2,1.21E2,1.11E2,1.36E2,-7.802952E-4,1.2224997E-2,-8.494702E-3,4.3738775E-2],"split_indices":[0,0,14,14,14,0,0,0,0],"split_type":[0,0,0,0,0,0,0,0,0],"sum_hessian":[2.335223E3,7.482563E0,2.3277402E3,1.9139642E3,4.1377612E2,1.5938525E3,3.201116E2,4.050664E2,8.709704E0],"tree_param":{"num_deleted":"0","num_feature":"27","num_nodes":"9","size_leaf_vector":"1"}},{"base_weights":[-1.2294722E-2,1.3316312E-3,-3.331357E-1,-2.106823E-2,2.045057E-1,-6.919994E-1,-3.831525E-2,-2.263376E-3,7.4256086E-3,3.481838E-2,2.6359605E-3,-6.578729E-2,-2.1648254E-2,1.29705565E-2,-3.852729E-2],"categories":[],"categories_nodes":[],"categories_segments":[],"categories_sizes":[],"default_left":[0,0,0,0,0,0,0,0,0,0,0,0,0,0,0],"id":61,"left_children":[1,3,5,7,9,11,13,-1,-1,-1,-1,-1,-1,-1,-1],"loss_changes":[1.0124921E1,1.0118883E1,9.955877E0,8.225142E0,1.6446827E1,6.2963295E0,1.1722756E1,0E0,0E0,0E0,0E0,0E0,0E0,0E0,0E0],"parents":[2147483647,0,0,1,1,2,2,3,3,4,4,5,5,6,6],"right_children":[2,4,6,8,10,12,14,-1,-1,-1,-1,-1,-1,-1,-1],"split_conditions":[1E0,1E0,5.018382E-1,1.71E2,9.470518E-3,-1.2175446E-1,7.2351173E-3,-2.263376E-3,7.4256086E-3,3.481838E-2,2.6359605E-3,-6.578729E-2,-2.1648254E-2,1.29705565E-2,-3.852729E-2],"split_indices":[20,15,4,3,8,7,5,0,0,0,0,0,0,0,0],"split_type":[0,0,0,0,0,0,0,0,0,0,0,0,0,0,0],"sum_hessian":[2.3148113E3,2.2214602E3,9.3351204E1,2.0016729E3,2.1978735E2,4.1495064E1,5.1856136E1,1.7523446E3,2.4932823E2,5.098462E1,1.6880273E2,1.0978868E1,3.0516197E1,3.7325314E1,1.4530822E1],"tree_param":{"num_deleted":"0","num_feature":"27","num_nodes":"15","size_leaf_vector":"1"}},{"base_weights":[4.494466E-3,-1.8957851E-2,1.6468062E-1,1.2141609E-3,-2.0612958E-1,5.0052647E-2,5.794234E-1,4.762203E-3,-2.3447531E-3,3.246573E-3,-2.228213E-2,3.8907368E-2,-2.80007E-4,1.6254114E-2,5.7207674E-2],"categories":[],"categories_nodes":[],"categories_segments":[],"categories_sizes":[],"default_left":[0,0,0,0,0,0,0,0,0,0,0,0,0,0,0],"id":62,"left_children":[1,3,5,7,9,11,13,-1,-1,-1,-1,-1,-1,-1,-1],"loss_changes":[8.697895E0,7.626151E0,1.4027935E1,8.2569E0,1.2786535E1,9.435453E0,8.810694E0,0E0,0E0,0E0,0E0,0E0,0E0,0E0,0E0],"parents":[2147483647,0,0,1,1,2,2,3,3,4,4,5,5,6,6],"right_children":[2,4,6,8,10,12,14,-1,-1,-1,-1,-1,-1,-1,-1],"split_conditions":[1E0,2.287941E-2,5.945946E-1,-2.244217E-2,1.4527336E-2,7.019485E-3,1.4978163E-1,4.762203E-3,-2.3447531E-3,3.246573E-3,-2.228213E-2,3.8907368E-2,-2.80007E-4,1.6254114E-2,5.7207674E-2],"split_indices":[22,5,4,6,8,8,7,0,0,0,0,0,0,0,0],"split_type":[0,0,0,0,0,0,0,0,0,0,0,0,0,0,0],"sum_hessian":[2.3134485E3,2.0187688E3,2.9467953E2,1.8232642E3,1.9550467E2,2.3174875E2,6.2930786E1,6.167808E2,1.2064833E3,9.205421E1,1.0345047E2,1.55343E1,2.1621445E2,4.4475643E1,1.8455145E1],"tree_param":{"num_deleted":"0","num_feature":"27","num_nodes":"15","size_leaf_vector":"1"}},{"base_weights":[1.32375015E-2,6.429299E-2,9.7688725E-3,4.7287013E-2,-1.0470077E-1,-6.280027E-2,2.6506302E-3,-1.9850393E-3,-2.165753E-2],"categories":[],"categories_nodes":[],"categories_segments":[],"categories_sizes":[],"default_left":[0,0,0,0,0,0,0,0,0],"id":63,"left_children":[1,-1,3,5,7,-1,-1,-1,-1],"loss_changes":[1.01177E1,0E0,9.838356E0,1.2939864E1,1.205611E1,0E0,0E0,0E0,0E0],"parents":[2147483647,0,0,2,2,3,3,4,4],"right_children":[2,-1,4,6,8,-1,-1,-1,-1],"split_conditions":[2.3165E2,6.429299E-2,4.2E1,-2.8935418E-1,1E0,-6.280027E-2,2.6506302E-3,-1.9850393E-3,-2.165753E-2],"split_indices":[0,0,16,9,12,0,0,0,0],"split_type":[0,0,0,0,0,0,0,0,0],"sum_hessian":[2.293897E3,5.23026E0,2.2886667E3,1.7241521E3,5.645148E2,6.586236E0,1.7175658E3,4.7218967E2,9.232511E1],"tree_param":{"num_deleted":"0","num_feature":"27","num_nodes":"9","size_leaf_vector":"1"}},{"base_weights":[-5.2613383E-3,-4.1704082E-1,5.7871696E-3,-5.880783E-1,-2.6038643E-3,1.2606857E-3,5.2256435E-2,1.1780617E-2,-3.5612263E-2,4.575079E-2,-2.1232078E-2,-1.589961E-4,4.6167504E-2],"categories":[],"categories_nodes":[],"categories_segments":[],"categories_sizes":[],"default_left":[0,0,0,0,0,0,0,0,0,0,0,0,0],"id":64,"left_children":[1,3,5,7,9,11,-1,-1,-1,-1,-1,-1,-1],"loss_changes":[1.0524873E1,4.283331E0,1.0599986E1,4.543665E0,7.6164165E0,9.193917E0,0E0,0E0,0E0,0E0,0E0,0E0,0E0],"parents":[2147483647,0,0,1,1,2,2,3,3,4,4,5,5],"right_children":[2,4,6,8,10,12,-1,-1,-1,-1,-1,-1,-1],"split_conditions":[-2.7651155E-1,-8.376997E-2,5.00001E5,8E0,-1.6592205E-2,1.35E2,5.2256435E-2,1.1780617E-2,-3.5612263E-2,4.575079E-2,-2.1232078E-2,-1.589961E-4,4.6167504E-2],"split_indices":[1,7,0,16,7,14,0,0,0,0,0,0,0],"split_type":[0,0,0,0,0,0,0,0,0,0,0,0,0],"sum_hessian":[2.3118577E3,5.9448723E1,2.252409E3,4.17851E1,1.7663624E1,2.2436387E3,8.770161E0,5.356164E0,3.6428932E1,5.1966553E0,1.24669695E1,2.2338774E3,9.761379E0],"tree_param":{"num_deleted":"0","num_feature":"27","num_nodes":"13","size_leaf_vector":"1"}},{"base_weights":[2.4159523E-2,1.9868568E-2,4.859216E-2,9.351258E-2,-3.0931076E-2,-2.6732786E-3,8.205402E-3,-5.327453E-4,-2.732502E-2],"categories":[],"categories_nodes":[],"categories_segments":[],"categories_sizes":[],"default_left":[0,0,0,0,0,0,0,0,0],"id":65,"left_children":[1,3,-1,5,7,-1,-1,-1,-1],"loss_changes":[9.436628E0,8.666824E0,0E0,9.820566E0,1.4329007E1,0E0,0E0,0E0,0E0],"parents":[2147483647,0,0,1,1,3,3,4,4],"right_children":[2,4,-1,6,8,-1,-1,-1,-1],"split_conditions":[1.36E2,2.2E1,4.859216E-2,2.8E1,3.9225373E-2,-2.6732786E-3,8.205402E-3,-5.327453E-4,-2.732502E-2],"split_indices":[14,2,0,3,5,0,0,0,0],"split_type":[0,0,0,0,0,0,0,0,0],"sum_hessian":[2.3243447E3,2.3148843E3,9.460444E0,9.4462494E2,1.3702593E3,3.0657834E2,6.3804663E2,1.3193914E3,5.0868E1],"tree_param":{"num_deleted":"0","num_feature":"27","num_nodes":"9","size_leaf_vector":"1"}},{"base_weights":[-2.6460595E-2,-1.491378E-3,-1.9632666E-1,1.1524645E-1,-4.288311E-2,1.3788834E-1,-2.8316015E-1,7.6966793E-3,-2.1966796E-2,-3.925906E-2,-1.7869847E-3,-1.1435522E-2,2.5769029E-2,-9.910506E-3,-4.979225E-2],"categories":[],"categories_nodes":[],"categories_segments":[],"categories_sizes":[],"default_left":[0,0,0,0,0,0,0,0,0,0,0,0,0,0,0],"id":66,"left_children":[1,3,5,7,9,11,13,-1,-1,-1,-1,-1,-1,-1,-1],"loss_changes":[9.853509E0,9.796968E0,8.679399E0,1.1454446E1,7.90867E0,8.7080765E0,1.4130257E1,0E0,0E0,0E0,0E0,0E0,0E0,0E0,0E0],"parents":[2147483647,0,0,1,1,2,2,3,3,4,4,5,5,6,6],"right_children":[2,4,6,8,10,12,14,-1,-1,-1,-1,-1,-1,-1,-1],"split_conditions":[1E1,1.6E1,9.389518E-3,7.096774E-1,3.578481E-3,5.251391E-2,1.26E2,7.6966793E-3,-2.1966796E-2,-3.925906E-2,-1.7869847E-3,-1.1435522E-2,2.5769029E-2,-9.910506E-3,-4.979225E-2],"split_indices":[10,2,8,4,8,7,14,0,0,0,0,0,0,0,0],"split_type":[0,0,0,0,0,0,0,0,0,0,0,0,0,0,0],"sum_hessian":[2.3222305E3,2.0255033E3,2.9672714E2,5.297253E2,1.495778E3,6.1073246E1,2.356539E2,4.958572E2,3.3868084E1,1.3219079E1,1.4825588E3,3.1183628E1,2.9889618E1,2.116982E2,2.3955711E1],"tree_param":{"num_deleted":"0","num_feature":"27","num_nodes":"15","size_leaf_vector":"1"}},{"base_weights":[-7.5226496E-3,-5.0856892E-2,9.010618E-2,-3.711577E-2,-5.217201E-1,6.505686E-2,8.066419E-1,3.7588277E-3,-4.294158E-3,4.65461E-3,-3.5432734E-2,-5.8355898E-2,3.8804566E-3,5.8852743E-2,-2.7932841E-3],"categories":[],"categories_nodes":[],"categories_segments":[],"categories_sizes":[],"default_left":[0,0,0,0,0,0,0,0,0,0,0,0,0,0,0],"id":67,"left_children":[1,3,5,7,9,11,13,-1,-1,-1,-1,-1,-1,-1,-1],"loss_changes":[9.833659E0,1.0395786E1,1.277326E1,8.577515E0,5.3030148E0,1.0786144E1,7.7491217E0,0E0,0E0,0E0,0E0,0E0,0E0,0E0,0E0],"parents":[2147483647,0,0,1,1,2,2,3,3,4,4,5,5,6,6],"right_children":[2,4,6,8,10,12,14,-1,-1,-1,-1,-1,-1,-1,-1],"split_conditions":[5.490716E-1,2.287941E-2,1.33E2,8.523883E-1,1.1396728E-2,-2.8935418E-1,9.170184E-3,3.7588277E-3,-4.294158E-3,4.65461E-3,-3.5432734E-2,-5.8355898E-2,3.8804566E-3,5.8852743E-2,-2.7932841E-3],"split_indices":[4,5,14,9,8,9,5,0,0,0,0,0,0,0,0],"split_type":[0,0,0,0,0,0,0,0,0,0,0,0,0,0,0],"sum_hessian":[2.3222898E3,1.6087136E3,7.1357623E2,1.5641462E3,4.456739E1,6.90527E2,2.3049292E1,4.7344495E2,1.0907012E3,1.0508337E1,3.405905E1,6.035954E0,6.84491E2,1.5869344E1,7.179947E0],"tree_param":{"num_deleted":"0","num_feature":"27","num_nodes":"15","size_leaf_vector":"1"}},{"base_weights":[9.53002E-3,1.0180938E-1,-3.900084E-2,7.7218674E-2,8.4627753E-1,-1.2331766E-1,5.9743036E-2,6.583319E-3,-1.2158238E-2,6.4965235E-3,6.897705E-2,-2.6994113E-2,-3.702713E-3,6.646058E-3,-1.4010486E-2],"categories":[],"categories_nodes":[],"categories_segments":[],"categories_sizes":[],"default_left":[0,0,0,0,0,0,0,0,0,0,0,0,0,0,0],"id":68,"left_children":[1,3,5,7,9,11,13,-1,-1,-1,-1,-1,-1,-1,-1],"loss_changes":[1.0424344E1,1.4620923E1,1.2709055E1,1.3597824E1,9.581163E0,1.6853962E1,1.7534586E1,0E0,0E0,0E0,0E0,0E0,0E0,0E0,0E0],"parents":[2147483647,0,0,1,1,2,2,3,3,4,4,5,5,6,6],"right_children":[2,4,6,8,10,12,14,-1,-1,-1,-1,-1,-1,-1,-1],"split_conditions":[-1.9192424E-2,1.5999581E-1,1.0449922E0,1.4011788E0,6E0,2E0,5.507981E-4,6.583319E-3,-1.2158238E-2,6.4965235E-3,6.897705E-2,-2.6994113E-2,-3.702713E-3,6.646058E-3,-1.4010486E-2],"split_indices":[6,1,9,9,13,13,5,0,0,0,0,0,0,0,0],"split_type":[0,0,0,0,0,0,0,0,0,0,0,0,0,0,0],"sum_hessian":[2.325809E3,8.0122186E2,1.5245872E3,7.766712E2,2.4550688E1,8.2223584E2,7.0235126E2,6.6435596E2,1.1231522E2,1.1007573E1,1.3543114E1,8.5901924E1,7.363339E2,5.784445E2,1.2390678E2],"tree_param":{"num_deleted":"0","num_feature":"27","num_nodes":"15","size_leaf_vector":"1"}},{"base_weights":[5.5754846E-3,4.6909016E-2,-1.251683E-1,2.187303E-2,3.5197374E-1,-6.631978E-2,-4.2639002E-1,-5.391984E-4,1.1571142E-2,5.294192E-3,3.804748E-2,-2.019794E-2,7.402584E-4,-1.0947733E-2,-5.791038E-2],"categories":[],"categories_nodes":[],"categories_segments":[],"categories_sizes":[],"default_left":[0,0,0,0,0,0,0,0,0,0,0,0,0,0,0],"id":69,"left_children":[1,3,5,7,9,11,13,-1,-1,-1,-1,-1,-1,-1,-1],"loss_changes":[1.2442621E1,1.3352659E1,9.775607E0,1.107273E1,1.3265522E1,1.2711506E1,1.344022E1,0E0,0E0,0E0,0E0,0E0,0E0,0E0,0E0],"parents":[2147483647,0,0,1,1,2,2,3,3,4,4,5,5,6,6],"right_children":[2,4,6,8,10,12,14,-1,-1,-1,-1,-1,-1,-1,-1],"split_conditions":[4.2E1,5.0001E4,1E0,1E0,5.1182795E-1,5.2E1,1.16E2,-5.391984E-4,1.1571142E-2,5.294192E-3,3.804748E-2,-2.019794E-2,7.402584E-4,-1.0947733E-2,-5.791038E-2],"split_indices":[16,0,12,22,4,16,3,0,0,0,0,0,0,0,0],"split_type":[0,0,0,0,0,0,0,0,0,0,0,0,0,0,0],"sum_hessian":[2.3003535E3,1.7482883E3,5.5206525E2,1.6166825E3,1.3160585E2,4.6285855E2,8.92067E1,1.3995242E3,2.1715836E2,8.295118E1,4.8654675E1,8.889624E1,3.739623E2,7.051754E1,1.8689165E1],"tree_param":{"num_deleted":"0","num_feature":"27","num_nodes":"15","size_leaf_vector":"1"}},{"base_weights":[3.8300706E-3,3.8650297E-2,-1.1145592E-1,3.3799823E-2,5.5144936E-2,5.8443453E-2,-2.1010053E-1,-4.9932163E-2,1.9343821E-3,-7.5963894E-3,2.1846509E-2,-7.363786E-3,-4.477687E-2],"categories":[],"categories_nodes":[],"categories_segments":[],"categories_sizes":[],"default_left":[0,0,0,0,0,0,0,0,0,0,0,0,0],"id":70,"left_children":[1,3,5,7,-1,9,11,-1,-1,-1,-1,-1,-1],"loss_changes":[9.355404E0,9.202035E0,9.072929E0,9.035067E0,0E0,1.5940761E1,1.4606346E1,0E0,0E0,0E0,0E0,0E0,0E0],"parents":[2147483647,0,0,1,1,2,2,3,3,5,5,6,6],"right_children":[2,4,6,8,-1,10,12,-1,-1,-1,-1,-1,-1],"split_conditions":[4E1,1.36E2,1.0929879E-2,-2.8935418E-1,5.5144936E-2,8.09064E-2,2.9486343E-3,-4.9932163E-2,1.9343821E-3,-7.5963894E-3,2.1846509E-2,-7.363786E-3,-4.477687E-2],"split_indices":[2,14,8,9,0,7,5,0,0,0,0,0,0],"split_type":[0,0,0,0,0,0,0,0,0,0,0,0,0],"sum_hessian":[2.3284556E3,1.7888329E3,5.396226E2,1.781744E3,7.08881E0,1.9836998E2,3.4125266E2,7.4374404E0,1.7743066E3,1.2788647E2,7.048352E1,3.137136E2,2.7539055E1],"tree_param":{"num_deleted":"0","num_feature":"27","num_nodes":"13","size_leaf_vector":"1"}},{"base_weights":[9.911447E-3,-1.4239993E-2,1.8539532E-1,8.0174126E-2,-5.67291E-2,8.3620477E-1,1.4583775E-1,-1.5668731E-2,6.3187233E-3,-5.6969407E-3,3.0817164E-3,1.7302131E-2,7.163459E-2,-1.4627094E-2,1.1483257E-2],"categories":[],"categories_nodes":[],"categories_segments":[],"categories_sizes":[],"default_left":[0,0,0,0,0,0,0,0,0,0,0,0,0,0,0],"id":71,"left_children":[1,3,5,7,9,11,13,-1,-1,-1,-1,-1,-1,-1,-1],"loss_changes":[9.74683E0,8.115642E0,7.0405703E0,1.1456793E1,9.453236E0,4.1033955E0,9.749823E0,0E0,0E0,0E0,0E0,0E0,0E0,0E0,0E0],"parents":[2147483647,0,0,1,1,2,2,3,3,4,4,5,5,6,6],"right_children":[2,4,6,8,10,12,14,-1,-1,-1,-1,-1,-1,-1,-1],"split_conditions":[1E0,8.523883E-1,-9.160769E-2,2E0,8E0,1.11E2,1.2E1,-1.5668731E-2,6.3187233E-3,-5.6969407E-3,3.0817164E-3,1.7302131E-2,7.163459E-2,-1.4627094E-2,1.1483257E-2],"split_indices":[21,9,5,13,13,3,14,0,0,0,0,0,0,0,0],"split_type":[0,0,0,0,0,0,0,0,0,0,0,0,0,0,0],"sum_hessian":[2.2981404E3,2.0209242E3,2.7721628E2,6.2693616E2,1.393988E3,1.4730357E1,2.624859E2,6.52588E1,5.6167737E2,9.397886E2,4.5419943E2,8.953208E0,5.7771487E0,4.1735916E1,2.2075E2],"tree_param":{"num_deleted":"0","num_feature":"27","num_nodes":"15","size_leaf_vector":"1"}},{"base_weights":[1.402283E-3,-2.8746514E-2,1.4058313E-1,-4.2231943E-2,2.9050988E-1,-5.8432776E-1,1.8126774E-1,-1.3288165E-3,-1.2645545E-2,4.883052E-2,5.5386275E-3,5.474153E-3,-4.2289086E-2,7.452617E-3,3.6961388E-2],"categories":[],"categories_nodes":[],"categories_segments":[],"categories_sizes":[],"default_left":[0,0,0,0,0,0,0,0,0,0,0,0,0,0,0],"id":72,"left_children":[1,3,5,7,9,11,13,-1,-1,-1,-1,-1,-1,-1,-1],"loss_changes":[9.759954E0,8.24337E0,1.2319651E1,6.04646E0,9.462609E0,4.1276407E0,6.9518538E0,0E0,0E0,0E0,0E0,0E0,0E0,0E0,0E0],"parents":[2147483647,0,0,1,1,2,2,3,3,4,4,5,5,6,6],"right_children":[2,4,6,8,10,12,14,-1,-1,-1,-1,-1,-1,-1,-1],"split_conditions":[6.111111E-1,1E0,-2.8246158E-1,2.3744956E-1,-8.0730304E-2,2E0,2E0,-1.3288165E-3,-1.2645545E-2,4.883052E-2,5.5386275E-3,5.474153E-3,-4.2289086E-2,7.452617E-3,3.6961388E-2],"split_indices":[4,19,7,7,5,3,15,0,0,0,0,0,0,0,0],"split_type":[0,0,0,0,0,0,0,0,0,0,0,0,0,0,0],"sum_hessian":[2.323976E3,1.910849E3,4.13127E2,1.8342383E3,7.661073E1,2.1243944E1,3.9188306E2,1.7084119E3,1.2582642E2,1.49831E1,6.1627632E1,5.9735093E0,1.5270435E1,3.7168964E2,2.0193417E1],"tree_param":{"num_deleted":"0","num_feature":"27","num_nodes":"15","size_leaf_vector":"1"}},{"base_weights":[-3.259602E-3,1.0525468E-2,-3.052875E-1,-3.3294183E-1,2.052019E-2,-1.7048419E-1,-8.026251E-1,-2.699104E-2,2.223932E-3,1.9646788E-3,-6.86232E-3,-1.5653244E-3,-4.5933865E-2,-5.60911E-2,1.9044973E-3],"categories":[],"categories_nodes":[],"categories_segments":[],"categories_sizes":[],"default_left":[0,0,0,0,0,0,0,0,0,0,0,0,0,0,0],"id":73,"left_children":[1,3,5,7,9,11,13,-1,-1,-1,-1,-1,-1,-1,-1],"loss_changes":[9.536902E0,7.527732E0,6.5663424E0,4.8656263E0,6.3136005E0,8.294693E0,5.692027E0,0E0,0E0,0E0,0E0,0E0,0E0,0E0,0E0],"parents":[2147483647,0,0,1,1,2,2,3,3,4,4,5,5,6,6],"right_children":[2,4,6,8,10,12,14,-1,-1,-1,-1,-1,-1,-1,-1],"split_conditions":[1E0,-2.5444373E-1,1.2925155E0,-1.5666509E-2,1.4235218E0,6.746702E-2,1.4552348E0,-2.699104E-2,2.223932E-3,1.9646788E-3,-6.86232E-3,-1.5653244E-3,-4.5933865E-2,-5.60911E-2,1.9044973E-3],"split_indices":[20,1,9,6,9,1,9,0,0,0,0,0,0,0,0],"split_type":[0,0,0,0,0,0,0,0,0,0,0,0,0,0,0],"sum_hessian":[2.2888389E3,2.1898552E3,9.898359E1,6.1008106E1,2.1288472E3,7.89319E1,2.0051691E1,3.9129436E1,2.1878672E1,1.9031353E3,2.25712E2,6.7430435E1,1.1501461E1,1.4291302E1,5.76039E0],"tree_param":{"num_deleted":"0","num_feature":"27","num_nodes":"15","size_leaf_vector":"1"}},{"base_weights":[2.054372E-3,-4.6442044E-3,5.7446027E-1,2.517741E-2,-1.3991332E-1,9.385833E-1,8.780696E-2,2.6466406E-3,-7.41112E-3,-2.8593055E-4,-1.733376E-2,2.8882107E-2,6.508848E-2,-1.5389064E-2,2.307603E-2],"categories":[],"categories_nodes":[],"categories_segments":[],"categories_sizes":[],"default_left":[0,0,0,0,0,0,0,0,0,0,0,0,0,0,0],"id":74,"left_children":[1,3,5,7,9,11,13,-1,-1,-1,-1,-1,-1,-1,-1],"loss_changes":[8.892782E0,9.252326E0,4.671418E0,9.053161E0,1.1493576E1,1.2461348E0,2.0025692E0,0E0,0E0,0E0,0E0,0E0,0E0,0E0,0E0],"parents":[2147483647,0,0,1,1,2,2,3,3,4,4,5,5,6,6],"right_children":[2,4,6,8,10,12,14,-1,-1,-1,-1,-1,-1,-1,-1],"split_conditions":[2.50001E5,5.507981E-4,3.1E1,1.26E2,5.5785213E-2,2.4810262E-2,8E0,2.6466406E-3,-7.41112E-3,-2.8593055E-4,-1.733376E-2,2.8882107E-2,6.508848E-2,-1.5389064E-2,2.307603E-2],"split_indices":[0,5,2,14,7,1,13,0,0,0,0,0,0,0,0],"split_type":[0,0,0,0,0,0,0,0,0,0,0,0,0,0,0],"sum_hessian":[2.3175725E3,2.291745E3,2.5827248E1,1.8784364E3,4.133088E2,1.42422695E1,1.1584978E1,1.6198486E3,2.585878E2,2.512607E2,1.620481E2,8.442472E0,5.799797E0,5.713487E0,5.871491E0],"tree_param":{"num_deleted":"0","num_feature":"27","num_nodes":"15","size_leaf_vector":"1"}},{"base_weights":[1.1862288E-3,-8.308828E-2,4.63172E-2,-7.879887E-1,-6.408946E-2,2.6753563E-1,1.9461475E-3,-5.666225E-2,8.060273E-3,4.3179225E-3,-7.98492E-3,-4.0464536E-3,1.9187307E-2,3.8670253E-3,-5.6981924E-3],"categories":[],"categories_nodes":[],"categories_segments":[],"categories_sizes":[],"default_left":[0,0,0,0,0,0,0,0,0,0,0,0,0,0,0],"id":75,"left_children":[1,3,5,7,9,11,13,-1,-1,-1,-1,-1,-1,-1,-1],"loss_changes":[8.818861E0,1.0779301E1,1.4821293E1,7.108897E0,1.1356078E1,1.0246582E1,1.1008952E1,0E0,0E0,0E0,0E0,0E0,0E0,0E0,0E0],"parents":[2147483647,0,0,1,1,2,2,3,3,4,4,5,5,6,6],"right_children":[2,4,6,8,10,12,14,-1,-1,-1,-1,-1,-1,-1,-1],"split_conditions":[4.3E1,-1.355913E-1,6.5E1,3.3124685E-2,-8.920812E-3,-4.004211E-2,3E1,-5.666225E-2,8.060273E-3,4.3179225E-3,-7.98492E-3,-4.0464536E-3,1.9187307E-2,3.8670253E-3,-5.6981924E-3],"split_indices":[14,5,14,1,5,6,2,0,0,0,0,0,0,0,0],"split_type":[0,0,0,0,0,0,0,0,0,0,0,0,0,0,0],"sum_hessian":[2.3166724E3,8.076607E2,1.5090116E3,2.0134851E1,7.875259E2,2.5126476E2,1.257747E3,1.4622293E1,5.512558E0,3.0604214E2,4.814837E2,6.2914665E1,1.8835008E2,7.622618E2,4.9548508E2],"tree_param":{"num_deleted":"0","num_feature":"27","num_nodes":"15","size_leaf_vector":"1"}},{"base_weights":[1.2510235E-3,4.6251346E-3,-4.0716138E-2,-1.589999E-2,1.4885485E-1,9.776182E-4,-1.0904304E-2,-1.2214769E-2,1.9055171E-2],"categories":[],"categories_nodes":[],"categories_segments":[],"categories_sizes":[],"default_left":[0,0,0,0,0,0,0,0,0],"id":76,"left_children":[1,3,-1,5,7,-1,-1,-1,-1],"loss_changes":[6.371238E0,6.826999E0,0E0,1.4476847E1,2.632585E1,0E0,0E0,0E0,0E0],"parents":[2147483647,0,0,1,1,3,3,4,4],"right_children":[2,4,-1,6,8,-1,-1,-1,-1],"split_conditions":[2.0835032E0,1.71E2,-4.0716138E-2,2.7806383E-2,1.47957755E-2,9.776182E-4,-1.0904304E-2,-1.2214769E-2,1.9055171E-2],"split_indices":[9,3,0,8,8,0,0,0,0],"split_type":[0,0,0,0,0,0,0,0,0],"sum_hessian":[2.312899E3,2.3043599E3,8.539041E0,2.0180621E3,2.8629776E2,1.7177638E3,3.0029828E2,1.0630049E2,1.7999727E2],"tree_param":{"num_deleted":"0","num_feature":"27","num_nodes":"9","size_leaf_vector":"1"}},{"base_weights":[6.1677513E-3,8.942068E-2,-3.9573543E-2,7.255406E-2,9.0128666E-1,-1.7895988E-1,8.904899E-3,-1.0231963E-2,5.3878147E-3,7.807416E-3,6.413235E-2,-1.1497018E-2,2.9271701E-2,-1.6081635E-2,2.1093048E-3],"categories":[],"categories_nodes":[],"categories_segments":[],"categories_sizes":[],"default_left":[0,0,0,0,0,0,0,0,0,0,0,0,0,0,0],"id":77,"left_children":[1,3,5,7,9,11,13,-1,-1,-1,-1,-1,-1,-1,-1],"loss_changes":[8.812843E0,1.11715145E1,1.0094899E1,7.8770175E0,4.5207567E0,1.515712E1,1.2215605E1,0E0,0E0,0E0,0E0,0E0,0E0,0E0,0E0],"parents":[2147483647,0,0,1,1,2,2,3,3,4,4,5,5,6,6],"right_children":[2,4,6,8,10,12,14,-1,-1,-1,-1,-1,-1,-1,-1],"split_conditions":[-1.624302E-2,1.9757959E-1,-1.3488574E-2,-5.96823E-2,6E0,6.923077E-1,2E0,-1.0231963E-2,5.3878147E-3,7.807416E-3,6.413235E-2,-1.1497018E-2,2.9271701E-2,-1.6081635E-2,2.1093048E-3],"split_indices":[6,1,7,5,13,4,13,0,0,0,0,0,0,0,0],"split_type":[0,0,0,0,0,0,0,0,0,0,0,0,0,0,0],"sum_hessian":[2.3123093E3,8.196053E2,1.4927041E3,8.039916E2,1.5613665E1,3.8449725E2,1.1082069E3,9.005526E1,7.1393634E2,5.762937E0,9.850728E0,3.611124E2,2.3384836E1,1.0058331E2,1.00762354E3],"tree_param":{"num_deleted":"0","num_feature":"27","num_nodes":"15","size_leaf_vector":"1"}},{"base_weights":[-1.5236047E-3,-1.7817815E-1,1.9257687E-2,3.9371133E-1,-2.5836545E-1,-1.8267347E-2,1.1269196E-1,4.9723154E-3,6.344501E-2,2.7875403E-2,-1.498119E-2,-4.4452767E-3,4.2829392E-3,-6.8939887E-3,1.1036392E-2],"categories":[],"categories_nodes":[],"categories_segments":[],"categories_sizes":[],"default_left":[0,0,0,0,0,0,0,0,0,0,0,0,0,0,0],"id":78,"left_children":[1,3,5,7,9,11,13,-1,-1,-1,-1,-1,-1,-1,-1],"loss_changes":[8.45265E0,1.1215409E1,7.225358E0,7.6510186E0,7.34202E0,1.0804454E1,1.601481E1,0E0,0E0,0E0,0E0,0E0,0E0,0E0,0E0],"parents":[2147483647,0,0,1,1,2,2,3,3,4,4,5,5,6,6],"right_children":[2,4,6,8,10,12,14,-1,-1,-1,-1,-1,-1,-1,-1],"split_conditions":[3.4220532E-1,8.152393E-3,9E0,1E0,7E0,8.1E1,-3.6247827E-2,4.9723154E-3,6.344501E-2,2.7875403E-2,-1.498119E-2,-4.4452767E-3,4.2829392E-3,-6.8939887E-3,1.1036392E-2],"split_indices":[4,8,13,12,14,3,7,0,0,0,0,0,0,0,0],"split_type":[0,0,0,0,0,0,0,0,0,0,0,0,0,0,0],"sum_hessian":[2.3005435E3,2.4134862E2,2.0591948E3,2.9198355E1,2.1215027E2,1.4697278E3,5.89467E2,2.2684698E1,6.5136557E0,9.60963E0,2.0254063E2,8.750823E2,5.946455E2,1.7750249E2,4.119645E2],"tree_param":{"num_deleted":"0","num_feature":"27","num_nodes":"15","size_leaf_vector":"1"}},{"base_weights":[9.796185E-3,1.3987891E-2,-8.406774E-1,4.4054788E-2,-8.027452E-2,-1.8573968E-2,-5.8220007E-2,1.1107696E-3,1.5822325E-2,-5.5248043E-3,2.260014E-2],"categories":[],"categories_nodes":[],"categories_segments":[],"categories_sizes":[],"default_left":[0,0,0,0,0,0,0,0,0,0,0],"id":79,"left_children":[1,3,5,7,9,-1,-1,-1,-1,-1,-1],"loss_changes":[8.234717E0,6.5116396E0,1.2882404E0,1.0353641E1,8.988644E0,0E0,0E0,0E0,0E0,0E0,0E0],"parents":[2147483647,0,0,1,1,2,2,3,3,4,4],"right_children":[2,4,6,8,10,-1,-1,-1,-1,-1,-1],"split_conditions":[1.22314565E-1,4.2E1,-5.1106393E-2,5.0001E4,1.7077638E-1,-1.8573968E-2,-5.8220007E-2,1.1107696E-3,1.5822325E-2,-5.5248043E-3,2.260014E-2],"split_indices":[5,16,7,0,1,0,0,0,0,0,0],"split_type":[0,0,0,0,0,0,0,0,0,0,0],"sum_hessian":[2.305622E3,2.295293E3,1.0329193E1,1.7406199E3,5.546731E2,5.0938206E0,5.2353725E0,1.6124231E3,1.2819678E2,5.256218E2,2.9051273E1],"tree_param":{"num_deleted":"0","num_feature":"27","num_nodes":"11","size_leaf_vector":"1"}},{"base_weights":[-5.317795E-3,2.7233187E-2,-1.0576729E-1,-4.1478407E-1,3.5300322E-2,-1.2726362E-1,6.4103115E-1,-3.4001753E-2,3.5482686E-2,6.561015E-3,-4.9635273E-4,-2.8940067E-2,-3.7624314E-3,6.382627E-2,-1.1391506E-2],"categories":[],"categories_nodes":[],"categories_segments":[],"categories_sizes":[],"default_left":[0,0,0,0,0,0,0,0,0,0,0,0,0,0,0],"id":80,"left_children":[1,3,5,7,9,11,13,-1,-1,-1,-1,-1,-1,-1,-1],"loss_changes":[7.6482224E0,6.3145423E0,9.27166E0,9.950786E0,7.5324564E0,1.3045256E1,9.226318E0,0E0,0E0,0E0,0E0,0E0,0E0,0E0,0E0],"parents":[2147483647,0,0,1,1,2,2,3,3,4,4,5,5,6,6],"right_children":[2,4,6,8,10,12,14,-1,-1,-1,-1,-1,-1,-1,-1],"split_conditions":[4.2E1,-3.3925217E-1,2.750832E-1,5.240099E-2,-2.3246018E-2,4.6E1,5E0,-3.4001753E-2,3.5482686E-2,6.561015E-3,-4.9635273E-4,-2.8940067E-2,-3.7624314E-3,6.382627E-2,-1.1391506E-2],"split_indices":[16,1,1,6,6,16,10,0,0,0,0,0,0,0,0],"split_type":[0,0,0,0,0,0,0,0,0,0,0,0,0,0,0],"sum_hessian":[2.3372188E3,1.7657504E3,5.7146826E2,3.074496E1,1.7350055E3,5.5628534E2,1.5182894E1,2.5196432E1,5.5485287E0,5.5533276E2,1.1796727E3,5.641593E1,4.9986942E2,8.4981E0,6.6847935E0],"tree_param":{"num_deleted":"0","num_feature":"27","num_nodes":"15","size_leaf_vector":"1"}},{"base_weights":[-5.4095206E-3,-7.246445E-2,5.889503E-2,-9.524604E-2,3.3348295E-1,2.500061E-1,-1.3045475E-3,-3.272354E-3,-1.997195E-2,2.300738E-2,-3.702766E-2,1.0078724E-2,5.0809234E-2,-4.5856866E-3,4.9593127E-3],"categories":[],"categories_nodes":[],"categories_segments":[],"categories_sizes":[],"default_left":[0,0,0,0,0,0,0,0,0,0,0,0,0,0,0],"id":81,"left_children":[1,3,5,7,9,11,13,-1,-1,-1,-1,-1,-1,-1,-1],"loss_changes":[9.9221735E0,1.0449045E1,1.351483E1,9.648936E0,8.51383E0,1.0236849E1,8.133997E0,0E0,0E0,0E0,0E0,0E0,0E0,0E0,0E0],"parents":[2147483647,0,0,1,1,2,2,3,3,4,4,5,5,6,6],"right_children":[2,4,6,8,10,12,14,-1,-1,-1,-1,-1,-1,-1,-1],"split_conditions":[5.018382E-1,4.9457677E-2,9.94678E-3,3.1451438E-2,1.05669804E-1,1.3264486E0,7.6E1,-3.272354E-3,-1.997195E-2,2.300738E-2,-3.702766E-2,1.0078724E-2,5.0809234E-2,-4.5856866E-3,4.9593127E-3],"split_indices":[4,8,8,8,8,9,3,0,0,0,0,0,0,0,0],"split_type":[0,0,0,0,0,0,0,0,0,0,0,0,0,0,0],"sum_hessian":[2.2991045E3,1.125421E3,1.1736835E3,1.0663436E3,5.907735E1,2.8039178E2,8.932917E2,9.7231055E2,9.40331E1,5.3356422E1,5.7209277E0,2.6490942E2,1.5482347E1,4.7027963E2,4.2301205E2],"tree_param":{"num_deleted":"0","num_feature":"27","num_nodes":"15","size_leaf_vector":"1"}},{"base_weights":[-1.9954227E-2,1.23349264E-1,-4.441571E-2,4.0592854E-3,4.6550032E-1,-2.8462714E-1,-6.820483E-3,-7.615985E-3,1.5833324E-2,1.7305976E-2,6.290408E-2,-8.16554E-3,-3.48222E-2,-1.660184E-3,1.0266959E-2],"categories":[],"categories_nodes":[],"categories_segments":[],"categories_sizes":[],"default_left":[0,0,0,0,0,0,0,0,0,0,0,0,0,0,0],"id":82,"left_children":[1,3,5,7,9,11,13,-1,-1,-1,-1,-1,-1,-1,-1],"loss_changes":[8.0649805E0,1.3691621E1,1.7740486E1,1.2258623E1,7.770237E0,1.3168154E1,9.521401E0,0E0,0E0,0E0,0E0,0E0,0E0,0E0,0E0],"parents":[2147483647,0,0,1,1,2,2,3,3,4,4,5,5,6,6],"right_children":[2,4,6,8,10,12,14,-1,-1,-1,-1,-1,-1,-1,-1],"split_conditions":[-4.743742E-2,-5.96823E-2,-2.5264576E-2,1.2E2,1E1,5E0,1E0,-7.615985E-3,1.5833324E-2,1.7305976E-2,6.290408E-2,-8.16554E-3,-3.48222E-2,-1.660184E-3,1.0266959E-2],"split_indices":[5,5,5,3,13,10,15,0,0,0,0,0,0,0,0],"split_type":[0,0,0,0,0,0,0,0,0,0,0,0,0,0,0],"sum_hessian":[2.298157E3,3.345003E2,1.9636566E3,2.4877686E2,8.5723465E1,2.6484995E2,1.6988068E3,1.6616634E2,8.261051E1,7.575043E1,9.973042E0,2.0566118E2,5.9188778E1,1.5116664E3,1.8714037E2],"tree_param":{"num_deleted":"0","num_feature":"27","num_nodes":"15","size_leaf_vector":"1"}},{"base_weights":[1.3086653E-2,-6.433245E-2,5.522645E-2,-2.8550324E-3,-4.249461E-1,2.5117517E-1,1.938636E-2,-4.1801896E-2,6.815253E-4,1.9319935E-2,-2.7790708E-2,8.243821E-3,4.0412772E-2,4.8941565E-3,-4.4341176E-3],"categories":[],"categories_nodes":[],"categories_segments":[],"categories_sizes":[],"default_left":[0,0,0,0,0,0,0,0,0,0,0,0,0,0,0],"id":83,"left_children":[1,3,5,7,9,11,13,-1,-1,-1,-1,-1,-1,-1,-1],"loss_changes":[7.580311E0,1.8156294E1,1.0560287E1,9.636431E0,1.288026E1,1.1045845E1,1.0806501E1,0E0,0E0,0E0,0E0,0E0,0E0,0E0,0E0],"parents":[2147483647,0,0,1,1,2,2,3,3,4,4,5,5,6,6],"right_children":[2,4,6,8,10,12,14,-1,-1,-1,-1,-1,-1,-1,-1],"split_conditions":[4.4E1,3.5E1,6.5E1,-1.895262E-1,-1.1768208E-1,6.1E1,9.274627E-3,-4.1801896E-2,6.815253E-4,1.9319935E-2,-2.7790708E-2,8.243821E-3,4.0412772E-2,4.8941565E-3,-4.4341176E-3],"split_indices":[14,14,14,5,6,14,1,0,0,0,0,0,0,0,0],"split_type":[0,0,0,0,0,0,0,0,0,0,0,0,0,0,0],"sum_hessian":[2.3214314E3,8.1802734E2,1.5034039E3,6.997431E2,1.1828428E2,2.3153316E2,